4000 25
9.40519 -9.86538 -2.60945 -0.26087 2.66718 -7.09104 9.3484 1.09135 5.22331 2.23089 -3.88748 -1.64086 3.78188 5.11508 -1.27068 0.649613 1.90214 -2.95049 -1.76995 2.524 -1.85354 -3.55096 -1.43403 -1.50049 -0.88968 1
-23.8839 -5.57946 7.51709 -4.46445 8.2118 -8.8774 -9.03331 2.64977 -2.19171 1.16202 0.8473 -0.82819 4.10877 -1.30942 5.55412 1.60158 -3.2684 -3.74797 -0.148217 -0.828937 -1.25694 5.21323 1.41069 -1.45408 -0.266567 0
12.5669 -3.81097 -1.72109 -0.118529 5.84127 5.56819 -6.20078 2.30334 -4.65944 0.00223252 6.36434 -2.01235 1.17086 -0.552909 1.23407 2.61829 0.431514 2.11136 2.70713 1.06718 -2.03281 0.575847 -0.781962 1.42978 -2.77252 1
2.25327 3.60432 0.301685 -10.1081 7.39048 -1.34822 4.56763 -3.30339 0.697546 -4.74275 -1.04437 3.56971 1.68812 -1.94045 0.644791 1.25865 0.743473 -3.09697 -5.02319 3.35054 -1.71263 2.22603 -3.41287 2.17402 -1.13046 4
-26.955 -6.86121 8.93499 -2.19432 11.2227 -11.9635 -8.27945 4.60403 -0.713402 3.0656 1.1323 -4.04094 3.05457 -4.09534 1.63698 0.520881 -3.65289 -1.41344 2.20789 -2.29944 0.0852575 1.69969 1.63892 -0.616442 3.31057 0
-6.64986 2.75414 1.26538 0.771884 1.34053 -0.940078 2.8092 -8.89573 -6.4241 -1.56565 -7.28568 -3.76339 0.780807 -2.46809 6.55301 0.448805 0.460911 -1.75804 -2.70431 -5.38447 -0.833098 -3.66435 0.714668 0.931095 -2.50633 0
9.7368 6.39408 5.82139 0.689436 4.61963 -4.07618 -5.13098 -2.56574 -0.14003 3.29468 -2.3059 -3.06998 1.49834 -2.82326 -3.54017 3.29446 -2.21566 -2.90061 -1.44308 5.888 -1.19527 0.990772 -0.474632 -1.53001 0.810621 7
1.87549 -1.01777 8.03064 0.588526 3.24543 -3.76177 4.62657 -0.444096 0.834578 -1.90876 5.5159 4.55365 -3.04819 -1.38757 -7.92576 1.47606 3.43792 -3.00866 -2.58983 -2.40547 -0.868595 3.88784 -2.40793 2.36733 -2.36423 3
-4.50457 1.8103 6.75357 7.47911 -6.27606 7.03768 7.42116 -0.177914 -4.91878 1.09229 -0.164817 -2.63141 -7.92726 2.65296 1.67066 3.05273 2.4938 -2.60558 -4.43805 -0.139275 1.74745 -0.398136 -0.972833 1.11589 -2.42927 5
-3.97133 -11.2986 0.139586 0.901639 0.942025 -0.162895 -7.8935 -13.602 6.39285 -5.11682 -2.48632 -4.24985 -3.33078 -0.578576 3.02279 1.80363 6.70216 -0.132659 1.39833 -0.693038 4.23727 1.12399 -2.52932 -1.94899 1.17144 3
-3.30745 6.71013 -3.17038 15.7113 -6.16052 -2.79939 -0.935899 5.6931 3.52756 2.74602 4.54559 1.61227 8.1136 2.00007 -1.23378 -4.21727 4.36579 1.52257 -1.053 1.22645 3.80205 -2.83156 -4.66164 -3.38598 -1.93446 8
4.56591 5.72489 -3.94799 9.58547 -2.02327 -3.39001 0.924774 6.94 -1.04165 -8.60535 -2.15958 3.72104 -4.97508 -1.82559 -1.48924 -1.20768 -3.43882 0.619701 0.435 -3.54481 1.76043 4.31034 -1.66986 -0.939115 -3.91977 9
13.639 -4.89396 -2.28403 -1.04287 5.36517 3.56425 -2.60303 4.473 -1.34481 0.105973 6.22288 0.999521 -0.856991 -0.426976 2.77616 2.7591 -0.265931 0.195352 1.67598 -1.21608 -1.97508 0.21908 -0.825411 1.7035 -2.70917 1
0.47744 -4.93974 14.9012 -0.692972 -4.4151 -2.94193 -6.15443 0.960514 9.47991 -3.68194 0.335682 7.59399 1.49786 1.45218 -4.78454 1.82574 -3.78282 0.975264 -0.248992 4.31782 -4.27767 -4.93779 3.29901 -4.02561 -1.23979 3
-6.91325 -9.81123 7.96076 -0.980316 -2.92758 -5.04279 0.832488 -4.98624 0.0548355 -8.48047 0.822616 -7.00425 -1.74978 0.151093 0.357434 5.92404 0.00949525 -4.82151 5.19484 4.38509 3.23048 6.31783 -4.74807 -0.524121 2.59872 3
13.7549 -4.02946 -0.116376 -1.74403 8.33946 -0.189323 0.340209 1.55003 -0.77221 -0.987508 -0.25408 -0.982722 -3.29726 -2.15353 3.36312 1.42391 1.11207 -0.555604 -0.53916 0.794297 -0.119948 -0.719952 0.857626 0.862472 -1.20703 1
0.151585 -10.2176 7.91262 0.749979 -11.5163 -7.16865 -11.2713 10.156 1.80793 2.49842 -1.20904 3.89817 3.78214 2.67242 1.56635 -2.08198 -3.85469 0.458122 0.217328 0.225714 0.56023 -4.74316 -1.68334 1.9716 1.07042 2
-13.5537 -1.89784 -9.281 11.6686 8.70919 6.61368 2.5342 -6.03608 4.6118 -0.81396 3.24264 1.10772 -3.4214 -0.83712 2.53908 0.542662 2.09648 -0.285747 -0.502271 1.04683 4.62203 0.942169 -2.90033 0.833586 2.16012 0
9.12837 4.99294 2.0053 1.93585 5.71865 -3.83523 -3.97494 0.131967 -4.74094 -0.628531 -4.07093 2.94699 -2.89047 -4.19402 -2.48444 2.47594 -1.9696 -4.11066 0.769023 1.02342 -1.17303 0.320957 1.99205 3.65841 -2.51512 7
-13.9657 -7.24551 5.45063 -11.9027 -8.26688 1.53837 -1.96821 7.6439 -3.96325 -5.88367 4.76077 -5.7335 -4.12424 2.98558 1.00299 -1.6013 -8.74227 0.0460424 -6.72886 4.74355 0.801939 -0.837644 -8.0639 0.534305 1.85226 5
3.5835 -2.80391 -2.90926 9.06977 -4.30199 -2.03594 4.52542 -1.37863 -2.58802 4.73983 0.149118 -1.23314 3.99467 3.73329 -3.55068 3.81203 -1.17204 -1.83269 -1.93673 1.57002 0.858214 2.45313 4.34583 0.444468 0.392158 8
-2.89545 -0.628546 -10.6478 -2.10907 5.484 2.45495 2.39662 1.74696 5.52527 0.98118 -2.00893 0.883569 -1.45296 1.32178 -2.14416 2.57811 -2.78957 0.850193 -5.09836 -1.55141 2.99917 0.485231 0.0512404 -6.10572 0.0167014 6
0.593027 -18.2245 4.08144 -3.05772 -3.48915 -7.10196 -3.07891 -0.0966986 -2.04833 1.37036 -3.6942 -2.682 1.65338 1.38745 4.48016 -3.12031 -1.22006 -3.35075 1.51526 2.00334 2.05147 -2.46912 -1.95725 0.00617375 2.86966 2
-18.1778 -4.65419 7.90826 2.88278 12.3366 -9.41942 -10.6198 8.20036 2.8606 3.54271 0.680685 -3.68185 4.17772 -0.112183 -2.80889 -0.40395 -4.24481 2.76116 3.63622 -6.37896 -3.46758 -2.44992 0.808957 0.876417 1.35658 0
4.56839 -8.38353 8.68378 -3.37485 -3.5148 -7.80437 -5.47283 6.11653 -1.13408 2.60666 -2.61851 3.73766 1.96647 1.32096 0.541729 0.294154 -2.49714 -3.69743 1.45037 2.98734 2.17967 0.669322 -0.643186 0.0794346 3.08298 2
-3.06085 -11.6739 4.26213 4.9092 4.37065 3.28161 -0.294199 -5.56785 2.43062 -6.24208 -2.97506 -2.33036 -0.25591 1.74137 1.64347 0.644425 3.97608 1.20471 1.63204 8.62739 2.63035 2.50068 -0.564186 0.745191 -0.191768 3
-0.913634 5.63157 -8.26979 -6.52981 -6.73234 10.7532 -3.27552 -1.66118 -5.47333 -2.22506 1.79294 1.00864 -4.28379 1.63401 -2.63112 -5.19544 4.51568 -2.17757 2.81476 4.99549 -3.9065 1.63983 -0.137975 -5.04491 4.03071 6
8.80184 -0.0899715 -2.60052 7.15482 -2.89276 -4.00139 0.0185986 5.6745 0.514114 -5.62798 -6.74417 4.19119 -3.3248 -1.71959 -4.14799 1.40199 -1.3932 0.657902 1.05178 -2.09394 0.400029 7.92481 0.88845 -0.276392 1.4192 9
6.80678 10.4252 -1.09616 8.72124 -8.23082 2.59614 -3.97915 0.47127 4.30357 -2.22299 -0.651812 -2.31976 3.30593 -6.05888 1.264 1.89382 -2.22043 -0.240284 1.51068 1.1026 1.21573 -0.489685 -0.814445 -3.2292 1.67133 9
1.04437 13.3724 9.64795 2.57246 2.72422 -2.80563 -4.71525 -11.8763 5.34443 4.47797 -1.11767 3.87667 5.3617 4.3766 0.0955582 1.71552 -3.55513 -1.17933 1.26941 3.41884 -1.09392 1.64713 -4.62698 -2.72386 1.46865 7
4.95118 -1.86141 -5.27519 10.7356 0.0501843 -2.46455 3.71663 1.31654 -2.18706 0.91108 7.40917 -1.65992 3.67759 -1.10715 -3.56788 7.17141 -0.559324 -1.00973 -0.0999369 2.19885 3.7681 -0.937434 2.26311 5.57565 -3.11219 8
1.91675 7.30098 1.82142 -6.83695 -0.122753 1.23078 2.88487 -0.212002 -1.84729 1.84013 -6.19759 7.68741 -1.04873 -1.67602 -1.41008 -0.802034 3.15472 4.0629 0.850465 -4.45781 1.82451 -0.0295262 1.16309 4.82915 -1.54859 9
-6.1115 8.41016 2.87024 1.50765 1.13294 7.67602 6.14165 -1.17514 2.05034 -4.83992 3.14608 -7.93216 2.74086 4.5441 -0.761756 1.19664 6.96992 0.954219 -3.98146 -5.95133 2.12231 -1.25257 0.81107 -0.788753 -0.964803 4
1.98334 13.3639 -6.40053 6.7645 -3.0811 0.3348 -1.17057 2.76643 -2.51831 -4.45181 2.23323 1.25998 -1.13825 -5.38455 4.09576 -0.456189 -2.96275 1.41783 0.0929141 0.96652 2.06184 0.303543 -1.96446 -1.4136 -1.70649 9
3.60696 5.03415 -5.76531 -6.5397 -3.19975 -1.812 -5.65278 -0.130016 1.02115 -0.707938 0.96863 -0.309715 -1.14272 5.22006 -1.75414 1.37552 -1.67268 -4.91177 -3.1709 1.22188 0.273979 -9.66782 3.15807 -1.06832 2.85018 2
9.22009 -2.85534 1.61524 -3.25308 5.15476 6.87015 -0.428007 0.463258 -6.09958 2.02035 4.02511 -0.590173 4.55533 1.98061 -2.0159 -0.580293 0.788966 2.0393 3.77644 0.904316 -2.27951 2.9386 -2.14175 0.655801 -0.629337 1
4.14321 -4.16825 10.4559 2.98497 -5.76971 -3.55081 3.03041 -0.0305831 -2.52574 2.54826 0.892507 3.41052 -2.272 -3.15795 -5.73399 0.810382 4.39819 -2.48673 3.55676 -5.37582 0.988978 1.66054 2.38552 -0.703275 0.233701 3
12.4586 -8.84959 -3.31471 -1.57775 6.15933 1.54955 -1.8206 4.01209 -0.694684 -1.10704 2.76587 3.14609 -2.55793 1.3914 5.83571 0.640553 -0.458601 1.44962 1.05584 -3.06553 -1.0531 -0.372497 -0.0210116 1.81693 -0.284203 1
13.128 -9.3082 -3.16786 -2.72268 5.09066 -3.60083 1.72206 4.12116 2.73667 0.350641 -3.43898 2.06216 -3.96453 2.94571 5.17145 -0.534134 0.839306 -0.348559 -0.190442 -1.64235 1.01959 -1.02173 -1.02926 -2.0216 2.37764 1
2.61072 11.8912 -1.45032 1.40187 -0.16363 -0.160993 5.92246 2.79416 -3.57647 -4.22137 -0.85778 -8.08761 -0.754688 -4.65818 -1.98059 2.62217 -1.23996 1.3927 -0.430989 2.47899 -2.81917 0.146394 -1.37325 -1.84844 -0.396966 4
2.1181 -2.30177 6.82289 6.37018 -1.87679 -0.0582567 0.18504 -6.98265 -3.40299 0.478391 -6.29311 -0.630154 1.43161 1.17134 -1.13528 -0.49667 4.72184 -0.0890629 -4.23554 -1.32879 0.491262 -0.538773 5.86708 -0.763644 2.729 9
12.7404 -6.22382 -2.29892 -0.19683 4.62166 4.86708 -7.52643 2.99931 -3.24798 0.196929 5.54849 -1.85056 -0.354508 -0.543188 2.65681 3.30699 0.649056 2.94009 2.61719 -0.490421 -1.39176 0.245831 -1.15155 1.84223 -2.34777 1
-4.42885 10.3618 1.78208 -11.2428 0.761337 -2.66979 9.66349 -2.67917 2.91998 2.44751 7.81839 -0.18707 0.988392 0.929766 6.25486 -1.81217 0.352955 1.48351 1.2863 2.57899 0.668492 2.31972 0.856815 3.44768 -1.71179 4
-1.83071 7.13627 -1.16036 1.14232 1.52423 -3.07469 -2.04795 0.153626 1.02142 8.64165 -4.93367 -2.66068 2.72604 -2.0352 -2.76071 0.142921 -4.37149 5.62885 -4.55258 3.71599 1.0656 5.51926 0.284865 -1.28983 -3.09118 4
5.54566 -0.351404 -2.33895 -8.72522 -1.65178 3.44769 -1.45421 1.8272 3.94613 4.04895 8.70325 5.70861 3.14452 2.13806 -4.29291 -0.659161 5.23631 -5.59828 -2.23903 3.07475 -4.9622 -3.1765 3.4671 4.42249 -1.06628 2
-1.78445 -0.661651 -7.28712 -2.57324 -7.04479 12.7346 3.21578 0.443829 -1.84331 3.87493 -2.09052 1.9375 1.37076 1.45392 -0.60647 -4.06379 -6.47181 -4.11551 0.916127 -3.57832 -2.39573 1.89932 2.4207 2.04335 2.8896 6
4.06047 -4.6738 5.11158 -0.386645 1.61495 3.18099 8.45474 -1.27909 1.38422 0.766808 2.14524 2.92138 1.45343 -5.43656 2.43034 -7.3356 3.44776 1.68561 -0.377004 1.63993 -3.15708 1.13001 -0.336426 2.01308 2.32307 3
6.63014 8.46062 10.35 -0.686969 0.379224 1.45214 -6.03334 -8.01927 0.305827 5.7839 -0.591585 -0.389787 1.27103 1.87516 -5.10435 1.77809 0.403261 -1.15413 -2.36294 2.70511 3.40409 -3.44038 -0.835414 -0.332319 2.79825 7
6.71411 4.69784 -3.09066 6.20275 9.49179 0.87055 -0.236867 -1.66944 -0.0233857 -5.8686 -1.30543 6.17823 -0.05533 -1.76256 -1.51024 -5.18569 -1.99999 -0.582724 1.60415 -0.420081 0.850039 0.524075 0.782003 -0.782899 -1.67373 7
-3.59654 15.1555 -0.395781 0.218237 -4.84384 -1.79957 4.43521 1.3819 -2.42909 -2.3579 0.587158 -9.62707 2.42179 -4.19648 1.84073 0.151273 3.17012 -1.52008 -2.37328 4.24801 -1.00976 -2.09918 0.220607 -2.31791 0.333129 4
7.01643 6.31012 8.35206 -2.81743 5.42655 -0.495007 1.15127 -4.56806 -0.9852 5.60422 -4.71988 0.794964 -0.582259 -0.334971 -3.76909 -1.25266 -0.129573 -2.22372 -2.31658 -2.09614 1.74656 -1.10144 -2.06551 0.00274696 0.497888 7
-12.1612 -9.52324 11.3111 -6.8968 -3.11869 -1.15948 0.08128 5.0249 -0.0352049 -9.65586 2.42329 -4.45135 0.436606 -1.43442 1.40633 2.23374 -5.06541 0.573917 -9.33268 -1.85942 2.04114 -1.24197 -7.39376 3.02346 1.14471 5
12.9435 -5.86358 -0.530983 -0.525491 6.64058 4.56542 -4.61223 1.63188 -1.8704 0.906904 4.61498 -1.98107 -0.32622 -1.87361 4.11534 2.99208 -0.112827 3.12885 0.855642 -0.636969 -1.0843 -0.528043 -2.07223 1.06184 -2.65603 1
1.30719 4.82907 10.2518 -10.0717 -6.44432 -2.04312 5.04411 3.37707 4.36785 5.13542 0.447849 0.975085 -7.68493 0.255763 -0.263619 -0.273839 0.0551522 -0.425177 3.28324 -3.85475 1.48715 -1.51064 2.49468 6.48636 -0.545993 9
-21.1008 -5.809 -0.0563946 5.46238 12.4053 2.14091 1.18218 8.5101 -6.31429 3.39139 -2.981 -2.92004 -0.115122 -3.04753 -1.60496 0.176658 -2.6986 2.19439 1.5097 -0.343586 0.616521 -0.201913 3.40748 -1.15672 2.38498 0
8.43613 1.61392 -1.40249 -8.70513 5.43449 1.96289 4.22879 1.7677 -1.49809 3.47799 1.61287 3.17226 1.80576 0.348231 -0.759335 0.990921 4.15838 -2.54402 -0.0423313 2.46084 -0.885617 -3.13331 2.74611 2.89542 -0.978485 2
6.49985 -5.39803 -1.61718 -10.9749 -3.6766 -3.03227 -1.80937 1.76381 4.04419 3.83247 -0.374861 -0.0945385 2.6114 -1.19324 -3.65049 1.84287 5.89288 -7.25916 -1.14858 -0.470818 2.57238 1.61334 1.54002 1.97354 -2.46505 2
-1.92356 -6.57192 14.0833 3.7611 -6.04811 -2.3168 -0.263528 -5.50822 3.17982 -5.0361 0.630402 1.74225 -3.34499 0.142634 -0.0126202 5.89031 5.86355 -5.1879 2.56821 2.90571 3.23334 7.50087 1.15123 0.503935 -3.86769 3
7.98961 6.08482 -5.13913 5.12933 -1.46875 -2.45434 -0.318094 4.07209 0.809294 -9.85885 -2.37274 1.92658 -3.75307 -1.01222 -1.64917 -2.94469 -3.6053 1.35379 2.30091 -1.98265 -0.203238 2.89864 -1.17695 -2.18616 -3.08924 9
13.4387 -6.60788 -0.930106 -1.35113 7.33541 1.60754 -0.54469 3.56329 1.19366 -0.564019 2.53623 1.60217 -1.98658 0.638733 5.11231 1.43479 0.360809 -0.641326 -0.691475 -1.91101 -1.07645 -1.07524 -0.609679 1.41174 -2.42969 1
4.70289 -3.77777 -1.17785 -6.949 -1.08191 6.71089 -5.94674 -4.57358 -1.77124 0.85387 2.84452 -1.70689 -2.27577 5.45112 -5.87441 -4.67893 -0.480049 0.875301 2.51668 -0.460301 -2.85372 4.99342 0.634944 0.504871 -5.45687 1
6.91764 -3.36367 -5.47029 -2.50132 0.571912 -9.53401 11.0131 0.692057 1.60808 0.753349 0.825467 -3.3059 8.35262 5.08626 -5.96306 5.05943 1.76071 -1.7494 3.24682 -1.69295 -0.121134 -2.07086 0.777214 0.0560653 -3.35114 1
-2.05219 12.1841 3.99414 1.42569 4.09781 -4.4737 -1.83019 6.44259 1.68038 11.4696 3.67452 0.389501 6.1277 0.454506 5.97394 -5.04373 2.07494 -1.76222 1.52356 1.41158 -0.00141324 1.87072 -1.14377 4.07646 -0.866272 5
-12.2352 2.75553 -8.54408 3.87422 14.4281 4.20417 -3.39657 2.57687 6.60732 5.51921 -2.54855 -1.46424 -2.58836 3.54286 -5.23073 -2.32868 -1.09366 -1.18403 -2.03889 0.0667805 -1.29379 3.45631 2.71164 -4.77061 -3.93699 0
-9.45474 4.6294 -7.13609 -13.5304 -6.73355 9.02695 -3.24526 7.83656 -7.24156 -0.478626 -2.15252 0.388546 -2.93446 -1.02524 -1.312 -1.94898 1.60078 -0.546457 2.24157 5.08841 -2.37351 -1.50606 -2.07841 -0.255093 2.23568 6
5.67573 -8.56843 6.18198 -1.24141 -2.33862 3.97272 1.30825 -4.29744 0.688087 2.51276 5.49643 -4.16937 -0.272972 -2.47096 7.34816 -5.67569 1.89558 -2.78673 5.60111 -2.64321 2.23371 -1.05472 3.10415 -1.76711 0.727777 3
-1.49667 12.3777 5.90088 -6.36622 -3.87182 -1.44044 5.98971 -5.87769 1.44619 -0.620837 7.52448 -2.43185 2.45405 2.86438 4.23083 -6.45826 -1.10836 0.365511 -0.479356 1.08614 1.79047 4.42609 -5.85632 1.04636 1.39054 4
-0.771741 -1.24593 12.308 -9.05115 -8.52018 1.32395 -6.16848 7.18775 6.51877 -3.65341 9.73634 -1.10649 -4.16657 1.55286 -3.65858 -2.34006 -2.30592 3.73416 -0.744742 3.92686 -3.56526 0.392853 -1.31862 2.63527 3.83608 8
12.5598 -11.2369 -4.54176 0.354891 3.76601 -0.981681 -1.37185 5.39406 4.41182 0.123047 0.564953 3.53306 -3.72572 2.67699 6.47204 -0.139357 -0.613353 -0.0217567 -0.147037 -3.27998 -0.374929 -1.30568 -1.60183 0.560859 1.00502 1
-0.646115 -3.41593 2.16193 -2.16939 1.94861 7.50778 4.2798 -2.34785 -5.10453 -2.46697 -5.35433 5.69896 5.93265 -0.0555943 2.71412 0.797142 -0.653397 -2.13718 2.15677 0.574793 -2.54498 2.54538 1.29579 -0.174554 3.42328 0
-0.237721 -5.45358 2.38598 8.50723 -6.02445 -4.78705 4.89838 -8.53031 -4.9352 3.07236 -0.0307169 -6.91613 -4.97335 0.382971 -4.17546 3.57277 1.06759 -3.16246 2.45533 -0.731509 -3.46836 -0.681955 -0.769666 3.88856 5.46983 3
9.31242 5.27156 2.50065 1.82408 -0.0850862 6.47185 0.994477 3.35219 0.124629 4.09321 -1.95634 -2.72716 0.590092 -4.24896 -2.87479 1.64299 0.227859 -1.46946 1.03352 0.0124005 3.49722 -2.2044 -1.78439 -3.82879 2.70993 9
-7.07184 1.38427 -5.20283 -18.1228 2.14769 -7.3494 -5.86224 2.52887 1.96662 0.509993 5.26862 -7.60949 -2.02603 7.89463 -2.66259 3.39435 -0.43282 -3.35442 -3.57397 0.0699604 4.43324 5.27032 5.26959 -4.20001 -2.12241 6
-15.7288 -8.02349 -0.712556 0.400534 -2.99253 -6.41014 -6.3381 -17.4319 -0.811466 -1.32217 -3.56247 -0.844825 -3.35711 -2.67286 2.31445 1.05879 1.51371 1.85842 4.44698 -0.757526 0.625339 1.92449 -6.75244 -2.4737 0.760301 2
7.6442 -6.29423 -9.96309 0.651264 -4.90134 0.870505 -1.84695 -1.46147 8.12659 5.00935 1.45171 -2.70119 0.210752 2.2705 4.91866 -5.36298 -3.80793 -4.43183 -5.37893 -0.0584336 -2.382 -3.20561 -0.338248 0.129737 -0.319921 6
3.35786 10.5487 -7.10825 -1.95146 4.66282 2.28803 7.01852 -0.0847513 -2.06303 -6.18782 6.64002 -2.13849 -0.276456 -2.7642 -1.94365 -3.10654 0.383491 1.17331 1.11142 -3.02965 0.375936 -0.751121 0.373888 -2.74029 2.57721 4
5.77905 10.2039 2.37678 1.25756 -5.19599 -0.118862 -6.13875 1.44523 -2.42793 1.3206 -5.31088 -3.52493 -2.49744 -1.97764 -2.725 -3.24981 4.90794 0.180019 -3.01425 3.36094 -0.188257 -1.21954 2.1529 0.141666 -0.880219 7
11.9605 -3.69925 -0.830293 -1.3891 8.34439 5.42191 -0.108483 1.15885 -2.38293 0.124915 4.80703 1.97138 1.62399 -0.285974 0.982682 2.69347 -0.974651 0.231694 -0.225924 -0.902447 -1.55785 0.967467 -0.827818 2.27412 -2.20189 1
-3.80247 14.2577 7.70408 -5.98433 -4.0607 -1.79041 7.3608 -4.38829 -0.523972 2.01223 4.26618 -4.15406 0.380285 3.31841 5.49401 -3.24171 0.427843 -0.964084 1.31195 -2.3771 -1.63543 1.30381 -5.522 0.0549522 -0.69165 4
14.1764 -7.54317 -3.72259 -0.342676 3.14915 -3.76063 -3.72573 4.27885 2.0166 -0.901643 -2.2538 -1.91377 -5.70118 -1.26848 6.14727 0.882696 -0.184823 1.12734 -0.838056 0.775733 -1.33513 0.224246 0.00590388 -0.126361 0.490753 1
8.4145 -1.57564 -4.95691 0.760596 5.6641 0.508915 0.414821 -2.37697 6.80514 -3.25325 2.40354 -3.53775 4.4133 1.92794 -6.14852 -4.19347 0.384642 -1.12582 -0.423417 -6.41618 -7.29973 -0.945354 0.479329 -0.43203 -0.544513 5
-0.760638 10.5149 -6.99285 2.00155 -3.515 0.569718 5.57868 3.49108 0.827177 -8.96924 0.719197 -8.90651 -2.4066 -4.74885 -0.769214 1.6438 -3.09685 1.52266 -1.12817 5.05295 -3.94204 2.75352 3.06492 -0.735897 3.12152 4
3.07707 -4.26158 -2.09948 8.58192 -2.80289 -3.46178 1.83189 -1.91402 -5.80451 3.83716 5.66728 -2.10857 4.724 2.76719 -1.56832 4.37481 2.01294 0.0524848 -0.729547 0.139539 4.63535 -0.951342 1.84974 1.39148 -1.18974 8
5.44464 7.38959 3.02755 6.59706 -3.63637 1.15996 -2.74203 1.26268 -7.10533 -2.64225 -0.951995 -1.16389 -0.60625 -4.33623 -3.83762 3.8701 -0.639363 -1.78563 -3.37393 -3.59684 -2.23729 1.59502 -0.521585 -2.50647 -2.07015 9
3.85294 -5.82875 -1.89545 -1.91848 2.36034 -6.02542 -3.09339 -7.90468 -5.99533 -3.86565 -6.16863 -2.10808 0.372665 -4.8701 -0.207112 -3.6836 -1.81299 -1.61016 -0.883333 -2.29481 3.3638 2.92232 0.250012 -0.985599 0.00436438 2
8.44418 0.219825 7.51993 -2.28967 2.98013 5.88231 0.999091 3.41434 -1.92978 3.01921 2.14503 -2.18567 -0.0813021 1.2461 -3.7427 -2.4232 3.89036 1.59395 -1.73699 -4.50629 -1.71807 -1.12977 -5.19581 0.9194 -1.62933 9
5.45456 11.1319 -0.830019 3.10492 -1.78059 -3.61519 -1.53813 6.46191 -1.74186 -6.67752 -1.54974 -2.68586 -3.8048 -2.38768 0.23881 2.68695 -0.971491 -1.06452 3.9679 -5.29142 0.442931 -3.10136 0.590079 3.80767 -2.41616 9
3.16326 -3.24982 6.02622 -4.28405 3.17767 -0.462117 4.70194 -1.48071 1.47783 -3.43012 -1.11366 1.07453 3.03478 -2.87393 1.25098 -4.87206 -0.0246508 -1.38535 -3.98608 -1.60633 -3.48022 1.76854 2.07848 2.01922 2.41947 8
0.372276 11.8351 4.53791 0.217992 1.13214 3.93546 4.99697 -2.34035 1.22923 3.9496 -2.25788 1.30769 1.098 -1.18991 3.94637 1.89215 -0.430475 -2.6603 3.21954 -3.36543 0.394071 1.36375 -5.68239 -4.33157 -1.22975 9
-1.224 7.51742 -1.00491 -12.046 7.51069 -0.235567 2.85392 -4.5397 1.26709 1.31772 3.97821 0.794009 1.68133 2.15726 0.810239 0.476227 0.357794 -0.121566 -3.54637 0.0262301 4.97151 5.27013 4.05087 1.38592 2.84958 6
-0.318083 -4.59939 7.17816 -3.6936 -1.56628 7.21841 2.34949 3.31558 0.0638025 -10.0435 3.0191 5.81579 4.57812 -3.05297 -5.12387 2.81623 1.15197 -2.18176 -3.30463 -1.60688 -0.779098 0.994141 -1.22032 1.14511 5.17272 3
-6.312 3.01828 -11.8825 -5.00887 3.64441 6.3015 -2.34987 -1.40343 -3.42583 2.00101 -3.79834 3.54413 -5.72822 -1.59599 -0.515745 1.24459 0.554747 5.64131 -5.57067 -2.73791 -1.50424 0.417447 0.978188 -3.4368 1.31698 6
6.92054 6.14823 4.06497 -4.20404 0.877619 0.551566 5.73596 -0.9461 -2.69981 2.70928 -4.8154 -4.73826 1.48834 -3.71196 -1.39116 -3.08935 2.29635 -2.27572 -0.8011 0.918138 1.82916 -2.28027 -1.31035 -2.16501 1.60598 4
5.79137 3.7951 -6.01187 -4.49384 -1.02527 7.69319 -1.07181 -6.42618 -5.765 -0.168745 2.16978 1.2223 0.483604 0.1934 -3.75466 -5.22712 0.579062 -2.05336 -1.19257 0.336945 -4.25652 0.208701 2.26477 -0.14114 3.68674 6
-1.85522 6.15159 1.04815 -5.99265 4.79682 -1.27717 -1.57433 -2.94298 5.52889 -1.90946 4.45757 1.24297 -4.80201 -1.71701 -5.73161 4.95361 2.32413 -4.87735 -2.31585 -3.38387 -4.99205 0.567294 -0.61209 -3.9237 2.05722 2
4.93292 10.1497 0.212827 11.8626 0.0137668 -1.788 -7.09061 -0.24519 3.86545 -8.25639 -3.0608 -3.23415 0.845954 -0.628223 -0.820124 -0.776178 -0.935193 4.72695 -1.69069 -1.52082 -1.02487 0.102911 2.29202 2.63999 -3.62353 9
13.9159 -6.0415 -0.34743 -1.04715 7.05527 -0.0320154 -1.78233 3.30794 0.418065 -0.522744 0.469779 0.398926 -3.72327 -1.78645 5.33304 1.86992 1.13334 0.585046 -0.645079 -0.682634 -0.19709 -0.519236 0.311086 0.559882 -1.61942 1
-9.45609 -5.77489 -2.31839 -7.0887 -0.892164 -7.46486 -4.61492 -13.5563 -4.26218 -3.23425 5.62503 1.71948 5.21167 0.0620492 7.20713 -3.64277 -1.32879 -3.90562 -2.40945 3.61288 3.89366 -0.586414 -0.835714 1.50984 0.528823 2
-9.86185 -4.76421 -9.9697 7.71874 11.457 5.10112 2.29133 -0.458572 11.2506 -0.924557 1.00841 -1.92704 -0.587797 -3.68644 -5.45247 -4.46134 2.0021 -5.29144 0.0051181 0.0972589 2.13427 -0.201705 1.14143 1.25194 -1.44432 0
-16.9351 -12.3577 3.45667 6.14075 -6.0205 5.02712 -0.484066 -3.82239 -5.20445 -1.3039 0.157198 -1.6583 -10.2612 3.99005 -6.10365 2.65606 -2.31048 4.18495 -0.76908 5.48175 -0.119097 -5.19257 -0.663029 -3.28895 -2.56415 5
-0.914835 13.9529 -2.32777 4.52627 2.98946 -6.79085 -0.420893 0.366316 -4.05997 -0.00470939 4.46242 -1.88396 -0.192291 -2.90612 6.0789 4.15632 -5.07422 -0.511143 -0.482557 -1.13757 -1.59955 -0.188481 2.65654 -0.169667 -2.30478 9
3.76083 -14.9614 -3.14113 -8.99761 -3.65615 -3.96108 -1.50331 -0.298783 3.80208 1.46499 -4.94817 -6.18877 6.39035 -0.38473 3.21469 -1.56008 -5.48093 -2.21877 2.15193 0.22683 -0.394954 -2.1719 -5.07038 -0.664596 -1.17719 2
-0.78701 12.8269 -1.24049 5.15064 10.6873 -3.73125 -3.4502 1.53921 -1.2098 -4.9031 0.376 3.08222 -3.93613 -0.0226644 3.24155 -1.9261 -2.35801 0.387068 0.609856 -4.67781 -0.447038 0.325853 0.976117 -1.73211 -0.419584 7
7.87726 7.50169 8.6396 -0.659613 2.17927 -1.50809 -3.64969 -5.59121 -1.92529 6.1158 -2.38392 -0.170835 0.60727 -2.32787 -4.79378 2.09257 -0.406165 -2.95463 -3.43497 0.448645 2.38236 -1.24962 -1.57705 -0.874738 2.03585 7
-4.14484 4.23331 -9.55283 -0.123512 1.41222 -5.12183 5.83602 3.55589 6.06831 5.53903 6.80798 1.487 0.634859 -1.73908 -1.90588 -3.38445 -2.75677 7.08859 -3.79183 -6.53577 5.66765 2.18791 -3.28746 -3.35266 -3.2655 2
-1.04305 -0.472526 -7.09486 12.1301 -3.79846 -4.10618 4.23995 1.20273 -9.80234 1.46765 4.96849 1.67804 3.87224 3.42902 -3.84078 0.946773 0.373226 0.027018 -3.06858 2.84554 4.50308 -0.169814 -0.884558 -1.08767 -0.0561795 8
5.21817 -1.80034 -5.03925 4.03518 -2.85331 -1.69588 2.18394 5.04542 -5.06558 0.669899 -6.02815 -2.54516 2.61983 0.562808 2.3114 1.00176 -3.29573 -1.20208 -2.08909 4.75001 -2.17574 2.42586 -2.30306 -0.0641452 3.81626 8
-4.58878 -7.11311 10.7978 -8.90234 2.8667 2.92305 2.17751 0.399998 0.307304 -12.0593 0.891386 -2.76247 1.67698 -1.07481 0.839743 -0.577286 -4.49189 3.5649 -5.71904 -0.527966 1.87918 -2.6988 -3.08634 1.40759 2.54092 5
-21.7443 3.26612 0.521613 3.52945 -0.863795 1.75096 -4.11351 4.18254 -1.74419 0.594996 -4.09583 2.61707 3.88213 1.35406 9.61689 -2.20276 5.72922 -6.70201 -1.95824 -1.3944 -0.201314 2.50991 -1.878 -1.11464 -3.73492 0
-3.34864 -0.0844654 -13.0356 -6.70917 -3.7853 10.2439 0.0973742 0.318409 0.836912 -1.39418 -2.11275 6.35729 0.930986 1.22476 0.164214 3.25712 -0.981966 -2.38844 -2.92309 1.21875 1.55481 2.33414 0.520128 -2.27972 0.57985 6
-29.6256 -0.725177 1.19554 1.01303 9.19389 -8.68164 -12.3027 4.54235 4.4682 3.62041 -1.6061 -3.97584 0.226779 0.633024 -1.35047 0.432008 0.439733 0.77066 2.32258 -1.02586 -2.15667 3.48886 -1.73814 -0.357486 2.30675 0
-6.68429 -0.898438 -7.33139 4.55857 3.61372 6.83777 3.35994 -8.51872 0.741935 -2.38125 -3.18449 2.32275 3.91057 -3.89978 4.49051 2.46222 -3.36172 -3.08845 -1.9984 -3.89862 -1.88168 1.51194 -0.809102 2.23482 2.49407 0
0.882435 -1.22088 -0.973929 -6.42884 -1.74789 0.487713 -2.07363 -9.88831 1.39061 2.45497 -0.973271 0.336554 2.09244 -2.88129 4.44638 -0.723898 1.55828 -1.98434 3.7237 -0.916596 7.64671 -1.91214 4.58434 0.504027 -0.708765 2
5.70247 2.43714 9.64435 -7.99045 -0.985391 0.540423 4.52115 -0.707875 5.31957 1.1021 1.4114 1.44113 -5.75801 0.573292 -3.30274 -1.13798 -1.11935 -1.31717 3.47268 -3.08071 2.79818 -0.149845 1.76103 4.1145 1.1942 9
-12.1584 -4.76404 0.0964569 5.91161 11.8744 5.40022 4.46314 3.16098 -3.67527 3.88098 -0.0973254 -1.47759 -5.7922 -2.93758 -5.68491 0.655748 3.72278 -0.828697 1.56428 5.15895 4.8911 4.99012 3.4926 1.24514 2.27399 0
-0.311254 7.61413 6.8524 -9.93622 -0.937396 -5.44897 9.63575 -2.4888 7.58369 -4.07384 3.22403 2.60668 -4.14395 -2.66879 2.70837 2.64456 -7.50288 -2.05846 2.71013 2.47412 -3.87071 3.97316 -0.0220713 0.261865 1.6837 4
2.07982 10.3193 -3.18178 2.68328 8.90048 -6.58441 -6.39424 -2.7203 3.12223 -8.47334 0.789557 4.89257 -0.437813 8.48179 1.95142 -2.72737 1.67163 3.52981 1.89206 -1.20843 -0.98344 -2.65305 1.49669 -0.833477 7.77904 7
5.81233 -1.22743 -2.91426 3.64222 -0.0436503 -12.3805 2.05342 3.43398 -4.3107 1.80909 -4.76636 6.74062 -2.64148 3.00856 -4.8291 2.41696 0.416918 -1.62039 0.432607 1.19549 2.0233 4.17407 -2.45199 0.909494 -1.24389 7
12.054 -5.48584 -3.09744 0.350745 2.39474 6.55387 -7.98937 3.49368 -4.39306 1.4891 7.44033 -2.10524 2.10071 0.78216 1.72673 2.47514 0.621596 3.27118 2.89694 0.835485 -2.51009 1.17232 -1.54923 1.18774 -1.81373 1
-1.34634 -4.74254 12.1885 3.97545 -3.44094 6.31079 2.79233 -2.27919 -5.72401 -0.211215 -2.91869 2.43514 -3.02768 2.59625 -0.0075299 -4.23614 4.04694 4.55068 -3.84605 -3.27467 1.60145 -0.6481 6.18088 -1.06022 0.350588 5
1.1909 3.23211 6.53775 -5.63931 10.8192 1.14378 4.89055 -4.71892 5.39105 -6.12827 0.0587225 5.573 3.77532 7.0845 2.07281 1.98974 1.44184 3.31414 2.87233 1.90089 -4.27939 2.47577 -0.191031 1.63926 2.4194 7
-0.6112 10.3951 -1.77232 6.63902 0.292545 -2.17344 -2.94627 5.40808 1.0529 -5.64456 3.61002 0.460489 -9.19527 1.71544 -0.403097 -3.44841 -0.10194 -5.17748 0.357343 -5.19382 -2.34155 -1.22835 -2.36333 -3.70034 0.0549984 9
-3.64541 15.1602 -4.24091 -1.18984 1.07672 0.773464 2.96558 -3.15532 -4.44499 0.462807 -0.668009 -2.38981 4.38203 2.03279 2.42967 -0.0378938 3.09583 4.31104 -4.45615 1.34554 0.533081 0.305889 -0.178446 1.07197 -5.50639 4
2.83742 6.26287 -3.08443 -10.6962 -2.89191 4.02265 1.8529 -2.65884 -1.57702 -3.13827 -0.305553 -1.13269 -4.87353 2.19199 -1.59068 -3.25934 3.70213 -1.29068 -1.38039 5.03089 4.30422 2.56457 -1.24869 0.166477 -3.76997 6
8.7855 -8.20091 -4.61311 2.46438 -1.86574 -11.6208 9.13749 3.33693 4.86224 -1.83536 -3.36151 -1.5904 3.61357 7.00327 -0.982685 -0.219792 1.16798 -3.09327 -0.0164956 1.85558 -0.707574 -0.511324 0.270221 -0.0708297 -1.26024 1
-1.55508 -4.25149 -2.08498 -1.0249 -2.8679 3.45648 5.31788 -6.05354 4.7375 2.4445 -2.60781 -3.6688 -2.4988 0.327359 2.62873 5.26611 -6.14604 -0.44905 -1.67722 -5.82281 -0.0353281 0.244504 0.0985457 3.06207 -1.97142 5
10.1459 5.47895 -0.35169 2.40218 -0.969058 -3.10842 -9.41754 -2.12512 -3.70822 -2.28351 -0.722912 1.12781 -4.26472 -3.90777 -2.22691 2.15932 0.587152 0.360046 1.46809 -0.218076 1.77007 -2.11616 4.09078 2.46014 0.494837 7
-2.76895 -0.0648533 -1.7098 -10.8757 -1.58369 6.83635 3.45656 3.09727 -7.58159 2.32336 -2.42097 3.21458 1.69486 -2.05982 0.930002 -3.42954 -1.97018 0.503627 3.02225 2.74489 -4.38653 -5.30158 -0.282528 2.61851 1.37431 6
-0.962621 -2.94717 -6.56958 2.38258 0.970021 5.63567 1.80599 -6.38427 12.1678 -0.504286 1.35576 -0.590164 -1.32076 2.00835 -3.73945 1.4323 -1.34058 -2.87619 -3.48187 -2.93758 -1.32303 1.09969 -1.81895 1.99765 -6.86984 5
-9.27042 -4.05542 -0.0446096 2.01822 12.0476 5.76123 7.88202 6.24387 -1.67893 4.42235 0.247134 2.88854 1.91268 -7.44479 -9.61106 0.942293 -1.23041 6.95415 -1.35096 0.175886 1.85359 -4.21222 -0.488708 2.82681 3.47397 0
-6.77244 8.4874 -1.02251 -11.5228 6.38028 -1.6756 10.1445 -2.29675 5.48915 3.61944 12.801 2.19052 -1.3535 2.89435 4.09504 -0.880464 0.581868 2.4258 1.98038 3.3095 2.78599 2.5174 5.88985 -1.21314 2.16062 4
-4.60297 3.50492 10.0568 -3.90217 -2.61825 6.08712 -9.59708 -3.72477 0.486206 -4.77099 9.50153 0.177186 -2.99637 5.24356 -0.277707 -1.86944 1.47706 6.77719 -3.6755 1.66126 0.389661 3.28408 2.02764 0.396095 -1.54551 8
1.26117 -3.98493 -2.32399 0.355647 -8.46622 -10.8215 -3.42131 3.88935 8.07431 4.72934 1.17501 6.34127 -3.30701 2.16743 -2.6569 0.79279 6.9454 -5.66797 -1.94463 2.33698 -1.56314 -3.67888 0.25737 -1.70034 2.08118 7
1.48576 -2.98331 0.263873 2.81925 -8.79969 10.9885 -1.93352 -3.78143 1.7372 0.196963 -1.93873 0.722456 2.90044 6.72843 0.979573 0.621865 -2.28134 1.79919 -0.253121 -2.11691 -0.911863 0.227113 4.25492 2.74273 5.97882 6
12.203 -8.41244 -4.04855 0.518469 -0.910671 -9.6736 2.63866 3.84921 5.9017 1.25839 -5.21456 1.49482 -0.785967 1.90805 2.15947 1.19763 1.86822 0.188216 -1.94035 1.27581 0.492215 1.43956 -1.10327 -0.955768 -0.3419 1
10.3595 -6.06774 -3.47176 0.952114 1.75344 -3.85486 2.40078 1.13665 -1.39227 -0.691234 -1.58142 -0.79994 1.45839 1.05505 2.04049 4.82788 -3.03644 1.11891 -0.65079 2.77207 -0.439976 -0.130709 1.95723 1.88601 -0.789587 8
8.75817 8.63984 7.39151 1.12463 2.72877 -1.20126 -4.69548 -3.79278 1.85336 6.67869 -4.86443 -1.42839 2.23199 -0.48857 -4.27217 1.60391 -2.81831 0.226612 -0.887051 3.0921 1.88746 -0.378928 -2.3705 -3.1669 2.46226 7
1.81481 -10.1346 6.89098 0.0671986 5.63675 4.65076 1.877 -7.2311 1.80266 -4.49948 -0.502846 0.675358 -1.38401 -0.197906 1.28898 1.3769 2.40566 3.90032 4.48094 3.69968 6.67798 -1.1451 0.448556 -1.50908 -2.69601 3
-0.272995 13.1166 10.8674 0.463599 4.45554 0.870076 -4.31067 -9.45723 7.46445 3.87024 -2.78292 5.24372 5.29746 7.98668 1.86395 1.92055 -1.31391 1.38624 2.64701 2.49322 -2.1128 -0.419841 -3.84447 -1.82188 3.14245 7
2.55931 -0.784693 2.74487 -1.45042 0.47461 -2.56079 9.77692 -5.8208 -4.25244 -1.71262 3.2954 -0.495463 2.54491 -5.36383 1.5811 -3.79178 -0.917141 2.05143 4.86925 -0.5388 2.74422 2.7579 -3.76573 -1.08486 1.57534 3
13.1246 -6.89377 -3.37402 0.35028 1.76154 3.2155 -8.50271 5.05565 -2.44572 0.275739 5.88685 -0.501674 -1.13735 -0.186229 3.19905 2.06661 1.27997 2.94054 3.29014 -0.464247 -1.76615 -0.770496 0.647366 1.64933 -1.28044 1
-17.6471 4.67614 -15.8294 5.83736 6.48409 -1.93624 -4.05343 3.36567 14.4808 0.342217 -1.90108 -1.39975 1.63513 -0.697725 -1.56888 -3.80152 5.83601 3.08785 -4.12719 -1.96667 -3.12341 3.38133 2.10353 -0.857443 0.25391 0
6.83831 -9.16907 4.73712 1.1671 2.32284 3.33659 -3.96588 -6.1923 -1.2517 2.72763 0.268473 -6.45757 -1.96884 -0.554919 6.26157 -3.02108 1.44265 -0.0241571 3.57295 -2.23748 4.55541 -0.643817 2.84961 -2.04107 -0.153001 3
3.17042 6.57348 -7.7681 -6.62286 3.98628 -6.41366 8.3499 2.93113 -3.237 -0.492947 -0.00996683 1.32484 4.39208 3.68505 -1.13832 -0.442306 -1.20871 4.22352 0.145488 -2.44402 4.63588 -1.65575 4.60771 -3.09612 -2.68592 4
6.30764 1.93924 -4.31693 2.11916 8.77566 1.92119 2.00523 0.161884 1.57506 0.0603379 -1.27679 -2.607 1.79405 -1.89577 -2.192 -6.05859 -1.00434 -3.67089 3.69408 -0.77065 -1.17864 -2.68974 -4.37735 -2.24751 -0.130178 5
2.51053 8.87375 -4.87931 1.71526 3.85568 4.89296 7.50009 -2.87532 -0.68234 -6.19402 8.58971 -3.94254 3.98937 -3.36826 1.14277 -3.19227 0.326901 -1.61686 -1.55251 -1.63918 0.321349 -0.657835 1.3771 0.855596 1.05883 4
-9.04593 -6.92027 0.299566 7.34072 2.95893 6.55099 1.42718 -1.28812 9.05078 -4.79978 -3.10516 4.58093 8.03861 -3.99888 7.88093 3.12246 0.42494 -1.81971 1.24223 -0.0402345 -0.615451 -0.158189 -1.14805 1.38752 -1.31779 0
-5.48645 0.86634 -2.6231 10.5742 -2.93495 2.66181 -5.89214 2.32645 3.81728 6.5364 0.642721 -3.21886 2.46032 2.57808 -3.96785 -7.6225 -2.38789 -0.307493 5.79249 -6.08904 -4.07893 -1.5128 4.66663 -4.3874 -0.550532 5
0.387504 7.19088 -8.90952 -0.772171 -4.56978 -5.6987 11.652 8.14059 1.99607 -9.19923 -1.0303 -2.02631 -0.698509 3.78862 -0.342078 -1.80936 0.420361 2.52218 2.76462 -1.75301 2.5793 1.1532 1.8073 -2.68504 1.21246 4
-2.80254 -0.675645 -7.08545 8.04702 9.08756 2.61895 2.06161 -0.391442 11.7491 -0.988383 4.50175 -2.34618 -4.33983 3.18046 0.658302 -3.55442 5.71482 0.602813 2.12353 0.843723 1.10101 -1.06888 -3.5395 -1.84058 1.10791 0
0.833288 -8.36807 3.41541 0.495466 3.21485 7.41856 -3.11749 -6.16481 2.05968 -4.28451 -1.54292 2.96474 4.98528 3.51698 4.65361 -0.530776 1.81956 0.0733083 1.25842 -0.753297 3.69412 0.378374 2.03816 0.29575 -0.65539 3
-0.0335378 -0.763259 -5.04522 14.9323 3.44366 3.36515 0.314157 -1.17894 1.91747 1.03396 2.19527 -1.88435 -2.72496 -2.39244 -9.17862 -5.1907 -3.03196 -2.09355 0.130639 -1.59504 0.481867 -0.870186 0.627648 -2.3091 -1.76278 5
12.5998 -10.7141 -5.22982 1.3553 -0.583725 -7.154 -0.518185 5.59837 5.61319 0.444706 -2.71435 1.80074 -3.03204 1.31226 4.18059 -1.17636 1.55145 -0.657494 -1.50064 -1.326 -0.372863 0.55702 -0.930319 -1.61838 1.4781 1
-11.1751 -4.64907 2.16831 5.49206 9.84211 3.75733 5.04286 1.31612 -7.76049 -0.839338 -2.47775 1.66537 1.72283 -3.25493 2.63022 3.52183 0.649061 3.76704 4.74969 2.8167 -0.31338 1.20813 -1.70953 -0.21088 2.75768 0
3.58417 0.720956 -5.11268 3.49457 -0.57613 -2.59506 2.02847 0.17751 -11.6558 -4.45895 -1.1211 -0.896378 -0.358612 2.42116 -2.44392 -2.52244 -0.655825 0.944035 1.05419 0.435827 -1.63591 -0.0789699 -0.500464 0.440452 3.74222 8
-7.23676 -14.1125 13.1612 4.28984 -3.42466 -4.90075 -1.86662 -4.14787 2.03219 -3.48496 -0.432153 1.62509 -2.2379 0.573499 -0.757341 5.47427 3.35483 -0.0121426 -2.7789 7.19941 -0.629581 -1.15798 0.0596693 -0.932462 -1.5069 3
3.61179 9.34198 -0.0634226 3.19024 6.86017 -5.56991 -5.6632 -4.55744 -3.87891 -4.89449 -0.242396 6.23152 -3.08954 0.0995128 2.05369 0.061809 1.53429 -4.57671 1.03805 -4.26526 -1.97944 -2.42764 -1.47416 1.76778 0.109693 7
-12.3218 -1.50752 -9.2903 8.86348 8.11548 6.37599 4.68323 -6.09047 -3.08106 -0.932213 2.43437 0.65993 -3.85688 0.298415 0.370466 1.45969 3.29279 1.81815 -0.0409589 -0.715857 1.61049 -0.638619 -1.63923 2.52633 5.84774 0
7.44624 3.6847 9.39448 -3.24761 2.53506 2.27986 3.04232 -1.69238 2.86605 4.44549 -3.3797 -3.20877 -2.09848 2.35196 -3.84819 -0.120451 1.53401 -0.835129 -1.94221 -5.14448 0.915237 -0.332514 -2.16128 2.67311 1.85851 9
-13.6177 5.47279 -6.05306 -18.3076 -9.26319 -1.94754 -5.70498 4.52583 0.45393 -2.60459 1.8382 -8.55468 -3.91133 4.59749 -1.05897 0.799843 4.53655 -0.894277 -2.38432 -0.12369 2.5198 -1.16403 2.32949 -3.74419 -4.67792 6
2.77527 -2.4665 -9.54694 -1.90885 -8.36638 11.1711 -1.73946 -2.66067 3.19969 1.6789 4.29036 2.52862 -0.875682 3.8398 4.22195 0.893443 -6.3582 -2.39043 0.110381 0.432983 -0.105359 1.46986 0.138241 -0.344294 0.734575 6
6.253 6.6292 2.49516 6.60631 -5.73212 1.92859 -3.29695 -2.80438 -6.01408 1.1572 -1.13566 -2.58527 0.924652 -4.6859 -3.88088 2.2218 -1.32348 -0.843226 -3.51547 0.387611 -2.91542 3.41046 2.21502 -3.6083 2.24463 9
3.85321 2.14067 -12.1856 4.67546 0.709334 -0.624123 -3.9604 2.18083 6.19405 -0.666761 -0.441482 -1.75551 6.73926 3.89008 -6.91831 -9.11151 0.572362 0.252314 2.01918 -3.9897 -6.95332 -2.04795 0.112532 -3.1832 0.630929 5
-0.765315 14.9891 2.77851 0.799982 -2.75153 4.41983 3.57508 -2.68736 -5.15741 1.2204 0.303272 -3.10059 2.44593 -0.445983 0.792767 0.887318 0.115303 -0.0954766 2.02395 -2.14568 -0.191527 0.297907 -0.663357 -1.98351 1.08251 4
10.6623 -3.8907 -3.61583 -1.41901 5.82697 2.46854 1.76161 -1.27418 -0.503515 1.10942 2.32875 -1.06285 -0.293651 -0.368731 3.11552 -1.71605 -3.91513 -3.45738 -3.16561 -0.812303 -1.54335 -2.78181 -1.08597 0.645104 1.17754 6
6.21616 6.60062 6.06951 -0.168268 2.20914 -1.50235 2.34662 -1.45267 -2.76897 0.980826 -2.73954 -7.09344 -0.522438 -2.93365 -1.8144 2.49516 -0.000962164 -2.63424 -3.83364 -1.72479 -3.0587 0.0609689 -0.572777 1.70442 -0.0554466 9
7.56503 -4.05269 4.94944 3.1659 0.187843 -3.42289 -1.74307 1.39551 -6.4976 3.42492 -1.78654 -4.13593 -2.28888 -1.54674 3.08711 1.43153 5.96236 -5.19106 -0.405221 0.396548 0.0116394 -1.47677 1.32643 0.193042 3.22388 3
-0.570462 -8.48968 8.41122 2.40477 -4.4517 4.55059 8.08602 -0.215259 -4.20434 0.193784 3.08434 6.5387 0.972617 -0.883342 -0.517945 -1.33164 -1.88164 0.0315132 -1.90709 0.155357 -3.41144 1.08167 4.30927 -3.101 -0.19245 5
-5.85065 4.86426 0.205222 -11.8356 8.15782 -12.8794 4.5438 4.12329 4.09919 -3.8623 3.61022 0.470908 6.19063 3.08838 0.0226546 7.33505 -0.664838 1.43392 -1.16135 4.85214 0.341992 3.99406 2.64742 -1.51654 -0.108276 4
-11.6287 -3.00912 -9.93731 -5.49344 -5.20688 -14.9088 -1.22267 -8.16579 -3.27 -0.497228 9.03589 6.46087 -3.31663 -2.83199 -3.2045 0.314221 3.84061 1.51627 -2.04615 3.15931 -1.21818 0.324329 -3.24373 -0.451335 1.90441 2
-2.66438 5.83511 -11.9477 1.20128 -5.1354 -0.52282 3.97313 11.7976 3.38507 -3.85093 3.42751 3.82149 1.68224 3.03129 -1.0685 -0.62904 -1.33216 2.39111 0.719443 -8.82094 7.02339 -1.82782 0.249628 -3.43084 2.23624 4
3.56818 -1.50247 5.77722 1.74141 -2.76305 -2.98234 1.75075 4.45379 -0.335106 7.26733 -3.76773 3.74259 2.00324 1.80275 1.10813 -3.03306 0.607707 -1.86268 -2.48603 -2.42475 -1.74099 1.39177 -1.56631 -0.940296 0.158598 8
2.93534 1.31466 -3.97667 1.54406 1.59146 -11.4609 0.533133 -3.10829 -7.82521 -3.53491 2.18565 7.93073 -4.16412 0.639589 -3.48626 -1.01075 1.42257 -0.339218 -2.05477 -3.18496 3.14469 3.25771 -3.48026 1.0053 -0.754995 7
10.0098 0.600713 2.32091 -2.60917 -3.56922 -0.983102 0.720017 1.24531 -0.838729 2.44105 3.60514 -5.79074 -0.196301 -9.65066 1.73851 0.636855 3.01306 -4.28038 -1.11163 1.7575 0.545626 -0.877555 0.991449 -1.91233 2.33603 7
2.37261 -5.73554 -6.97169 14.7028 2.43928 -0.776553 -1.65387 -1.30484 4.20519 3.36722 6.42118 -1.47462 -0.717665 0.487829 -3.1697 -6.52425 -3.37676 -3.37759 3.10538 -1.13663 -0.813718 -0.0126309 -2.89646 -1.11431 -0.114969 5
5.77641 0.396989 5.40584 -2.65775 -0.758425 -1.04822 1.62365 3.54992 -2.21273 3.43635 -2.24127 2.51909 0.0791435 2.43491 -1.88242 -1.61248 -0.608748 -4.42234 -1.60778 -1.26612 -1.87508 -0.334951 0.538454 0.96744 2.4292 8
-6.14047 -4.90287 10.7873 -2.08366 -14.9314 -11.9567 -6.55369 4.86968 2.52211 -4.91741 2.23965 7.84099 3.52658 0.0514343 -0.778989 -2.40697 -3.54997 2.36119 -5.44692 3.4366 0.497787 -0.319807 1.63629 -6.06757 2.03465 8
-0.818364 -4.32788 -9.47031 9.01914 -2.69721 -3.00048 -3.2402 1.99781 -0.560349 -0.129328 7.24103 -1.88432 6.88511 -3.02017 1.55253 8.18449 -4.00966 3.25868 4.47879 -5.85406 -1.06319 -0.915784 0.7486 0.528028 -0.980477 8
0.424679 -3.44259 -3.05899 -2.6448 1.55143 -2.9277 -4.0223 -15.1805 1.14553 -1.12376 -6.87962 -2.25581 -3.95396 -3.21201 -0.255238 -1.60473 -2.47156 -0.121895 2.58231 -4.73754 4.03732 0.486186 -3.27114 -1.24633 1.29692 2
-5.20978 -0.495327 3.69533 -15.0618 0.00121504 0.286439 -5.2904 4.97178 7.83692 -7.12566 5.94044 -6.35398 5.27518 5.90856 -2.65957 1.78143 -3.53864 -1.01783 -5.79985 3.137 6.40324 3.24591 -2.75818 7.6273 1.69307 6
5.96756 7.16866 -1.49481 0.39543 -2.57055 -2.78753 -0.844025 3.88019 -8.57899 -0.176399 -3.38981 -1.28616 -1.25843 -6.58998 1.31232 1.88366 1.39353 0.175866 -2.06344 0.916275 0.387033 0.748956 2.48305 2.14174 -1.96861 9
0.641804 -10.1412 7.88693 -1.21592 6.05869 4.78399 1.99396 -2.23123 1.45197 -8.03738 -0.00605233 1.97546 3.47663 -4.29013 -1.30874 -0.714294 -1.97373 4.41988 0.0321735 1.30482 5.84579 -2.76672 -1.57408 -3.45564 -0.0132525 3
13.5631 -6.20916 -2.35726 -2.33814 6.10167 -3.79998 1.39156 2.93521 -0.0667045 -1.8349 -3.66265 -0.276841 -5.13313 0.315674 3.84216 -0.0312165 0.652054 0.296216 -0.571959 1.05803 -0.68323 0.937813 0.948815 -0.253549 1.4514 1
-7.89289 -1.68226 3.34565 -9.7497 11.2377 -6.16478 -6.97964 2.54843 -1.6783 3.71214 3.91618 0.440387 4.11036 0.731426 -4.40796 -1.18109 -5.37756 -9.31929 -2.43577 -0.326569 -0.953087 6.97585 1.07581 3.94663 1.02161 0
1.40173 8.0227 -0.771521 2.72567 -1.32683 -5.35837 2.53762 8.62004 -4.79701 -12.8707 2.80204 -6.07626 -5.19329 5.25887 -1.44236 -2.03144 1.16914 2.99069 -1.19482 -6.42258 -1.24215 0.920438 2.00499 2.56042 -3.71053 4
10.2547 -9.54082 -5.54251 1.57568 -1.07821 -10.0282 2.78794 3.21924 2.96157 -0.473378 -6.3919 -2.80148 -0.851752 3.99615 4.07583 0.324301 -1.77589 -1.69249 -1.48289 4.2262 -0.688589 -0.667372 0.32604 -1.0346 1.04708 1
-1.98014 -3.18255 -3.47223 11.765 -3.31493 7.19807 0.10555 2.66485 -4.75623 5.53357 -0.882689 -0.0890695 0.793653 -4.01654 3.02556 -5.65055 -4.86566 -4.26297 -1.20045 1.98044 0.215168 0.547092 -3.7142 0.783777 5.03444 5
-9.55417 13.7785 0.751393 6.27515 -7.04047 1.75 6.92997 4.12734 7.47668 4.51632 4.94861 -4.7422 2.23156 1.86233 4.50722 5.73709 -0.316371 1.63063 0.479195 -2.40783 2.78973 3.76696 -2.87702 -5.0983 -3.22884 9
-18.4182 0.0654088 -8.22762 13.8703 9.25332 4.02307 4.49187 -2.68218 -0.13236 1.75589 1.25725 -1.35334 -3.50446 -1.47801 2.18161 1.41705 2.90979 1.54442 0.639927 0.903917 2.03331 0.848624 -2.15125 0.237987 3.02741 0
-6.8994 7.60745 -5.49194 -18.8224 -4.20182 1.87618 -1.47262 2.84547 -2.0788 0.251217 2.19942 -3.26279 -5.22063 1.02906 1.29265 -4.49886 5.92052 -3.80122 -2.00113 4.7586 -0.129197 -2.7308 0.660197 -1.25421 -4.52356 6
8.95462 -3.54973 -4.01566 -3.04448 2.36405 -0.687998 -0.0188497 1.21674 2.03963 8.7241 -3.29676 2.54421 5.79916 -1.96068 0.977377 2.16994 -0.905598 0.0718957 -1.81519 0.649664 4.1671 -0.153249 -1.79858 -1.8198 -0.384732 2
1.16716 -0.117239 1.09249 -1.84907 -6.25097 12.8555 -0.00901522 4.86583 3.35398 2.92579 5.75983 0.403811 2.20451 -4.72355 -3.51005 -5.05878 0.993286 3.7477 4.60286 -4.62795 -0.849308 2.6156 -0.329907 4.98165 -0.0431637 1
11.0169 3.9459 4.93665 -1.98968 0.415314 0.250645 -2.28246 0.376058 -0.701086 9.3049 0.179399 -1.68262 0.818819 2.13232 -2.05813 1.87488 3.08351 -1.81682 1.52659 2.1289 2.13005 -2.16757 -0.832545 -1.01338 1.87915 3
-8.77576 -1.96831 10.0078 -2.30682 1.92591 -1.89893 0.666051 3.28637 -1.37609 -2.56157 -7.93583 6.26438 4.03143 -7.53078 5.83868 0.649565 4.86874 -0.403759 -2.19613 -3.33039 -0.487255 -4.21898 -2.34987 -0.446885 -2.96602 0
-5.63266 -5.16047 -1.46629 -3.42787 -3.77722 6.27072 4.70603 5.56222 -9.69135 -1.06688 -4.50524 6.13896 1.39356 1.90772 1.88513 -0.763423 -2.46955 2.26998 -0.231564 5.79064 -2.13091 -1.34078 -1.31001 -2.10222 2.72273 6
-6.14155 1.08566 -10.1643 1.1277 13.1593 3.14511 -0.378464 1.15112 6.57273 4.08716 -3.22196 -0.214065 -2.93524 -1.65275 -5.99178 -4.38029 0.216598 0.362259 -5.47863 0.441437 0.192163 3.31135 1.18945 -4.76649 -3.53154 0
-14.52 -1.43006 8.00501 -6.84148 -0.51496 2.55651 -4.18139 5.404 -1.72809 -4.41157 -8.83136 3.32589 3.47852 -4.26397 6.50073 0.205783 2.15414 -0.481008 1.45564 -2.06209 1.5512 -3.98826 -3.64006 1.54572 -2.98505 0
-2.49603 3.2737 4.157 -1.13787 -4.98247 3.00483 -6.37807 6.44276 10.4424 5.31383 2.6753 1.66811 0.79155 1.41649 0.318207 -8.7867 -4.87081 1.57131 -0.418558 6.48705 -6.35227 1.12682 -7.59679 7.5255 3.20312 8
-1.38659 -7.78925 13.9584 -0.239354 -10.6616 -3.37081 -8.22228 1.12853 6.05436 -3.19399 3.87204 6.25977 -1.48052 -1.86729 -1.49519 1.50118 -2.29676 -1.62875 -3.97618 1.65386 -5.00504 -2.34557 1.09803 -4.53171 0.0915639 3
-1.49417 -5.29268 -9.20056 -5.53881 -10.5272 -6.78548 7.38277 -2.71703 -1.02751 4.88328 -1.64744 5.3271 0.765585 -1.85922 -0.489097 2.80192 -5.44162 3.30538 1.32559 -0.630538 -4.31776 1.31953 1.83641 2.78671 -0.984375 2
-15.1205 -2.68612 3.63126 3.11262 6.31033 6.52374 -2.71873 5.65335 -0.990657 -2.37908 -7.11639 2.04577 8.37418 -4.65271 2.63305 1.30162 2.63 2.08767 5.96653 -1.95591 -0.893786 -3.08808 2.19877 0.458418 -0.739797 0
-0.0893011 -2.05878 -0.172872 4.67648 -2.82078 6.72964 0.496994 -8.61772 2.34694 -0.463394 -0.971235 3.97807 4.35515 1.07582 4.90325 3.07354 -4.34532 -3.81932 -1.3115 -3.10625 0.30121 0.242211 2.25388 4.0846 3.28061 0
-6.85277 2.74138 -12.4304 -7.03127 -2.38556 10.4608 -2.21944 4.72363 -2.19106 -1.54963 -4.24073 4.95074 -0.523462 -1.09434 2.14219 3.76279 -1.88662 1.74615 -1.48092 1.55276 3.72095 2.38385 -0.89643 -1.01889 0.0503569 6
-21.0577 -2.29195 7.16574 1.85237 13.5649 -6.34426 -7.11462 8.21929 0.609206 6.17186 2.14972 -1.0277 3.07975 -0.656357 -2.59703 -2.45981 -8.23304 -3.46854 0.670063 -0.0984256 0.580417 1.28134 5.69482 0.0577553 -1.67304 0
-14.5549 -1.26738 -1.93172 2.50787 13.486 -5.94572 -4.15257 2.5138 0.581744 5.86327 -6.98276 -6.06601 -4.23851 2.47381 -4.59814 -0.466566 1.96404 -0.217182 4.67558 -3.22006 -5.48134 2.65439 -0.443335 -0.415636 4.35188 0
-5.18305 6.00434 2.01881 -11.4236 5.12554 -7.13129 8.32943 -0.957978 0.297978 -0.312138 2.38433 2.65865 -0.515986 -0.438426 2.22288 1.95787 -0.775417 2.94133 -0.899682 4.5004 -4.48035 -2.5738 1.97 0.567011 -5.85401 4
3.04638 13.9103 5.13988 6.80991 2.6223 -4.5025 -6.09264 -5.9931 -1.84345 2.18479 -1.66767 -1.45197 2.25639 -0.600456 0.700076 2.20992 -6.68205 -0.311838 -3.30193 3.98952 -1.82723 0.0874809 -1.39337 -1.27011 -2.55072 7
-7.64628 2.44931 -8.6047 4.00631 -0.289812 -6.23241 -7.34597 -4.28617 -4.44914 -0.411976 -4.78562 7.16626 -3.55312 0.666676 1.32071 0.673786 -0.770769 1.03532 -2.21614 -0.836521 -2.19808 0.372788 -3.44752 -0.86108 0.741079 2
5.6069 7.46789 -5.55367 6.79626 3.71107 -6.36558 -3.02354 1.55791 0.683258 -7.51404 -6.24357 7.05323 -0.172128 1.27512 -1.59853 -5.55867 -1.00094 4.5425 3.76556 -1.24333 1.51749 1.04175 -0.862252 -2.24946 -1.43458 7
12.4185 -2.74499 -1.51813 -0.672247 3.37555 7.15693 -4.34025 1.83537 -3.06658 2.3491 6.87653 -2.07775 3.7691 1.49789 -2.3713 1.57439 1.23158 3.73746 2.02974 1.217 -1.60413 2.69423 -1.89483 -0.0934917 -1.89626 1
6.66578 9.29876 2.81626 7.62394 -3.29154 3.22091 -2.49819 5.07576 -2.0862 1.38874 -1.69538 -3.99088 1.45172 -4.8296 -3.91496 0.67077 -1.57958 -4.2342 1.31969 0.523823 -3.87753 0.0210106 -3.48158 -4.71182 -2.09605 9
8.03762 3.27049 6.15307 3.062 -2.5212 7.79316 -0.676189 2.37411 -1.03357 3.34349 -0.67114 -4.82785 -0.592652 -1.61963 -5.37316 0.717665 3.36604 -1.08033 -3.20557 -3.72753 -0.81785 -1.85824 -3.06758 -3.3909 1.46592 9
3.91937 -9.46472 9.12834 -1.2073 -1.33642 2.86982 -0.957341 -7.49572 1.57581 0.0929827 0.619168 -4.51156 -3.89055 2.04337 3.76062 -1.25525 -0.210538 -2.05746 3.55433 -3.52845 4.88306 -0.613847 3.93481 -4.0605 -2.9378 3
2.62774 11.6629 6.33518 5.71302 -2.17786 2.41909 -2.34353 -1.45379 0.402712 -1.5471 -2.1045 -4.28315 -1.13116 -0.0365983 -0.504031 4.65013 -1.20929 -3.72061 -3.4986 -5.07474 -0.709467 -1.31426 -3.81569 -1.47032 -2.99109 9
-10.7654 -1.82861 6.20574 2.71962 -13.8862 -6.96138 1.86196 5.4027 -4.39203 -0.392525 3.23385 8.19415 3.32318 2.76328 0.917633 -3.24212 -4.05754 2.51527 -1.90375 -2.84368 -2.85901 -1.68202 0.872527 -3.66652 -4.2064 8
1.96666 5.205 -1.69927 -5.76424 1.77074 3.55634 2.19094 -0.793495 10.7091 1.77574 -5.46298 2.51164 1.44541 -3.75607 -1.4914 -2.76656 2.21434 4.73663 0.244133 2.20416 3.35983 1.99489 7.05772 2.82609 -1.2697 4
8.62608 -4.42257 -4.67537 -1.47062 0.15926 3.0912 0.865384 -3.65169 3.32177 2.29848 1.97962 -0.498163 -3.08437 4.08389 5.36316 -1.08692 -5.6253 -3.68673 -3.01181 -1.65685 0.109055 -3.56141 -0.0653163 -2.71238 -0.141039 6
-2.37804 -3.41747 -6.01962 -0.0237212 5.25685 6.50513 4.33571 -2.31195 9.01152 -0.0352814 -0.877076 -1.77839 -3.83817 -3.21242 -2.29844 -3.16561 -4.73431 -1.49285 -0.467096 1.46815 -1.89225 -0.129169 1.14831 -2.4916 -5.9797 6
10.6118 -7.51805 -5.74281 2.52792 7.39515 -1.82254 1.59882 2.81475 3.57055 -0.19495 2.75547 4.35205 -1.96786 2.22818 -0.336658 -3.72608 0.248268 -0.701089 0.698921 0.338785 0.678853 0.529134 -4.81507 0.876387 -3.3512 5
-0.932219 -5.09508 12.8429 0.722487 -3.95691 -2.42877 -0.725654 0.151447 -1.914 0.544783 -2.50882 2.63924 -5.72034 2.27215 -0.89271 7.51649 1.55474 -1.02476 7.23017 1.96577 -0.163279 -4.01043 1.49171 -1.55311 0.633465 3
-5.75251 -0.46509 -5.62391 9.19126 -6.02451 -3.80163 5.13811 -0.274487 -9.90839 3.65057 6.53674 -0.0887261 3.43646 5.52975 -3.40073 0.29559 3.36987 1.20791 -0.494369 -0.0229105 4.35777 -4.92307 -0.427498 -0.159667 1.13777 8
13.9602 -7.01683 -3.66309 -0.65838 3.64119 -2.20301 -3.3721 3.94528 -0.124848 -0.478677 -0.349574 -1.21629 -5.9835 -1.68103 5.99837 1.40606 -0.65353 1.6296 -0.899866 0.0382203 -0.297263 -0.697168 0.425602 0.308262 0.515075 1
6.60932 -4.86159 3.7674 -0.265191 -1.15466 -1.36281 4.04009 1.0716 -5.10765 2.38539 -1.51688 2.32087 0.620306 3.83141 0.891033 -1.10711 2.03114 3.94824 -1.13224 -0.059461 -4.05638 4.01601 4.03586 -0.477947 1.74947 8
7.57575 8.05256 5.06263 1.16805 2.65736 -4.11958 -3.59624 -6.78625 -4.85254 0.530181 -0.337449 -0.311911 2.32423 -5.20246 -4.29078 3.31285 -1.38704 -3.49893 -3.20865 1.65643 -0.678228 1.6988 -1.31889 0.142516 -1.04953 7
12.5761 -11.7235 -5.55828 1.20736 0.205111 -4.51682 -2.32826 5.79204 6.00917 0.027887 -2.17037 1.98548 -3.06881 2.46411 4.92398 -0.546045 -0.797665 0.378964 -1.29747 -2.31274 0.0691714 -0.952644 -0.162559 -0.733113 1.49061 1
1.52322 -12.0202 8.36263 -1.77195 2.3472 5.44494 -2.24973 -6.1208 4.27257 -3.1644 -0.524501 0.0529641 0.402114 1.12234 0.906948 2.05832 0.549909 3.56944 3.98273 -2.15188 3.36066 -1.57018 1.56593 -1.15397 -5.33895 3
4.02145 13.0023 8.43147 2.16882 3.22577 -0.44152 -3.75615 -8.91788 4.70427 1.28624 -4.16515 -0.69592 6.9391 6.2125 -0.0677534 0.594069 -1.39734 4.93634 -0.00932139 2.34653 -2.11595 -2.63878 -2.04895 -2.16519 3.53075 7
-2.8947 1.00294 -6.1009 -8.26538 -5.6683 11.4608 1.61871 2.02683 -3.67889 -4.05072 -1.73091 1.02149 -0.249341 5.34619 -3.07672 3.08071 2.46155 -6.2474 4.07771 2.92112 -1.3951 3.26695 -2.25489 -3.86093 1.56171 6
0.807234 -9.65715 -1.94734 1.30324 -1.57054 -0.989107 1.70699 -11.9115 3.91315 -0.122678 -6.69321 -9.23183 0.231274 3.59691 -0.0393249 3.39638 -4.5154 0.021308 -1.51613 -3.65286 -3.4947 -2.57908 1.41359 -2.16405 -0.978975 3
-9.2637 2.88009 -1.41958 -8.34494 5.35365 -5.04031 -4.11063 1.83696 -1.30218 -1.50289 -0.527255 -12.1348 -1.64548 5.45254 2.32249 1.92431 3.52976 -0.303626 1.53024 -1.32332 3.37032 2.8924 5.46026 -0.431011 -3.01657 6
2.79021 -10.3434 3.12148 5.52902 -1.49808 0.623482 -0.248459 -11.0962 2.34943 -0.635125 -2.79826 -7.34703 -5.97774 3.1858 2.09306 0.175749 2.04603 -0.267139 0.878688 -0.204578 -1.77032 -1.0758 0.792597 0.966146 1.82049 3
-4.94802 7.67476 -2.11364 -14.1354 -1.44152 -4.79097 -3.50544 0.730935 4.15669 -2.12564 -0.560763 -8.55002 -0.823917 5.20953 3.45867 0.653354 5.44182 -0.155731 -1.38506 3.85533 5.20089 7.63694 0.876117 4.11402 -2.12891 6
-2.37918 -10.2475 7.67112 3.00625 -6.45511 -3.16052 5.54666 -8.64076 -5.01248 -1.52538 -0.153557 -4.86944 -5.64297 3.16208 1.92837 4.55837 0.721836 -1.56317 3.9273 2.24058 -2.03719 -0.0530963 0.321892 2.2288 0.931666 3
7.56266 -1.19844 -2.20442 -9.47462 -4.51574 -4.45976 -0.150076 -0.301961 -4.87739 3.76284 -4.39019 1.35665 -0.24503 -0.183245 -1.48672 -3.6488 1.89847 2.03342 2.12958 0.0104062 -0.798343 1.09404 1.10897 -0.395556 3.37768 2
9.11657 -3.59953 4.74799 2.1376 2.99984 5.13063 -2.75005 -3.60127 -2.48288 1.66528 7.18469 -1.86457 -0.422064 -0.793196 0.462753 -2.06745 3.25484 -3.1646 -0.562387 -2.83995 1.74901 -0.0827896 3.53094 0.560583 -2.33354 3
3.49803 -1.31605 -2.49163 -6.97082 6.70426 7.36097 1.35466 -1.18932 -0.236257 -1.48121 0.903913 4.89508 4.29758 -2.90575 -4.58038 -1.67795 3.75646 -3.71197 -4.73534 -1.57036 -0.156686 2.8033 2.46055 3.72625 -1.70861 2
2.1845 -11.4922 4.4256 -2.09361 1.82948 -3.83428 3.36375 -1.72716 -7.48284 2.16564 -4.56469 -1.45716 1.1175 2.74613 2.86417 -0.443477 -0.460393 -1.95364 0.406378 3.75808 -0.490658 -1.57647 0.156414 2.22073 3.38539 2
-3.88942 11.8565 7.79754 4.91248 2.59304 2.11066 1.06816 -4.26501 13.7823 -2.56383 -0.933001 -3.57465 5.2361 9.06214 2.81779 -1.03737 1.57614 8.45465 -0.486556 -2.98077 -1.79678 5.64449 -3.40606 -1.85697 1.1535 7
3.80489 4.86759 6.16798 -4.62344 -8.0801 0.0775069 0.33963 5.26679 -0.693307 9.6231 -3.14099 -4.69339 -0.732059 -3.40097 0.644118 -1.00202 4.58003 3.11449 1.11459 -3.9215 2.74199 -2.63079 -1.99582 1.85066 2.58562 9
-5.31931 -19.8843 -2.25938 -10.7795 -5.23685 -3.3312 -10.2962 1.87185 3.46364 5.07329 2.71187 -4.45524 3.52345 -2.19892 -4.59798 -1.30156 -0.900956 -0.37472 3.66038 -0.19501 1.99629 -5.30307 -6.57489 1.71287 -2.10517 2
-14.4256 -13.1369 -6.70048 -0.939577 2.96465 -4.30465 -7.45294 -10.1302 4.23463 -1.89196 -0.0488656 2.87092 2.49535 0.67033 -1.31871 -0.550136 1.90567 1.65847 -2.616 4.15282 -4.82054 0.64651 -6.45401 2.85449 -0.178253 3
-8.33766 -5.33999 -14.0434 -4.93502 -4.40099 -10.5894 6.60622 -9.52366 -6.20088 3.2792 5.08249 4.63677 0.887519 0.930143 -2.31695 -1.92787 1.96262 7.73251 1.05764 -2.03125 0.461742 -3.03511 -0.767201 2.00778 -1.94331 2
3.82585 8.786 -3.73834 4.03111 3.82964 -9.9773 1.9253 1.17264 -7.40454 -8.15488 -3.34461 1.29925 -4.41806 3.10804 -0.913647 -4.04884 -1.14944 3.20525 0.147958 -0.801855 1.44374 0.876848 -0.46323 0.650719 -3.54758 7
-0.281465 -8.91634 -2.12033 6.19864 -2.34247 7.58403 2.31319 -7.54927 -4.36368 2.31433 2.62598 0.378301 -6.70363 2.74373 -0.763783 1.55831 -6.08981 -1.85965 1.13996 -1.70494 -0.502246 0.125682 2.74794 0.346687 4.06042 5
6.14605 2.02468 -4.43421 -1.34361 6.98008 4.09271 3.03768 -0.935364 1.8551 -2.4302 -1.84644 -4.88428 4.84119 0.214169 0.68497 -5.2249 2.41862 -0.576191 0.331256 -1.07021 0.833878 -0.649594 -0.842095 4.43163 4.34314 5
0.400918 -3.39141 -12.8293 12.8639 -7.84436 -10.655 -1.83921 -1.10915 2.70484 2.91363 6.70283 -0.866327 2.27652 2.55018 -2.83051 3.38149 0.947133 2.06694 1.98932 -0.367444 3.60266 -4.07663 -1.13696 3.8431 -1.54961 8
1.69041 6.95835 9.8031 -0.89834 -2.92713 -0.19834 -1.58282 -2.35061 -3.39212 0.994642 7.2863 -0.77175 1.88975 3.32651 -4.10029 -3.22127 -1.65559 3.20052 -2.29864 -2.89735 -2.11093 4.78544 -1.73909 3.15241 -2.63793 8
5.25933 -10.9581 -5.06192 -8.59292 2.37502 -2.55802 -1.46333 -0.561309 2.13218 4.1639 -6.02524 -3.44211 0.115346 1.12275 -1.44399 0.745263 -2.55048 -2.97564 1.22275 0.199947 2.20085 -0.176466 -4.91357 -2.08527 -1.02346 2
-25.6117 -4.48635 -3.94498 -4.35317 9.65411 -8.11929 -10.9051 0.468568 -3.55732 6.12703 0.0449238 -2.87531 -1.69721 2.64718 -0.726488 1.77757 -1.90788 -2.01606 -0.979107 -1.91011 -6.71102 4.99381 -2.30888 -1.3959 0.977406 0
10.7308 -10.1218 -2.55502 -1.8325 3.47561 -5.35025 7.45628 1.74834 5.37219 3.7716 -4.05333 0.313911 1.45329 3.91612 0.673079 0.916054 2.01524 -2.69817 -2.85917 1.53624 -0.530764 -3.29121 -3.00462 -2.88182 0.0840699 1
-2.47072 15.9735 -4.47182 4.16329 0.13571 8.6053 1.0547 2.67078 0.526643 -2.02973 8.32824 -2.46677 1.63317 -2.5462 4.48516 0.180906 -0.339203 -1.36309 1.17929 -1.67466 3.67711 -2.52368 2.41862 -4.53639 3.35684 4
-1.63697 4.56921 -0.817181 3.18541 -8.69684 6.09921 -4.87914 -3.51277 -1.30972 -2.87042 -4.62076 0.577263 4.69374 2.80163 3.14859 -1.42664 3.91651 -2.01588 -1.43494 -2.82022 -2.01061 -1.40969 0.26962 2.87089 5.66816 0
-4.23971 -4.72734 -2.56406 -12.78 7.20893 -4.04117 -3.31717 0.777042 -4.33323 -3.10454 1.01617 -4.93861 1.45217 2.46893 2.05103 2.69168 -7.77978 0.687824 0.716458 0.292715 4.31328 4.1823 2.95389 -2.58157 -0.687178 6
-9.63013 -9.26391 6.11142 7.15157 -2.18277 0.129799 -8.3443 -2.66087 5.80394 -8.01483 -2.57149 -2.44195 -3.34576 2.78685 -2.72852 3.44925 7.74434 -2.8961 -0.309902 3.50635 5.28033 5.65201 -2.40537 2.27909 3.47915 3
7.69333 6.17055 6.89536 -6.36609 1.44447 -1.12119 -0.307872 -3.56055 2.0628 5.78947 1.98984 -0.748816 -1.89506 1.66189 -1.67419 -1.13896 -0.235278 -1.13771 -0.7096 2.85272 3.77657 -2.78745 0.76479 -1.85829 3.66766 7
11.961 -6.8306 -0.887526 -2.64367 6.49753 -4.24536 7.3601 1.68248 1.63747 0.74535 -3.93241 0.438306 -0.389608 4.35646 0.348872 -0.243132 2.25882 -2.11127 -1.55452 1.89593 -0.406597 0.24336 -1.52953 -1.98387 0.493713 1
11.9898 -1.93748 0.796639 -1.75901 6.3001 5.67116 -1.88249 0.36087 -4.99519 1.57196 5.22345 -2.1015 3.17812 0.169221 -2.41418 2.3384 2.16381 1.29551 1.2886 1.20432 -1.71231 0.753857 -1.08149 -0.290658 -2.02553 1
12.9723 -9.06753 -4.9983 1.4859 1.98626 -4.94706 -3.39824 3.87635 2.80014 -0.37005 -3.23263 -2.7946 -5.31808 -0.0532941 7.01368 0.766027 -1.09285 0.481176 -1.42731 1.92893 -1.71929 0.0385869 -1.33511 0.176343 1.30693 1
-8.08662 15.5113 -1.2832 -2.48008 -5.13741 0.65312 5.24534 -0.239504 -2.41208 3.37021 -0.148336 -5.08539 4.41477 -1.799 -0.0182627 0.61744 4.5213 5.89645 -0.173954 4.69709 -0.677944 1.38725 2.10656 -2.01599 -0.434665 4
3.12341 13.546 4.05242 5.3484 2.08031 -4.30599 -9.54648 -8.3956 -3.13151 -1.14889 1.94733 3.85268 0.300221 -2.17923 0.988735 3.53308 -1.79447 -5.13753 -1.64387 1.07085 -2.35225 -2.02377 -1.22499 -0.413516 -1.48912 7
-13.0494 -6.2918 13.3335 -2.03029 9.7925 -8.97088 -0.886663 2.61281 -2.77461 -0.378868 3.70489 2.20908 5.65104 -7.34639 3.06139 -1.22169 0.423368 -1.34916 -1.83888 -2.24346 2.87287 2.31084 2.25014 -1.52902 -2.01473 0
-5.38909 -12.2883 -5.04105 -2.10776 -6.17775 -11.0968 -0.701397 -6.23084 -5.79782 -0.242842 -3.65354 -3.90142 3.82073 -1.08623 0.234389 0.423104 -3.78831 -0.369773 6.29601 2.59929 6.44933 4.14086 -1.65693 -1.0207 -2.70074 2
7.53915 8.51789 7.92676 2.17082 -5.03171 3.03759 -4.91857 2.17535 0.629313 1.12238 -0.605911 -9.59177 0.133824 3.4424 -5.53179 0.0759954 1.34429 1.88108 -2.87373 -0.121236 -2.45789 -4.20396 -3.4302 0.592003 0.156533 9
-1.13448 -16.9569 1.38567 -3.12965 -8.0002 -5.67458 -0.735224 0.916587 5.85766 -0.827687 -1.09635 -3.96814 9.06651 -1.78229 2.62965 -3.66172 -3.543 -3.20157 -0.746809 -0.253888 -2.29187 -0.00747916 -3.85663 4.0951 -1.42835 2
-16.2755 -3.57589 -7.48061 5.61212 11.195 5.14378 0.670663 7.04996 1.46297 5.86649 -0.292786 -3.24817 -2.77822 2.5844 -7.39535 -1.82506 -6.15017 -0.878382 -1.24265 -0.519672 0.105157 2.41187 3.5116 0.0599017 1.04661 0
-3.72268 0.348054 -5.32764 8.17213 -0.920347 7.54829 3.70921 -2.65517 2.22968 4.31336 -1.58073 -1.8063 -6.04982 -0.503873 -5.79764 -4.8516 -6.32663 -5.13119 2.64126 -0.380477 0.32255 -0.464822 -3.61716 -1.81154 -2.48889 5
-11.6107 3.13015 -10.6324 -6.05026 -2.1641 10.7496 -2.96365 3.69845 1.11739 1.81797 -4.8292 3.00793 -4.11163 -3.37903 1.73792 1.34458 -5.62094 3.08814 -4.86586 4.16057 1.92328 0.513427 -0.330286 0.219304 -2.91097 6
-12.6281 -1.0632 5.12699 -1.91254 7.22088 -0.408143 0.791911 2.479 -5.22133 1.96027 -6.59469 4.03294 2.64991 -0.423616 7.5582 2.98991 2.26625 1.61515 0.650279 -4.64215 -4.81201 2.23902 1.18336 -3.85239 -3.59808 0
-1.25985 -4.00786 4.13721 9.62373 -8.09197 4.75825 -0.641947 5.85814 3.24345 7.59792 -0.87668 6.60224 5.34233 0.726211 2.87164 -9.15962 -1.64894 1.81463 -1.7025 -0.568817 -5.05767 0.106383 -0.100669 -1.34675 0.349922 8
2.07474 5.47641 8.0191 -8.25383 0.697648 -0.563648 3.08887 -0.665098 7.10803 -1.64574 4.4763 5.76542 -5.1127 1.79994 -1.30146 5.58916 -3.63836 -2.53265 5.61527 -0.698764 -1.76151 -1.55172 -0.422164 2.95633 0.49873 9
-9.00982 -0.869971 -5.51785 -9.36366 -5.54037 10.3037 2.5336 7.47028 -3.90205 0.42274 -3.11999 0.44519 0.52269 -1.85777 1.05894 2.8411 -6.90414 -1.20581 2.04983 2.11321 -1.74333 -3.67721 -1.62266 -0.677469 0.761753 6
6.16477 -13.4496 2.69109 -2.64223 0.856489 -4.99387 -0.441624 -0.318838 -3.17213 0.0383274 -6.66407 -1.95681 2.00727 -1.33683 5.18122 -1.87342 -1.78696 1.25889 2.07253 -1.30268 4.57327 1.2931 0.582219 -5.92032 1.77534 2
-18.2862 -4.52608 11.9311 1.85374 11.9306 -10.8968 -3.74962 9.15322 -3.57895 4.3617 2.37507 0.336605 4.05536 -4.25021 -0.378151 -3.75322 -3.20518 -1.45265 -3.76851 -5.0288 -0.609473 -1.43834 3.54993 -1.92049 0.313275 0
-14.9789 3.3781 9.16969 -3.40157 2.58899 4.43798 -2.10356 5.77396 -0.739578 -2.05355 -6.74427 6.99773 5.52195 -3.06017 4.44403 2.11927 3.93574 -0.466404 3.30733 -1.16521 -1.13483 -1.82262 -1.85967 -0.278675 -3.63565 0
5.49143 12.6385 7.23519 3.78531 0.475236 -5.41376 -8.8668 -7.43607 -0.468594 3.4985 -0.847723 1.2578 2.74621 -2.50396 -3.40604 3.19365 -3.11014 -2.81805 -1.56481 3.20484 -0.849912 -0.368557 -3.56415 -1.1031 0.48125 7
-6.0576 -2.3125 -13.0709 -7.84136 2.91913 -7.84635 2.79017 -13.9972 -3.64569 -1.55011 3.10293 1.10764 2.16276 1.57244 -6.22114 -3.52005 -0.583636 6.05181 -0.78812 -0.821303 0.402611 -2.37126 -4.78156 -0.686501 -5.62858 2
-14.9066 -5.06044 3.66044 -1.53443 11.6234 1.92726 4.70127 3.59897 -8.75349 3.08859 -2.26647 -5.24691 -1.38144 0.614133 2.10738 -0.438339 2.43862 1.76719 -0.261027 -0.445994 1.02138 -5.05592 5.21697 0.580132 -0.768599 0
-9.25316 13.3489 3.32345 -6.76816 1.43638 -2.57916 9.96326 1.23148 1.56968 3.91148 8.5588 2.39839 -2.28602 7.87279 2.57181 4.3345 -2.63049 0.615704 5.41208 -2.06092 -2.38904 0.706295 1.00169 1.06745 -0.388995 4
-0.447914 -8.71874 -2.62403 -9.97562 0.132377 3.65398 -4.73254 -2.02454 3.16645 1.84741 3.06942 1.51688 2.37746 -3.77516 -2.71111 -2.68418 5.55414 -7.19131 -5.14186 -5.17029 -3.70911 -0.739604 0.768348 5.00541 -3.90837 2
-13.7773 -1.23542 -3.37389 -6.88469 5.20948 9.62361 -2.50059 5.84275 -5.49981 2.08678 -8.93183 -2.76879 -0.327009 1.20538 2.99006 -1.6877 1.79954 -5.39772 -0.410649 -1.52564 0.0792099 0.468658 0.754789 1.6182 1.28044 0
3.91604 10.1611 7.25437 -1.7399 -2.25476 1.0123 4.84935 -0.542487 0.271301 6.04543 -5.40118 -0.213555 -2.04586 -0.876043 -2.91817 -2.12739 -1.79364 -1.22978 3.22227 -4.92369 1.01132 1.15582 -2.99478 0.709228 1.34828 9
13.6679 -5.93571 -0.889549 0.149027 4.95319 -4.81634 0.131098 3.58832 0.43733 -1.52714 -3.38435 -0.455683 -5.38294 -2.2672 4.95795 0.574058 1.09447 -0.40113 -0.834432 1.4273 0.233696 1.33499 2.07636 -0.651337 0.336837 1
-3.09257 0.362894 -0.841429 -10.2914 -6.18304 6.47436 1.5615 6.82683 -4.54395 -6.92955 -1.75797 1.07438 1.86727 1.90767 -4.15733 -1.8973 -3.62677 -4.0851 3.49635 4.86528 0.99663 -3.81685 -2.85052 -5.11705 1.63223 6
6.96132 6.69646 2.56727 0.893095 -2.3352 2.5785 2.16625 5.97825 -1.99836 5.65559 -3.52451 -5.35068 0.163312 -6.09791 -1.5442 2.57548 1.39329 -0.841445 -0.172796 0.39065 1.01494 0.0172036 -3.34431 -1.46611 1.98902 9
1.14397 -7.0468 -2.48109 2.43028 2.39805 5.77773 -5.57197 -10.4377 1.35861 -1.49491 -1.34652 2.19814 -5.44833 0.310245 0.00216832 2.47156 -0.349699 1.12015 1.65878 -3.07599 4.64526 -1.49555 0.793269 -0.784636 0.100631 3
-10.5955 -6.52732 10.1731 -3.51765 13.8748 -4.06998 2.10605 2.67491 -7.26692 4.94544 1.03806 -4.42543 -1.06687 -0.166599 -3.40599 -2.35834 -4.28248 2.38752 0.855225 0.255644 -2.92612 -4.07135 3.18176 -0.448424 3.98464 0
-24.2675 -10.1909 5.92407 0.339934 13.23 -8.50934 -9.65225 6.43924 -1.20413 8.03933 5.73923 -2.21649 0.0067811 -0.0292889 -3.58281 -3.3129 -9.20007 0.869119 -0.652143 0.634747 -0.581919 -2.52748 -0.334038 0.915408 2.60808 0
4.40304 -13.5211 -1.21332 -7.86354 3.30056 -0.411994 -1.78496 -2.19463 -0.318652 0.151683 -4.13291 -3.55846 1.47982 1.68124 2.84332 -3.42435 -4.71589 -3.70268 3.3527 -0.671964 3.50203 -1.20675 -4.75256 -2.34686 -0.0822263 2
-25.256 -8.15351 10.0638 0.0873345 11.4848 -9.41427 -5.26935 4.87869 -2.12921 -0.349399 2.04248 -3.55783 2.45714 -1.71281 -0.982611 -2.48732 -4.53271 0.650508 -0.443823 0.148741 -3.40628 2.7859 1.45464 -3.7171 6.15068 0
3.80918 5.16611 -9.21238 -3.13394 -6.36731 8.83953 -2.1789 -4.26135 -1.10792 0.050632 3.29342 2.67653 2.28501 1.1142 0.292671 2.32294 0.5573 1.93335 -0.387315 -0.388509 3.227 4.73014 -1.74024 1.22601 2.74364 6
6.32496 -3.57559 -3.16539 2.45283 -0.592955 -3.50501 2.83956 4.67483 -8.51351 -3.40176 -1.34747 1.18039 0.527975 5.51896 -0.701277 0.665741 1.24703 0.0513905 -3.26506 0.943481 -1.90138 1.34393 2.54374 1.2563 1.60113 8
-12.4869 14.4341 -7.02306 6.7025 -8.988 -8.52091 -1.54312 8.10398 3.81544 -7.27001 5.70993 -4.60669 0.443864 8.34642 3.05206 -3.28902 3.13799 -0.71251 -3.17164 5.11048 0.786872 -2.11811 4.11793 -0.340481 3.3447 4
-16.3703 -3.25092 2.78915 2.35848 1.65006 5.10657 4.25127 0.236861 -6.89601 -2.37959 -6.48531 4.29074 4.30976 -1.91236 8.43932 1.11116 4.00166 -1.76763 0.528689 -0.249284 -3.43567 1.57065 -0.345771 -1.24163 -0.680755 0
3.97806 5.28218 2.00629 -5.0169 -6.82782 -3.5577 -9.02778 -2.05523 1.69679 2.60092 4.07905 2.24258 -1.27147 -6.21438 -1.1912 4.03381 4.94774 -5.17191 -1.97833 6.36645 2.82717 -4.64194 6.21963 2.46827 2.47353 7
8.55683 -1.67381 -0.948466 -10.2212 -0.945547 -0.313501 -0.132951 0.157692 -0.642937 4.30407 1.0067 1.60607 2.92005 -4.10036 -1.273 -1.19049 3.34427 1.84751 2.74217 1.19951 6.54871 0.0108557 1.42981 4.274 -0.692308 2
10.2497 -2.05577 2.07334 -0.726296 5.8519 8.08616 -2.34303 -0.975358 -4.00935 3.74692 5.12599 -2.00283 5.14964 1.34111 -2.53617 1.4002 1.53961 1.56638 1.94183 0.249661 -0.813945 2.02729 -2.80938 -0.016194 -1.46361 1
6.47612 9.09357 -1.04259 8.47687 -10.2561 2.83816 -5.55275 7.06771 1.05578 -4.46726 -1.5476 -2.78633 -0.834784 -4.42213 -1.82143 1.67879 -0.961261 -0.426389 0.875693 -1.51526 -1.30575 -1.25552 0.702306 0.430156 1.3367 9
-6.04556 -5.6266 18.5038 -5.52327 0.285156 3.35264 -0.87719 4.04811 -3.72816 -10.1345 3.28335 1.95519 0.239176 -0.254778 -2.9517 -0.656923 -0.358086 4.22201 -6.66535 1.57098 3.50235 -1.76664 -0.8611 -0.693038 0.268481 5
-7.41928 -2.86216 -4.31601 -1.45269 5.44868 1.03072 3.41896 -5.89124 -0.271603 -0.336837 1.10461 -6.1572 -0.266815 -4.99107 6.75606 -1.20024 2.3577 -2.0732 5.21471 -1.70117 0.140182 5.98652 -2.84604 -3.27565 0.364774 2
1.26005 3.83971 4.29941 -11.5894 0.136201 -4.71196 0.482178 -1.92948 7.83082 5.65933 0.214802 -1.04213 -2.96213 -2.47443 2.90838 -2.65849 1.81254 2.60715 -6.35401 3.32859 7.18727 2.57445 4.70253 2.10601 0.915616 4
4.1655 -3.77579 -0.781043 2.72045 -5.7688 -3.52069 -3.93422 0.399249 -8.8913 0.550202 2.68326 -1.03441 2.96893 4.05397 1.11954 -0.307113 2.98969 -0.192732 -2.55471 -3.45689 4.5083 0.446033 3.90202 -4.17075 2.00607 8
-7.78991 -0.143429 2.47336 10.6762 -3.17062 4.00831 9.88037 1.54838 0.378511 3.37865 1.1963 0.710122 -3.67481 -3.02863 -1.22383 -2.50467 1.06358 -3.68802 6.6361 -0.0308175 2.65734 1.25918 0.67328 -0.781921 -3.94383 5
-9.74186 -1.91518 -16.5324 -2.48016 -4.94309 -6.43938 2.64447 -6.07277 -5.31949 3.61747 4.98412 6.71976 -1.57774 -3.13944 -3.35686 3.51597 -0.75659 4.76366 2.35395 0.0759499 -4.96378 -4.57395 -1.07731 1.73892 0.374264 2
0.184286 8.35463 4.79815 -3.76962 -1.98355 -1.1015 7.46203 0.87322 -0.282752 7.83758 -3.95751 0.522459 -2.19469 -1.29881 1.34806 3.87949 -2.53495 1.52963 1.49842 -5.80684 2.2825 2.43577 1.46938 1.6129 -0.276245 9
6.30446 10.6967 0.695243 8.50857 1.88032 -10.2892 -7.79038 3.92204 -3.20919 -2.53684 -2.97679 0.225557 -1.73509 -0.213305 -0.646494 0.864578 -2.80305 0.346084 1.81255 2.87692 -2.03439 -0.271886 1.67519 1.15623 -4.88807 7
-3.04551 4.23736 1.05162 10.5115 -2.72643 -2.37183 -3.43831 -4.75132 -5.06058 -5.34416 3.23517 1.57934 -5.81036 5.59576 0.213852 0.386538 3.41424 -2.17911 -5.21666 -4.4568 -0.585152 1.81123 -0.166264 0.851637 -2.79508 9
-0.358064 -5.63144 -5.01877 -8.87415 -7.4949 -4.66718 -3.003 3.69979 2.26892 8.96021 -2.3157 5.36074 0.625836 -4.70525 -4.99671 2.9776 4.62274 -1.60744 3.02012 -2.37937 -2.82101 -8.00148 4.7123 -2.78225 -0.668266 2
8.04 5.00652 3.45454 -2.101 -1.256 4.86547 6.76279 0.666668 1.62561 4.06198 -2.73511 2.18345 -1.1988 0.564703 -4.29822 1.62811 -2.58875 -2.84044 5.4528 -3.07815 2.7481 0.320831 -0.383612 -1.37 2.12991 9
2.34519 12.2334 4.18424 3.52334 7.32061 2.52736 1.32548 -4.16034 -1.91293 1.57994 -3.47982 -0.839057 3.03197 0.0415458 1.26264 -0.660008 -1.68984 0.231101 -1.03181 -1.10642 0.165421 -0.824589 -4.64993 -3.66806 -4.28595 7
-4.2951 7.30642 5.97798 -9.08329 -4.27256 -1.75242 12.0901 2.77133 6.30789 -7.28581 2.55132 0.328147 -2.0858 1.99303 3.56169 3.90899 -3.08319 -1.10014 2.43481 0.381747 -2.96805 2.86774 -3.42623 1.75634 -3.98016 4
-0.117743 7.52953 9.28873 0.763087 -7.67245 -0.446018 2.39297 -1.74131 -3.11662 2.33346 0.323602 -1.2702 -2.86681 -2.63434 5.34834 -1.14246 2.63805 -3.42192 -0.0781521 -4.6444 0.201675 -0.978969 -1.26057 -2.13172 1.3299 9
-3.70631 -11.1534 7.62145 0.815387 -4.45011 -3.73676 9.29178 -3.35119 -0.313238 -9.55545 5.17562 -5.91944 0.112437 -2.47015 -2.9861 2.79162 -2.74655 4.12093 4.98866 4.54802 0.691989 -1.63814 -2.88415 -1.23576 0.562997 3
-8.02348 0.753989 -7.53273 -6.25719 8.33516 1.26161 2.25699 -5.87044 -3.11173 1.68876 3.642 -3.51619 -3.84394 1.36269 -2.42281 -4.08161 3.10066 1.16243 2.2305 -2.85989 -1.45275 -3.60414 -3.91183 -0.662342 3.01673 2
8.47398 -3.88748 -3.73312 2.87031 0.954206 -11.7799 4.60192 3.36417 -1.9511 1.67354 -5.44726 5.08015 -1.38438 1.0995 -2.67396 1.50783 1.13743 -1.68233 0.217937 1.87651 2.38715 6.38349 -1.2153 -0.867972 -0.761684 7
2.50075 -4.825 10.2857 -1.88654 -1.79746 4.71825 3.06153 -0.464143 1.22318 1.05844 3.85419 2.21554 -4.01278 -0.86168 1.97741 0.64742 4.62065 -4.36004 0.691223 -2.33397 -3.21468 -0.952298 1.56062 0.87794 -4.3909 3
0.150715 0.414537 -12.1429 -5.51039 -7.70847 11.9931 -1.9418 -1.62132 -1.04074 -0.714741 1.27141 5.93442 0.226124 2.9142 0.246608 -1.28819 -2.25714 -2.17018 0.931113 1.94507 -1.6368 2.82451 1.48054 -0.648728 2.3021 6
-9.94711 -15.9596 9.60678 4.65935 -4.58596 -1.20077 -1.17418 -2.37879 2.97068 -6.23523 -3.64911 -0.361812 0.502811 -4.18376 -3.62981 4.69047 1.40153 2.79647 1.1117 0.11663 -3.80055 -1.40905 -4.01581 -1.75565 0.923489 3
-1.71626 -6.06494 -11.1278 -4.70454 -1.92174 6.00339 0.494183 -0.0415287 9.637 1.84536 0.158389 1.01418 1.66037 -2.30718 2.64707 -3.10532 -4.3349 -5.2097 -3.74384 4.34046 -2.42644 -3.33906 -0.625319 0.804736 -2.99996 6
-6.18944 -7.28353 7.00053 -5.9906 -7.59036 -1.27995 0.525924 3.2555 -5.9663 -4.23315 1.53412 1.78321 1.91895 9.65982 2.71808 1.49622 -2.66739 2.54586 -0.964468 0.0417453 -0.0873028 -4.90939 3.6154 -5.24529 0.147828 8
-9.20188 3.89992 -0.0277102 7.77531 -6.95852 -2.43859 8.62777 0.712009 -2.81871 7.00115 6.97022 0.260112 -3.22724 3.93716 -1.22446 -0.121183 1.78582 -2.42029 1.73639 -0.140413 6.14626 -3.79018 0.298031 0.841421 -5.21671 8
-5.03687 -5.3868 10.3771 -0.452563 -10.4436 12.2703 -6.96169 0.951943 6.97942 -5.11249 4.00104 2.30124 -3.05631 3.06628 -1.83395 -2.37035 -0.518482 -0.0288048 0.927181 0.75185 2.03227 2.06484 0.493882 -2.47065 -3.10287 3
7.6435 4.8996 -0.402014 0.527279 3.22044 -8.28745 -5.18856 -2.04621 -4.34831 -6.78559 -0.404779 6.91539 -3.09555 -2.11256 -1.66668 -0.189472 -0.111748 -2.2433 2.68256 -2.19581 2.01819 1.65277 1.1964 2.99632 -0.712372 7
-13.1793 -5.57636 9.70047 -4.38856 12.2448 -9.57838 -3.1996 3.23399 -3.89043 1.57507 2.96679 -0.653974 4.86731 -5.07544 0.917461 0.530417 -5.31252 -1.01883 -3.49525 -6.13411 -2.3321 0.568534 1.42896 -0.575437 4.69237 0
3.17799 10.9817 -1.94043 9.3883 -5.29891 -2.87736 -0.644421 4.31815 5.00866 -4.10658 -2.74853 -6.72839 -2.32984 -6.79863 2.80063 1.58503 -3.28397 -0.513454 0.82996 -0.521106 -0.845825 0.517642 1.30687 1.68968 -2.52537 9
-4.53984 -10.8218 -6.39878 -0.972974 -1.54303 -8.45823 7.95908 -4.74908 -5.22095 -0.0671292 -0.312645 -7.26201 7.07557 1.80889 -0.565695 2.96464 -9.31009 2.7551 7.48314 1.1274 1.60269 -5.13432 -3.57069 2.39086 -1.31607 2
0.622956 7.54447 7.15934 -3.59627 8.92849 2.30057 2.30323 -7.17389 6.17768 -1.13474 -3.44128 7.13868 3.48155 7.66412 3.99324 0.822929 0.999102 2.86529 5.79839 0.892619 -2.69067 0.848113 -2.88984 -0.936491 0.730789 7
5.43599 7.89201 -7.05286 8.68177 -4.32229 1.93768 -0.272259 3.01986 -1.09629 -5.77943 4.25798 2.76042 -0.750961 -6.34419 1.16169 -1.48523 -5.01203 -0.191655 -0.600236 2.05857 1.18897 1.66404 -0.688309 0.254287 -1.11306 9
-22.0197 -1.37749 2.15079 -9.13644 7.35769 -9.51193 -14.361 5.55162 5.4648 2.37728 -0.0111101 -3.34979 5.31329 0.144468 1.94317 1.51603 -0.624283 -5.55455 -0.188863 -0.626977 3.39737 3.9935 2.62996 3.47545 1.14182 0
6.49368 0.282842 -3.312 10.1885 1.37669 2.26541 -0.507524 1.72465 -3.61979 -1.4632 1.32508 2.68087 -6.53496 -0.488035 -5.88959 -2.05893 -2.85975 -1.20226 -3.18617 0.110323 1.28883 0.960889 1.81259 -0.261632 -2.21187 5
-4.89861 13.9645 1.62425 2.14117 -7.50979 5.45213 7.08738 -1.55177 -2.58232 -2.24019 4.12276 -5.40004 3.77723 0.05183 1.6179 -0.831174 1.93905 0.564345 2.16838 -0.211307 -2.45934 1.28993 -2.50218 -4.79722 0.227848 4
-6.49403 -9.79358 -0.497807 -2.32291 -0.932404 9.52176 0.576296 -4.76004 -5.8751 -3.76018 -5.42502 -3.42809 -2.02719 5.50686 -3.56768 -0.173564 -5.76678 1.30251 1.34799 -1.19584 -3.94965 -3.79077 2.3914 -4.15028 -3.64938 5
0.234496 -7.68465 -7.82854 10.1753 -11.6597 -0.210452 -2.27816 3.98394 -2.57376 4.47849 -2.16496 -4.67304 -0.0508102 4.05633 -0.42344 -3.3045 0.297245 0.967621 -3.56161 2.17312 -1.99621 -5.53978 0.506519 1.3675 5.44819 8
2.3961 10.2206 -0.125747 -5.45871 0.119562 -6.28018 7.45613 -2.48175 0.301339 5.9871 -0.875199 -6.83016 3.2205 -2.57781 4.09839 -0.371262 -3.15272 4.18409 -4.03567 3.38437 0.284951 1.39459 0.413306 3.16893 1.79944 4
-3.10671 -13.3497 6.22054 3.25192 -1.58263 7.55174 -0.856643 -4.13383 2.34513 -6.25349 0.824004 -0.943418 -2.88401 -2.85896 2.30265 -4.07465 -3.65131 0.807644 5.43917 4.47882 2.25347 -0.0570764 1.12965 -5.81781 -1.54776 3
-0.914859 -9.50747 12.296 1.14048 2.91362 3.08638 -1.98225 -1.68386 3.88954 -7.84927 2.23885 7.7609 2.64158 -5.81552 -2.5436 1.04374 2.58425 6.87632 -0.859322 3.08314 6.31692 -4.18817 -0.693547 -4.45191 1.0419 3
11.9096 -2.74303 -0.734062 0.292399 3.06585 7.58684 -5.73998 1.39572 -3.92452 2.80824 7.6222 -3.60435 3.57228 0.865373 -1.65848 1.94401 1.48511 2.72535 2.02848 0.979474 -1.8518 2.24772 -2.29381 0.054524 -2.08722 1
7.44516 11.5478 4.55122 5.16283 -0.511699 -6.73894 -8.95164 -4.84099 -1.694 1.30205 -1.98138 -1.38508 1.50702 -2.82581 -2.33795 4.19357 -2.36544 -0.974382 -0.833278 4.71262 -1.99261 -0.379703 -0.878707 -0.665631 -0.956078 7
-2.21978 4.80617 -6.6034 6.62108 -2.43905 -7.43112 2.67409 7.73615 -7.07261 -0.58057 3.64633 4.71461 -1.56978 0.872536 -0.0745381 -1.63165 1.11706 -4.34047 -2.65513 0.205356 3.47711 -3.3905 -4.49965 -0.741229 -4.44828 8
0.789053 16.1405 3.29869 5.13739 -6.72228 0.491309 1.76908 1.41328 3.66205 3.70882 -2.85997 -3.69022 4.00123 -1.46507 2.73344 2.34045 -2.62425 0.679836 4.85036 -2.11711 2.56498 0.394025 -3.58436 -4.56328 -0.807306 9
6.7958 9.37346 -0.330051 7.3203 3.46363 -3.79076 -3.68706 1.47262 -5.58032 -4.08482 -6.07618 1.38741 -1.11147 -3.91111 -2.72735 0.514256 -3.04238 0.381082 0.822441 2.27783 -1.64135 1.5376 3.35919 1.66714 -3.83236 7
6.56261 -1.30222 -3.73886 -4.90981 3.19491 8.31556 -0.81051 -3.48329 -3.98804 3.24054 2.70882 1.25146 1.93672 2.47038 -2.51697 -2.67549 0.460929 -0.659173 2.81798 1.01577 -3.00748 5.99904 -0.57867 3.41105 0.413812 6
-8.69814 -5.14942 -17.9711 -2.54904 2.45195 -1.98679 2.20728 -4.35074 2.16678 8.13418 7.71168 8.89436 -1.68638 -1.89395 -2.75124 0.673749 2.18817 4.61408 -3.5842 2.22673 0.850535 -5.13229 -1.24201 -0.488954 1.26835 2
11.3152 -5.2296 -0.929097 -2.74326 5.85341 -5.89705 8.37073 0.869522 0.490917 0.561786 -5.18756 0.0627368 0.982527 3.92132 -0.872665 0.624967 1.86839 -2.47723 -0.480826 2.76118 -0.383974 1.54048 -0.840337 -1.74881 1.16179 1
4.03333 12.9608 3.55735 3.97616 7.59887 -2.33415 -6.04282 -8.69405 -0.554451 -2.11827 2.91059 0.995678 4.54927 2.88994 1.85266 0.767975 -1.61624 -2.76916 -0.406716 1.87001 -2.47302 -5.04104 -0.97191 -1.38898 0.320796 7
-15.3622 3.47243 -10.3662 6.15121 11.2406 2.01825 1.52901 -1.0354 -2.9735 3.18638 2.88232 -1.42292 -10.885 1.51461 -3.05611 -0.387311 4.35436 4.37674 -2.60724 -1.79537 0.544438 -4.33133 -1.67293 -0.393099 5.85812 0
-0.928657 -3.47692 -0.917147 12.1606 -1.00086 9.67685 1.11855 -8.31991 1.05786 -0.279629 -0.364095 -0.827421 -3.77619 0.964109 -3.328 2.56557 -2.14871 4.35659 -4.40226 0.232081 5.23181 -2.37419 1.98108 3.40571 3.46649 5
6.80471 -2.43081 -6.66899 -0.700843 0.417672 5.9567 1.95307 -3.13205 -0.902482 3.91628 2.54728 3.14638 1.30085 0.875904 3.12324 -2.63284 -6.67756 -2.25993 -4.02853 0.695094 0.56131 -0.342829 1.7971 1.98337 3.64615 6
-6.41385 -7.54946 2.34406 4.01991 8.53458 6.9134 2.52307 0.614535 -1.25047 -1.84592 -2.58389 2.65815 2.16167 -0.384969 -3.91682 3.12653 -0.0612887 3.99441 1.35167 4.23874 -0.719428 1.59251 -1.00294 1.14451 4.71058 5
6.31315 -7.99334 5.19504 -2.58435 -0.909074 -2.4023 -8.07994 -0.623747 -3.8961 -2.43401 -0.855655 -2.97938 -3.35327 -4.08323 3.3894 -2.45331 1.30826 0.688749 3.87259 4.80986 6.33243 5.8829 3.97094 0.153386 -1.18795 2
-3.4229 5.63386 -2.87338 -2.132 -5.0838 -1.62792 6.35309 -0.0393463 9.33024 3.82927 -5.86307 4.52942 2.24092 -3.26597 -2.34597 4.13009 -2.74233 5.9439 3.17964 -4.66184 2.74633 2.82332 4.03453 -1.21258 -4.23567 9
-14.7944 -4.48235 8.6334 2.88689 3.56969 4.1949 -1.94277 -1.46237 -0.533858 -0.899512 -4.88251 3.77414 -1.8698 3.25433 1.23984 3.96733 -0.647556 12.4413 4.25299 2.26425 -2.40776 -6.79105 0.112502 1.76785 5.25911 5
7.48272 3.87225 -1.26882 -2.78771 2.17524 -5.19063 7.28479 5.60643 -5.09987 -4.36127 -2.65751 -0.443056 -1.73963 2.95515 -1.39737 -2.61916 0.61036 -2.03655 2.34589 -0.0570904 -0.036942 -0.20803 -0.148316 3.0356 -0.86798 4
-10.0352 6.97256 0.0968848 -7.11283 0.9967 2.47015 -1.22934 -5.33797 -4.13394 -4.16286 -3.89856 -5.91094 0.0399304 3.29261 1.17744 -5.81533 0.887448 -2.52196 -1.24722 -4.98836 5.2087 -1.89934 1.35423 0.0786757 -3.24838 6
-9.37298 -3.91271 -11.6091 -5.30326 6.31663 1.77685 4.81097 -6.51616 -0.869114 3.15502 6.50145 -7.43663 -3.59457 0.158946 0.359122 -3.15079 1.08597 -1.12142 5.86717 1.48048 -1.15624 -1.34825 1.25079 -2.72546 3.71181 2
-13.705 0.985974 -10.9663 -0.760237 -0.461233 -4.56011 -3.1475 -6.44997 -6.18574 5.04591 -0.992251 7.93676 -1.04374 2.85297 -0.484348 -0.567815 1.51262 5.29036 -0.0129139 -2.2836 -6.28384 -2.49009 -4.90596 2.85714 -1.18943 2
-1.76227 -4.35984 -5.45384 -1.9134 0.457954 -9.12025 1.07762 -7.00498 -11.1785 0.483602 0.835449 2.00863 -0.491141 1.83211 -6.61071 -2.19701 0.949572 5.94914 -0.865756 -1.4763 -1.38441 -0.315654 -6.41436 4.03848 0.796155 2
3.63268 7.24585 -2.6081 10.4664 0.191933 1.48734 3.25937 0.468203 2.67851 -4.50348 0.756366 -2.26448 -4.48337 -3.05321 -1.22812 -3.59391 -4.09492 -3.21174 -0.15548 0.0971668 3.33665 -0.568222 -1.08856 -1.31568 -3.41615 9
-19.6817 -6.81123 8.56168 -2.55452 13.4242 -3.68503 -3.49778 5.76702 -7.10589 7.73999 4.99159 -3.75152 -1.65218 1.40641 -4.51815 -0.398615 -9.3814 1.25085 -0.324108 2.12847 -1.39443 -2.08697 2.74384 2.84365 6.14984 0
-5.93338 13.7428 13.667 -3.62343 3.55136 -0.0108567 -5.09426 -7.21906 10.0505 2.38947 -1.74601 4.78272 1.89552 9.67471 1.82255 2.31506 -1.82613 4.21544 3.22354 3.16757 -1.27907 1.2346 -3.16834 1.70365 4.07177 7
7.01842 2.09562 -1.02067 3.58217 -2.35016 -12.8466 -7.17159 -0.00375103 -3.17233 -3.81778 -3.88728 6.82804 -5.53631 -2.92815 -3.10667 -0.742871 1.27037 -2.62339 0.688561 -0.619719 2.43695 3.88948 1.80353 2.1971 0.185257 7
7.25087 -10.2332 -2.97566 -3.51584 0.98732 3.62165 -4.80621 -1.50492 -0.636471 4.24433 -1.32255 -2.62029 -3.86163 4.32496 7.43763 0.377622 1.77791 -2.14047 2.14429 -2.23264 -0.205586 1.3473 -1.7048 -1.37359 1.56854 2
-7.99678 1.60275 -11.3655 -7.58064 -4.37456 -8.13952 -4.61552 -5.23899 -0.197514 4.50445 -0.967536 8.33687 0.342407 -7.53943 -1.84246 3.06627 2.91566 0.184384 -3.18994 -3.80287 -3.85949 2.09962 2.74759 -0.959718 -4.04229 2
0.802847 -5.89566 -2.67598 -0.593238 -1.41651 11.0065 2.00688 -2.73389 3.04029 -3.95791 -0.543365 0.220107 2.64602 4.10839 0.82285 6.60807 -4.32387 -5.28569 -0.591513 -2.6495 1.21089 1.33542 0.365598 2.80039 -0.339781 6
-1.93515 -10.5689 11.2639 5.82099 -9.17116 -3.21396 2.7765 -4.07946 -0.314423 0.308558 4.27223 -2.24067 -4.90986 -0.697014 2.88937 -1.04029 3.8333 -2.1238 3.21737 4.52611 -4.14461 5.44953 3.7406 0.78623 -3.01091 3
-4.44924 5.65618 -0.071377 -11.7887 9.21629 -5.6398 7.98548 -0.0427103 3.01086 -3.39247 13.1645 2.15095 1.33742 0.00839733 1.0626 3.57605 -2.74019 -2.33884 0.461684 6.9531 -0.641771 -0.987114 2.18608 -3.38505 3.63538 4
-0.402793 -8.38368 5.47539 3.27871 -3.1295 -14.5408 3.24448 1.30574 -4.89806 -2.05304 2.43708 4.00637 8.63567 -0.609742 2.34055 1.72187 3.64159 1.02068 0.22546 -2.32955 6.75231 4.71216 -0.641546 -3.93472 -1.98848 2
-15.3606 -3.58737 9.66088 -5.09247 4.18194 -3.85766 0.330333 0.0547947 -0.441518 -3.00881 -1.35079 3.63345 5.01082 -5.66305 10.0199 1.27195 2.52615 -1.08573 -1.78877 -3.43294 1.45839 3.62483 1.26221 -1.74698 -4.99498 0
8.52364 -3.51739 -4.40565 8.71897 6.87033 1.61498 -2.02256 0.435158 -0.266434 0.271366 5.59287 2.12994 -0.808505 -1.46963 -0.249663 -1.94886 -1.35236 -2.91094 0.759875 -0.0453931 0.559765 2.17967 -1.66169 2.47466 -1.4444 5
5.70094 8.33926 -1.73656 10.322 -2.95508 -0.0827469 -1.61609 0.641203 2.77593 -11.3249 -0.764906 -1.74208 0.504679 -1.72064 -2.54768 1.04229 -2.37913 -0.862488 0.162756 -4.43615 -1.48836 2.76064 0.581128 0.817199 -2.00624 9
-4.37733 -3.44263 0.00257054 -7.94511 7.92189 -0.298196 -0.109013 2.54106 5.04468 -4.67004 -1.98461 -6.34377 5.31078 2.73623 -0.8871 -4.69332 -3.16886 -7.38843 -2.53088 -3.02574 0.338928 -0.720381 1.30321 7.81136 -1.28986 6
4.07649 -10.6297 -2.7628 -7.36104 3.34982 3.67713 -1.25176 -0.630304 3.32163 1.4447 -1.084 -2.02132 4.9252 0.434568 1.24481 -0.775174 -6.03338 -6.35521 0.728149 -3.68331 -0.134409 -4.09633 -4.76622 2.74507 -3.64697 2
11.6714 -1.61914 1.74838 -2.40621 8.1025 5.54945 1.09805 -0.48489 -4.4841 1.23154 3.94546 -1.20634 3.63476 0.749359 -2.19665 2.03456 1.52017 0.0848575 0.118232 0.725267 -1.77421 0.933346 -1.40999 -0.61198 -1.76256 1
8.20433 9.19924 3.7249 3.29974 -2.73604 2.92713 -0.130545 3.78295 -1.75426 2.86377 -4.20886 -5.1195 0.473421 -4.46475 -4.53774 1.45433 -1.11703 -2.32863 0.582618 0.0469699 0.613854 -0.66156 -3.49502 -4.29039 1.19859 9
-16.2378 -2.99129 -7.27475 11.2118 7.18336 4.67819 4.2816 -4.16161 7.47082 -2.88151 -1.90054 0.976193 1.7784 -3.23679 5.30242 2.1659 0.904645 -1.00918 -0.341233 1.91736 2.25721 1.55925 -1.53397 1.0978 -2.39526 0
-5.78255 2.60869 -5.70016 -8.98263 2.06894 4.14323 -2.6602 1.24125 -7.87824 -1.49223 -5.19805 -4.51253 -2.20644 1.7778 -0.236087 5.2247 2.70848 1.37698 1.49122 -2.72276 -0.00428805 0.810591 -0.266842 -1.81323 -2.89204 6
-11.9918 5.1709 -10.3619 9.69059 11.2198 0.776573 1.021 -2.63163 9.24675 -2.10455 -0.265958 -0.33294 -3.50715 -1.59034 -1.58723 -3.61461 3.67027 2.29148 0.997999 -2.19625 1.59729 -0.617136 -3.72698 -2.25765 -0.885614 0
10.9621 2.42049 0.80862 1.35088 2.19325 2.90294 2.87073 -0.155678 0.137247 -4.158 -2.10277 -3.61951 0.328663 -3.47665 -3.18822 1.10396 -1.58328 -0.747806 -2.51622 3.32882 -1.03894 0.816976 0.510046 -4.17864 1.09317 4
-0.162592 -7.08279 2.34773 -3.11118 -1.48757 8.8766 1.54353 -3.29969 0.540004 -2.65958 -4.05261 1.15081 2.8156 3.82061 -0.100403 3.41365 -2.59777 -0.515298 2.9315 0.988346 -6.62443 -2.19443 4.06361 1.35991 0.307447 8
-5.40583 14.8127 0.0315129 -2.71834 -3.26624 -0.230197 3.9739 0.409301 -1.92037 4.47274 -2.9101 -7.58307 0.539168 -1.68117 -0.483905 1.42792 2.10038 4.87738 -0.280014 5.5588 -0.839287 2.0635 2.36471 0.569538 1.62129 4
-4.18664 -9.35276 7.52959 4.16921 -6.1861 -0.179087 5.43474 -1.42177 4.80989 -2.85035 3.22125 -3.87356 1.45059 -7.52716 5.15432 -9.82789 2.55404 3.13307 6.46864 2.84853 -1.72338 4.07217 0.501033 2.30675 1.51013 3
11.6893 -7.48418 -5.54586 0.2991 1.39285 -9.9013 1.93042 2.65247 0.620835 -2.06159 -6.72817 -1.41497 -4.42353 2.0712 2.22442 -0.690535 -0.677933 0.843803 -1.76999 4.08396 -0.0756177 1.46595 0.701339 -0.879316 1.99677 1
7.64732 -2.89737 -6.00735 4.32534 9.01272 -0.05246 -3.90346 -1.25903 5.51955 -1.80423 1.4647 -1.47374 4.36155 -0.963586 -3.8076 -3.36907 -1.60448 0.227131 1.75457 -3.62903 -3.32553 -2.32185 2.31494 -0.282834 -2.52553 5
-2.04619 8.36747 2.38514 -13.3656 2.13912 -3.67807 6.45093 -4.53862 0.631812 -2.08988 5.42071 3.81875 1.08909 3.14156 4.7384 -4.8421 -0.130511 2.10119 -0.16426 -0.622299 5.46939 1.98968 1.39791 5.80821 -3.65598 4
-0.16779 2.81261 -3.34025 -9.50711 -0.713548 -6.39908 -0.85839 -1.88941 2.7585 -0.38889 3.308 6.78705 -0.312881 -6.84663 -5.07085 3.22518 0.990669 -4.61833 0.161405 -1.23741 -2.79006 -2.64705 -0.13125 -2.30163 -0.163324 2
3.20679 7.3725 -4.62111 14.2759 -6.9222 -2.02847 -2.62069 3.17854 0.883294 -9.50266 1.44236 -1.47276 -1.21831 -1.2545 -1.19853 0.321722 -1.993 0.0290652 0.00206759 -3.74978 -1.15815 4.63916 0.388799 0.646351 -0.332761 9
-7.92926 -4.32475 1.9809 7.90791 5.46943 7.22358 3.44306 0.772731 0.585156 -2.95811 -5.04159 -0.0875948 -2.82361 2.22634 -0.929797 5.39476 3.5853 2.02533 0.56199 4.98549 5.05078 1.33639 -3.82264 5.01701 2.8812 5
-1.45318 13.6484 3.39618 6.89117 8.01936 -3.06227 -4.09299 -3.41791 -4.00382 0.896597 2.90041 1.30915 -1.4342 2.68124 3.47255 0.328466 -1.29939 -4.32257 -1.41784 -2.53809 -1.65921 -2.03276 -0.781173 -0.889592 -2.92591 7
-1.67064 0.127122 -0.470949 11.5191 -7.2115 -4.25105 4.7609 -3.15944 -1.07218 4.09934 2.72801 -1.70879 -6.3875 4.73573 -3.37429 4.5092 -0.325204 -6.07772 7.18058 -0.513871 1.01899 0.736985 -1.64049 3.65587 -1.475 3
12.2016 -2.78268 0.86462 -0.92194 5.86737 6.37205 -4.05152 -0.439227 -3.7474 3.38854 5.83179 -3.28381 2.99179 -1.22315 0.14618 2.50741 1.44508 3.00501 1.3075 0.35544 -0.178299 0.746496 -2.64929 -0.187532 -2.06265 1
1.63407 -4.15717 -0.0270066 6.85874 -0.961692 9.80736 4.38774 -4.50969 -7.30156 2.39346 2.20475 -1.20061 -1.60496 1.9716 0.207984 -1.83368 -3.90705 -2.34387 1.63726 1.51327 -0.309856 0.617726 4.30954 -0.569826 6.19954 5
5.92638 3.79535 4.08684 -8.69966 4.22656 1.0898 6.88211 -1.89353 2.89781 1.32707 1.77323 2.21089 -3.92875 -2.4774 1.67756 0.708744 -2.98552 0.85397 2.20194 -1.55364 2.45852 -0.495204 3.06043 3.21716 1.48327 4
7.77202 -1.94352 -4.84452 5.10436 5.94347 0.766506 3.3737 -1.35015 1.1809 -2.3864 5.08429 -3.66913 2.64577 -1.0386 -1.5999 -5.90495 -1.93638 -5.88807 2.86683 1.35644 -2.28985 -1.14144 -2.01953 1.23026 0.716584 5
-3.57217 -12.0018 16.7989 2.48389 -9.32453 -2.47655 -1.95435 -2.32945 4.05003 -1.84496 3.95774 2.96536 -5.97257 -2.4072 -1.40821 1.28819 5.78593 0.0832081 4.22328 4.70867 0.902497 0.388289 2.53386 -3.82322 -1.3958 3
7.64041 7.89704 -3.33889 7.54433 3.61667 -1.36743 -5.12797 -2.31131 -0.648084 -8.03006 -3.9758 4.72765 0.494787 -3.91085 -1.82483 -1.60673 -3.57787 2.06133 1.50924 -0.201059 0.347002 2.26981 3.41311 1.77472 -1.66469 7
2.18055 -4.64219 2.56396 3.43187 2.14579 4.66215 -4.57481 -12.9698 2.34746 -4.07751 1.86628 -1.5612 -3.78301 0.323771 5.87893 0.937247 5.59573 0.745187 -1.50951 -1.06406 4.03376 -4.22731 0.4452 0.89791 1.81455 3
1.08371 -5.30385 -5.76087 9.64902 -3.04645 -3.83815 2.24667 0.160126 -9.40286 -0.525489 5.72396 2.00891 3.21641 4.49536 -1.40961 2.73173 0.52142 0.71166 -2.43622 1.30261 2.53755 1.18973 -0.482275 -0.387292 1.17738 8
-8.94058 2.76067 -13.3122 -5.60914 -2.14224 7.22655 -3.88291 4.13153 -3.54617 0.269445 -3.81021 -0.00803023 -1.81015 1.49791 1.39035 6.03659 1.60168 2.23198 -0.542218 -3.06211 3.12709 4.01546 0.064361 -1.91419 1.83916 6
-1.4512 4.6955 -8.0232 0.278848 2.56351 -6.35687 7.00114 -2.4083 2.22666 1.25778 5.85225 -3.70741 2.11074 1.65126 -3.02861 -4.83742 0.603235 4.1279 -3.5214 -1.23702 -1.86174 5.49652 -4.56144 -5.43087 -3.91929 2
3.39299 3.10779 -3.4263 0.983161 -2.72031 -4.47545 6.26383 7.23175 -1.31429 -3.17185 -5.44576 1.2718 -3.77664 4.6785 -6.87148 0.85542 0.352784 0.634152 0.396652 2.37601 -0.12775 1.93091 -1.78033 -3.45526 1.39795 4
-9.77093 1.45637 -14.5348 -7.25507 -4.6349 11.735 -4.10494 2.33445 -0.435268 3.93908 -3.1022 4.41001 -1.09248 -3.29178 1.2969 -1.60943 -1.4396 0.826424 -3.08404 3.92415 -0.643608 1.12793 2.3648 1.84531 0.764589 6
10.8027 -4.44423 0.193124 -2.09266 4.75609 7.14871 -2.81463 2.00086 -4.41191 1.18315 5.99506 -0.10098 4.25534 1.98754 -1.63696 1.07916 1.93255 2.89676 3.03645 0.033775 -3.4549 1.84407 -2.34885 1.11197 -1.06093 1
12.4454 -9.50764 -2.90347 -2.03671 6.29638 -1.08645 1.31821 3.81827 1.46969 -0.495076 -0.918358 2.71673 -3.48942 3.28026 5.7429 -0.223915 -0.0919067 -0.805829 -0.268655 -2.83993 0.603278 -1.24013 -0.980667 -0.271894 1.03313 1
3.64089 11.8868 0.354765 3.53953 -2.58787 -3.64437 2.92601 1.73679 -5.8852 -7.71634 -0.793316 -6.52603 -4.44962 -1.67747 -0.123118 -2.12364 -2.51527 -1.54201 -0.857018 -0.331819 -5.54369 -0.95723 0.340438 1.14618 -3.00333 4
-18.8401 -1.44722 -0.423054 5.31486 10.8653 0.409442 -4.11174 4.8214 10.1386 5.95807 2.13432 -6.01714 -4.00375 4.93642 -3.62009 -5.39017 -1.44876 -4.11292 -1.16312 3.77252 -1.64706 -0.892343 3.40953 0.459186 -1.47745 0
-11.7166 -1.41898 -7.58582 7.66071 12.1688 6.57619 5.79221 -1.82455 -1.04692 2.48824 0.93718 -0.325815 -6.08459 0.229272 -1.48279 2.39093 3.08859 1.31941 0.62512 1.83032 4.93607 0.291968 -0.829978 2.095 4.12698 0
-13.4094 -13.8676 5.88312 4.81457 -5.21059 5.54104 -1.85648 -0.99631 -6.98668 -0.775983 -0.957303 3.28661 -2.61647 0.638647 -4.20887 -0.570628 -6.94431 2.34589 -1.34417 3.48517 0.0931737 -5.79196 1.47271 -2.46863 -4.01978 5
-2.29295 -0.268576 0.806145 6.00194 -5.99554 -6.60606 1.05408 0.342787 -9.30651 1.1205 6.52772 -0.407829 -0.410967 2.9756 0.429087 -4.16254 0.208074 -0.230502 -5.7836 -0.234105 5.64993 3.19552 -3.54618 0.659721 -0.684151 8
0.9526 -0.753866 -1.57317 -9.98946 -0.957862 6.12473 2.10662 6.33521 -6.64521 -2.4339 -2.70773 -2.37521 2.69056 2.31659 -3.00333 1.71981 3.1273 -3.62675 3.15244 1.68166 -0.86559 -0.416815 -6.02105 0.993397 1.36332 6
-1.32361 7.41585 8.34027 1.3641 8.08362 1.29453 -4.10897 -6.98174 0.350861 4.71106 1.49499 5.58092 2.16234 3.6658 3.6038 4.10139 3.02205 -8.78443 0.599028 3.14655 -2.09531 2.44257 -2.45308 -2.62115 0.0554479 7
0.677872 10.575 -5.51719 -3.91951 3.67007 -8.93278 6.70367 2.61928 -0.891736 -4.24461 4.71644 -7.23679 -3.05265 -0.364268 1.74675 3.06394 -4.18337 3.2065 0.981718 0.00298712 -0.602358 0.141842 2.72994 2.17477 -0.0394858 4
-2.88316 -2.34494 -1.6095 -12.2255 -6.92846 -7.76269 -7.96416 4.90133 3.63455 10.6744 -0.610766 1.05554 -0.215347 -4.46867 -6.99572 -1.0814 2.05105 0.579489 0.462007 -2.80208 0.428151 -4.3615 2.46859 3.81592 1.33102 2
-1.7848 -5.69328 -3.76379 5.80076 -8.44582 -1.0784 6.46693 -5.44499 -2.109 -0.450284 3.7198 -3.41941 5.82266 7.88123 0.191164 4.96319 -3.42378 0.198157 3.51016 -2.40578 0.717432 -4.66775 6.89934 3.06114 -0.251185 8
-15.5204 0.407315 -8.20964 13.2953 2.36337 1.64278 2.27129 -6.17868 13.7758 -4.44375 -0.658631 -2.53659 -0.484288 -1.29452 -0.341268 1.34017 3.81448 0.229004 2.45144 1.94994 1.43206 0.184965 -3.19751 4.48416 -2.43387 0
-4.53054 -3.63509 -7.03841 -4.27149 -6.62932 -6.34144 -0.652498 -6.23561 -2.4085 -0.110701 -1.53768 1.69156 -4.6659 -10.0021 -5.40419 2.93627 -0.665014 0.72716 4.57 -2.81963 -6.78963 -1.85279 -0.638993 -1.98617 2.08142 2
-7.62278 -8.04245 10.1142 0.947913 3.51303 1.14947 3.71407 -1.99846 0.534805 -5.13285 1.39198 0.974921 -3.37098 4.25896 -0.942178 2.1108 -7.51482 3.70504 -6.58915 7.78301 4.00677 -2.13026 -1.3974 1.7211 -1.73773 5
3.63404 8.96013 -9.05797 4.14603 -2.04074 -1.53436 4.51603 4.67258 -1.16324 -7.71503 2.11207 5.92432 -1.68939 -2.16723 -0.705859 -3.46262 -1.40296 -0.236027 5.20261 -1.67519 4.51009 1.07929 0.254908 0.868885 0.878651 4
-4.65263 -1.02017 4.61301 -5.997 -10.0798 -8.05146 0.942066 6.17284 -4.84406 -2.06733 7.29604 5.26059 0.0464513 -0.00884404 4.1247 -6.25283 -1.3 0.237326 -6.71619 -2.29627 0.870435 3.38314 -2.10532 -0.693827 2.66233 8
-0.332027 -3.3335 -4.07749 7.68513 2.46789 -5.13232 4.07647 -9.89879 6.95497 -1.85121 -0.478037 -4.07953 -4.03467 3.61851 -4.79447 3.17884 -3.36311 -1.73479 0.00275488 -3.4681 -1.74137 1.94949 -5.11748 -1.65787 -4.22475 3
-17.1284 -1.58478 -2.17076 10.0963 -2.38406 5.02255 -0.100717 -3.16933 -0.117792 -1.96065 -8.51129 3.39458 5.55415 -3.42193 6.568 3.29491 1.2322 -1.33152 2.66382 -1.84221 -0.31678 0.189899 -0.630088 3.28234 -0.353849 0
6.91222 3.77775 -2.50922 -6.27082 2.40446 5.36199 2.49146 -4.44823 -6.27787 -2.17834 0.251501 1.01057 -2.03997 -0.731587 -2.09874 -2.91136 1.92512 -1.06053 -0.0204667 1.75657 -2.42085 -1.02117 1.70337 -1.62572 0.351307 6
-3.13689 7.46824 1.34856 -13.341 3.57652 -8.77484 6.4559 -0.23251 2.68142 -5.50304 3.30889 2.68488 3.53622 1.9009 3.35892 6.97205 -2.01437 1.70276 -0.210314 3.88708 1.17192 2.32116 2.58088 1.27592 -3.1278 4
0.409261 -7.56114 9.25205 -0.777411 -4.06433 -1.86909 4.58321 -0.683414 1.32064 -2.5035 -4.79314 3.57032 2.95353 -0.492778 0.888988 1.9398 2.06556 -0.926022 -5.4436 0.112691 -2.64097 -2.29151 1.52554 -2.2777 -1.22136 8
2.82437 -3.4279 -10.379 1.71331 -0.92951 6.25195 1.31253 -2.35565 5.82439 4.24407 0.36322 0.400634 4.71424 -1.04942 3.74342 -6.24551 -5.47493 -4.69633 -5.89154 0.910775 2.40384 -4.31273 1.08302 3.3624 0.494269 6
9.99528 3.56196 3.91882 0.00278157 -3.17632 0.593835 1.65202 4.16174 2.15376 2.62712 -3.18199 -10.4668 -0.187977 -2.55524 -0.741479 -1.7185 2.99442 -1.28648 -1.33494 1.80682 -1.52394 -1.04211 -5.33003 -2.94912 0.923682 4
12.6891 -2.74458 1.06955 -2.06594 7.9283 5.35507 -2.29196 -0.716709 -3.03018 2.22568 4.21564 -2.61441 1.96005 -1.49839 -0.175463 2.92194 1.50305 2.0489 0.760507 -0.109696 0.0445224 -0.0227359 -2.73789 0.193818 -2.25847 1
-0.631528 -5.26699 4.84114 -0.296142 -12.4683 2.72143 -2.98611 3.70464 0.788006 5.21254 -3.11375 -4.5173 -4.27264 6.25445 3.71573 -7.02967 -1.13194 1.69347 -1.7831 0.00865219 -4.24602 0.346916 0.948971 0.412554 3.16171 8
14.041 -6.36116 -1.68692 0.477295 5.24936 0.12292 -4.70478 3.11565 0.651425 0.249618 0.972824 -2.52008 -3.63829 -2.21523 6.4413 2.10233 -0.121245 2.03091 -0.176311 1.19201 -0.388148 -1.52772 -0.411574 0.938215 -0.833862 1
3.51938 6.87395 3.18495 3.42839 4.1306 4.20776 1.79009 5.4118 2.08272 2.81643 -1.23146 1.90623 6.70544 1.02393 0.398392 -9.93985 0.0230935 0.757573 2.44051 4.6181 -0.750211 -1.0709 -4.81819 0.467329 -0.578368 5
-1.19419 5.80764 -2.9384 -5.13674 -9.78161 2.34063 3.26155 -5.81136 3.51924 -0.620665 -4.60816 4.22766 7.0936 1.43609 -4.72006 -4.18318 2.84966 0.929196 -1.32328 1.9698 -2.35731 3.96314 3.06322 1.67165 0.608732 4
9.02276 4.6094 -0.648143 -0.179336 5.5107 5.12423 0.28111 -2.60457 2.78963 -1.00108 -2.08782 2.45766 4.9324 -2.03191 0.0264582 1.17087 -0.75469 -0.170025 -0.858333 1.35084 4.94723 -3.67308 1.00845 0.922658 -0.288726 9
-1.29565 10.2631 3.07229 -2.44985 -0.0492799 -3.84074 0.382896 1.16238 -4.81874 -4.79454 11.0126 -9.66307 -0.85772 1.32259 5.56675 -1.56588 -2.7765 -0.727498 -0.303059 -3.97779 2.35513 -2.64242 2.27787 0.565326 -1.26657 4
-8.22123 -8.31677 5.56358 11.9312 -12.3704 -2.2285 1.44597 -8.06207 2.44344 -1.47721 0.912838 -3.35292 -5.22746 -1.19711 -1.39549 3.66759 3.89254 -1.93248 4.80281 -1.50952 -2.25776 3.32984 -0.155358 0.258202 -0.577665 3
7.47362 -12.3721 0.620923 -7.42999 2.03971 -0.962993 -5.67923 1.36255 -1.5045 -0.458058 -2.34938 -2.46936 0.409996 -0.435797 4.17114 -3.49696 -5.06791 2.72107 4.86316 0.0287976 6.02099 1.04083 -4.15999 -2.49803 -0.0232129 2
-10.6765 0.73253 -6.95077 8.09936 15.3585 3.62057 1.91747 -1.01254 5.77508 2.67048 0.537932 -3.11319 -6.65907 2.8584 -1.62183 -3.55177 -0.360264 -0.55472 -0.474604 3.74044 4.04878 2.66504 -1.06973 -3.86293 1.06105 0
-3.0605 -9.12039 -6.08347 0.188211 -3.40766 8.16284 -4.37274 -3.73857 -3.18346 2.28062 -4.24772 4.08193 -0.126049 5.44982 0.718653 4.97896 -6.16281 1.22441 -4.80766 0.781884 0.983053 1.42432 2.51426 2.36347 -3.07621 5
-17.7572 -2.91992 4.35013 0.577136 3.5378 0.215658 3.96423 4.25656 -7.23627 -3.24517 -7.12054 1.65562 5.87127 -5.03718 3.09294 6.65797 0.821703 4.23926 -0.628441 -0.969844 -0.221787 -3.29367 -1.42395 2.16519 1.20408 0
-4.86992 8.38808 9.3406 -8.44491 5.91854 2.64302 2.22161 -0.711138 7.10657 -0.196302 -3.9265 4.91914 1.50036 4.27147 2.99482 3.41048 3.03056 3.21218 2.67598 -0.74163 -0.474701 -3.74301 -1.13378 7.23851 -3.00672 7
1.68398 12.5854 -1.42385 4.0191 -4.56284 4.57698 1.37183 0.155524 -4.51438 1.27589 1.85802 0.149452 3.01687 -5.27443 2.76029 1.67064 -0.81808 -1.48607 -0.917869 -0.0153316 3.38423 -0.260615 -1.27557 -3.58399 2.29202 9
-1.44691 -3.23207 -6.87001 -5.24568 -10.5736 -7.50116 -3.77482 -0.35977 -2.20106 5.18981 -5.63602 4.3619 3.13917 -4.71387 -0.718339 -2.00811 -1.56979 2.50081 4.43805 -3.37163 -0.898038 -0.296289 1.20069 2.87208 1.61436 2
8.01861 5.32939 5.21956 3.71476 -0.421774 6.86697 1.4008 -0.583312 2.59191 4.82071 -4.22769 -2.04262 2.17769 -1.35884 -5.34963 -1.36829 -0.845978 -1.99476 -0.136604 -1.60293 0.959145 2.66156 -2.06011 -5.12515 2.50507 9
-2.59856 -0.499637 1.33111 -2.33331 -2.61414 0.505524 10.5425 0.664952 -9.00484 0.656871 -0.598458 4.54378 2.78007 1.11802 0.453119 -2.00099 0.916303 1.90863 3.3197 -1.59613 0.527188 -4.22826 1.14459 -0.603196 -0.144879 8
7.38719 6.32756 7.14852 2.3671 -1.55593 6.22739 -1.19674 -1.28926 0.230175 7.07426 -2.22917 -0.159931 0.0149343 1.77507 -6.95601 -0.856565 -0.35697 -0.666252 -0.574013 -2.67483 0.469804 -1.46633 -1.37071 -4.76275 1.25285 9
-7.65656 1.04265 0.3734 -6.71528 -8.28154 9.94197 -3.74066 0.0535308 -8.9733 -0.629214 -1.40353 2.70558 -2.24573 -2.81639 0.866055 -7.23565 0.596263 1.00169 0.384368 5.25809 -3.35794 -0.13614 -1.09251 0.554607 0.244882 6
-4.04326 -3.90636 12.2197 -7.66891 2.13749 -2.3704 -1.44637 4.62216 6.86213 -12.3769 5.64757 -6.75963 4.46411 1.29074 -2.33923 1.40511 -2.3012 -4.01931 -3.06672 -2.37702 2.81836 1.07558 -1.80803 5.50353 10.4069 5
-8.05217 -0.653212 -7.73589 0.944564 -3.16035 -11.7848 0.78547 -6.61146 -8.95413 2.6305 1.96305 0.961127 -0.253618 2.8783 -2.98247 0.167033 -0.852843 7.58931 -1.96543 1.35224 0.112829 -2.18056 -6.61869 7.54495 1.18304 2
5.10227 9.17147 4.77191 -6.93421 -1.67817 -2.86521 3.90107 -3.71745 -5.38562 -0.349954 -1.82569 -4.39835 2.49893 -0.936394 -2.28372 -2.27402 2.3966 1.56572 -0.898116 -1.75475 3.03023 -0.923342 -2.23094 2.59093 1.15577 4
-4.02105 11.5386 3.44306 -10.5358 0.780467 -8.0123 6.49432 -4.16198 -1.03123 3.59635 2.5573 1.03425 1.29378 5.6246 2.95086 -3.37532 -0.292639 5.31576 -1.56225 -0.459148 0.311576 1.99367 2.66843 6.60694 -4.48122 4
-1.72878 -0.713299 -13.1022 -4.30665 -7.06331 10.7849 -1.03975 -0.687255 3.49555 -0.509854 -0.390568 6.00354 -1.78077 2.31575 2.88293 2.94802 -4.99926 -2.54999 -2.81515 2.51596 2.48196 2.30919 -1.48131 -1.30455 0.00324128 6
3.24964 11.6613 -0.465648 2.65811 -3.51846 4.9638 3.50927 0.299832 -5.87071 -4.02206 3.9797 -4.8106 3.00094 -0.336174 -2.63072 1.98323 0.339427 -2.72062 0.53668 -3.01344 0.947157 -2.05951 -0.979924 -4.45263 2.3644 4
7.64274 -3.36649 -0.0516154 5.46331 -4.56411 -4.16511 -4.23935 4.50844 -4.54874 0.667697 0.522352 -2.83057 2.58269 2.8276 0.130997 -0.727408 4.28482 -2.07709 -2.71237 1.62582 -5.67494 -0.55065 3.9099 -1.05339 0.714776 8
-1.3613 13.4523 -3.54824 -3.13039 3.30839 -5.15651 4.51548 -0.868558 -5.1756 -2.09079 7.96965 -5.50608 0.116479 1.11465 6.66743 -1.17886 0.0170334 0.766226 -2.19857 0.428884 1.99756 -6.30322 2.03585 3.50386 -3.21885 4
14.0877 -6.81497 -5.22259 -0.984067 2.1418 0.794015 -6.98482 3.04168 0.6865 0.392565 1.47147 -3.15792 -4.15067 -0.365022 4.37136 2.5722 -1.05593 3.45878 -0.218428 -0.28013 0.166491 -0.510341 -1.4781 1.20357 0.0211515 1
-6.36132 14.6783 6.31345 4.86867 8.04307 2.80854 -2.29481 -4.72725 5.04998 2.30699 -0.208079 1.69673 2.59456 6.18007 6.67165 0.513782 -1.96697 1.37458 0.93084 0.453646 -0.658493 2.95218 -3.01752 -6.49102 -2.56085 7
-6.0625 -4.1732 8.87322 11.3984 -13.3397 6.09398 -1.58095 0.6237 4.87927 -1.17861 -5.52204 2.75873 -3.76156 2.38477 2.84241 0.242946 -0.588933 -0.614524 0.619248 -1.83842 -3.13621 0.898033 0.875247 -1.10768 0.71077 5
5.75121 -4.58752 -10.3267 8.95646 -5.29057 -6.52417 1.84681 5.11784 -0.481896 -1.25912 -1.97585 1.96835 4.42527 1.67055 -1.25484 0.565064 -4.56348 -1.4091 -4.36315 5.91592 1.40856 2.30066 3.347 1.07195 -2.48914 8
8.70747 1.90383 -3.95663 3.28438 1.20758 0.398046 3.90896 5.43834 2.31842 -3.66235 -0.260643 -2.00406 1.5065 -5.73553 0.192813 1.22517 -1.07313 -1.7593 0.270441 3.70374 1.25476 1.1096 3.00837 4.09617 -2.44042 9
-6.82096 -7.64719 7.01883 11.5535 -2.95327 9.5453 -0.813246 -2.63573 -0.208675 -0.716892 -1.04488 5.4114 -2.69063 1.3801 -0.532379 4.03756 1.66795 0.45138 -0.238448 3.92102 3.51249 2.59605 0.900586 -1.34722 -3.49554 5
-10.3448 9.86203 2.91161 -6.25593 -1.47463 -3.37932 -3.32894 -1.89669 0.0880041 8.62583 -1.62093 2.34724 -0.765442 0.271323 8.49089 0.169373 7.16076 3.95233 -6.81038 -2.79111 -0.820547 3.98736 -2.02164 0.7888 1.58924 9
