33600 13
3.764 0.433908 1.86362 -3.59945 -2.1235 -3.03409 0.41774 3.51249 0.355812 0.888233 -2.052 -0.520459 0.182429 6
-1.12673 -3.674 -0.282864 2.06611 -1.38297 0.197305 1.3066 1.21369 -0.687958 1.6776 -0.571667 0.664912 -2.13773 9
-2.56926 -0.505694 2.94398 -1.01479 0.944656 -0.459871 -0.756768 0.3031 1.71884 0.683595 -0.00065795 0.570042 1.6913 5
-1.02608 -4.00046 -0.600399 0.519273 2.67867 -0.641254 1.00373 -1.74639 -0.327361 1.36962 -0.974294 -0.252106 0.84043 7
-1.31633 -2.87461 0.0532578 0.198528 0.381019 -1.7042 -2.47082 -0.874771 0.86554 -0.302957 -0.485114 -0.188271 -0.609267 9
1.61676 0.755864 1.7592 -3.19205 -2.21598 2.6122 -1.31253 1.15286 -1.56838 0.131247 1.70378 1.63801 -0.811233 2
-1.37857 -0.00600802 -0.260887 2.76411 0.585621 0.631551 -2.34476 -0.12272 1.29009 0.284331 0.672056 -2.28924 -0.0760635 3
2.62824 -0.301696 -2.0687 2.68921 -5.26455 0.275085 2.34306 -0.537989 3.94823 -1.13322 1.75477 -0.930962 1.26429 3
-2.52642 -2.26075 2.27115 1.48221 1.28481 2.43167 1.71483 -1.67898 0.501009 3.02857 -0.880888 -1.59373 1.55502 7
4.24218 1.23599 1.16453 1.27456 4.69321 -1.69105 -1.95384 1.88962 -0.604518 -1.19122 -1.28197 0.262994 -1.05427 0
3.79056 -0.202702 3.78226 -1.14268 -3.63527 -3.3207 2.11283 0.777879 1.10227 -0.406348 -0.473498 -0.718184 -0.62924 6
-1.67174 -2.14069 -1.77763 -2.41171 0.774661 0.92398 -1.70397 -0.25699 0.821091 -0.684809 -0.234729 -1.82637 -0.937968 9
-4.57366 2.09698 0.682414 -0.665493 0.987778 2.38117 -0.287337 0.32346 1.04459 0.832491 -1.94933 -0.653739 -1.19713 1
-2.56307 2.00257 -1.06333 -0.281038 0.192659 -1.49137 0.81995 -0.372583 -0.415785 -1.2942 -0.285996 0.716315 0.924469 8
0.636729 -0.678702 5.09967 -0.651626 1.5934 1.14958 -1.3652 -0.590477 0.498283 -1.04152 3.42186 -1.22288 -1.2675 2
-0.431636 -2.68508 -0.297024 -3.00035 -0.487825 0.696825 -2.09775 -1.11808 0.0943868 -1.47083 -1.59841 -0.982903 -1.71584 4
-3.2276 0.294906 -0.985034 0.41276 0.504624 -2.97899 2.08121 0.64679 -1.38713 -2.15711 1.41076 1.97843 1.71214 1
2.01531 -2.62941 2.94456 0.583917 -0.878819 -1.10099 0.507389 -0.641166 -0.343164 -0.548815 -0.427032 -0.46741 0.327227 9
-0.100281 -2.48098 2.57375 0.178495 -1.33816 -1.01269 -0.941112 -0.893737 1.62948 -0.195135 0.21191 2.1192 -1.93662 4
-4.11394 0.49595 -0.803967 0.724602 2.61775 -1.34497 1.68664 1.64004 -0.752122 -1.0499 1.27501 0.201797 -0.473813 1
-2.46801 -1.55084 2.24481 1.11851 -1.64367 1.60749 0.509712 2.44655 1.61382 0.864722 -1.76608 0.361834 -2.60264 9
-0.866106 4.46493 1.426 -1.78516 -1.47253 2.19797 -0.697368 -0.652531 -0.918206 -0.864057 -3.35816 0.925524 0.808867 2
-0.610449 1.2001 2.36533 2.60733 2.63189 -0.592796 0.0590681 -1.09975 0.405719 -1.48734 -0.186325 0.532488 0.684653 5
-1.32868 -0.291195 -1.75179 1.69613 1.84523 -1.76771 -2.10183 0.351501 0.285668 0.0749598 -0.529181 -1.93674 0.717428 5
1.42051 -0.522457 1.91165 1.67586 0.28851 -1.04192 -0.63842 -1.75764 -2.49303 0.657515 -1.1696 -1.5127 -2.02417 0
1.50276 -5.69075 0.794885 -0.269189 0.059015 1.11427 -2.15073 0.498509 -1.62274 -0.561756 1.45713 3.12917 0.399668 4
-0.00513943 -1.98612 1.67817 2.55615 0.182412 4.54432 2.31543 0.280739 -1.7827 1.45516 2.13643 -2.36171 -0.0080811 7
-2.38109 1.09422 -3.71695 -0.351357 1.3539 -2.13134 -0.73437 -0.844412 0.825785 -0.796548 1.86089 -0.845381 0.527152 3
4.92497 3.03439 -0.894932 1.89556 -1.03388 2.06689 0.390031 -1.83034 0.801607 1.68992 0.911349 2.1749 1.39231 3
-0.0403438 0.890751 -1.71448 -0.836767 -1.22678 0.0709506 3.47603 -3.45738 -1.76004 -0.157904 -0.0529259 -0.751293 -0.776761 2
0.728905 -2.88914 -1.26356 -3.98771 1.79222 1.86754 1.1754 0.230133 2.16366 -1.51856 1.00055 -1.70404 -0.987614 9
-1.1984 -0.998475 2.77449 2.25247 -0.144036 0.629612 -0.794705 0.374818 -0.0113256 2.64496 -0.0581063 -1.43012 0.57607 9
-4.62334 1.48106 -0.0979406 -1.05857 3.04333 -0.547833 0.62846 0.661308 -0.424885 0.248707 0.678693 0.636 -1.01601 1
-2.06039 -2.93378 0.617912 3.65202 0.579639 0.544276 1.98965 -1.2716 -0.160336 2.31933 -1.39257 -0.415602 -0.515911 9
-4.88157 2.64522 0.409938 0.366333 1.50962 0.777801 1.58145 0.99877 1.99558 0.402205 0.181671 -0.552494 -1.22705 1
3.292 3.87265 0.56454 2.44671 -1.62394 -2.17884 1.92979 -4.00508 0.67762 -0.695572 -1.30844 -1.46265 -0.240331 3
2.20874 0.283401 4.1174 0.773089 4.36467 -0.917312 -1.0257 -1.1135 2.22592 -0.876575 0.981891 -0.046932 -1.5636 0
-1.46404 0.458867 2.12914 -0.156921 2.27266 -1.57868 0.677655 -0.447414 0.144411 0.634076 -0.840288 -0.0186584 0.399773 5
2.33531 -2.10014 -2.45274 -2.82398 -1.29803 0.960741 -2.19151 -1.75009 6.19677 1.89156 1.68043 1.37342 -1.47071 4
5.04197 -0.00824537 3.38435 3.05226 3.14695 -0.528617 -1.18149 -0.011369 -0.484494 -0.551214 0.159436 0.287774 -2.28909 0
-3.57649 0.459578 0.950288 0.364543 0.375729 -0.89529 -1.40671 0.413727 1.97118 1.06152 0.258632 -0.595549 -1.33722 4
-1.63945 -2.31974 -0.453052 2.3582 -0.188065 -0.144371 0.96627 0.624861 -2.88709 1.5967 0.098974 0.633963 -0.63544 9
3.69187 0.284661 0.164221 -4.56342 -1.6142 -2.4538 1.19892 0.61251 0.909501 2.11242 -2.59053 2.27914 1.93854 6
-0.481993 -2.94935 4.73486 1.25283 -1.35865 0.639256 0.250998 1.84555 0.503039 3.24747 0.497849 -1.94676 2.02035 4
-1.80418 -0.142511 3.328 2.08513 -1.47242 1.51467 -1.81096 0.825351 2.15945 1.87642 0.195446 -1.38172 1.69728 9
-2.44061 -0.674953 0.16169 -2.77695 0.502513 -0.982662 -0.91555 -0.464416 -0.877793 0.914117 -0.619576 0.165549 1.39201 6
-4.14692 0.0298715 0.365786 2.74066 -0.321886 -0.772945 0.268182 -0.190263 2.34157 1.15891 0.152453 1.73773 -1.24929 9
-1.01087 -3.26046 2.06347 -0.949926 1.81544 0.0127245 -1.91837 0.984281 -1.01013 2.69721 0.94736 0.410545 -0.694721 4
1.0651 1.59759 -0.53616 -0.327011 -0.226933 3.42653 0.915181 -2.58825 -3.52371 2.67033 2.19173 -1.27099 -0.352566 2
-2.53318 -0.768472 0.951383 4.28884 -0.403128 -0.78389 1.46491 0.627922 0.330419 2.50654 -0.102737 -0.212711 -1.11509 9
-0.0872123 0.024083 0.279854 -1.97279 -0.48207 -3.514 -0.618275 0.287617 -0.799704 1.68936 -2.31069 -0.487004 2.01784 6
0.502242 -0.163371 -1.06446 2.22359 -4.63975 1.69377 0.093384 1.6165 -0.837233 -1.31142 -1.86174 -0.938168 1.13659 8
-2.59366 1.70556 -2.07745 -0.088111 0.0926385 -0.983567 -0.197671 0.639033 -0.842275 -0.97177 -0.35079 -0.0572356 1.32943 8
1.89754 0.474079 4.59847 3.39281 -2.07891 -1.07845 0.984856 -3.25755 0.426741 0.37925 0.253467 -0.957812 -1.39096 0
-3.27558 4.0804 2.81943 1.94476 -2.4069 0.724957 2.20839 0.533036 2.34392 -0.417003 0.167617 0.0447336 -0.525108 1
2.73025 -5.98085 2.82326 0.76801 -1.2463 0.733141 -0.785391 1.34478 0.73074 2.25852 0.127924 3.03722 0.0600984 4
-1.85949 0.627052 3.47893 2.23338 1.95343 0.112885 0.778728 -0.561434 1.54232 0.787736 -0.100497 0.873085 1.23679 5
2.99385 1.39863 4.082 -3.24627 -1.26913 -0.177257 -0.569879 -1.17051 -3.06085 -3.88407 2.21271 -0.794934 -1.56318 2
0.00534446 3.45255 1.0424 -0.156003 -1.25386 1.03972 -1.46197 -4.60675 -1.12452 1.43001 -0.98446 1.82599 0.73998 3
0.623827 -5.14924 -4.0073 0.574791 0.846023 -0.446797 1.17291 -1.43913 -0.174324 -2.95173 -0.778751 -1.29688 0.955271 7
1.45459 2.02111 -4.95903 1.99452 -1.48328 2.16811 -1.83481 -0.738136 -0.091605 2.24853 1.03523 -1.48042 -0.442054 3
3.88427 0.582503 -0.626063 -0.237847 -0.0631943 -2.83456 0.189231 0.905384 -1.65473 0.956415 -2.09143 -3.14058 -0.21849 0
1.92366 -4.46232 -0.264442 -3.22239 0.132886 1.56686 -3.13767 -1.29435 0.0802922 -1.82981 3.26373 0.419909 2.01375 4
-4.0375 0.631727 -0.169366 -0.359521 2.27844 -1.80788 1.29028 1.50322 -1.3727 -0.186809 1.63381 1.12694 1.09444 1
-4.4248 2.65095 0.607683 -0.875408 2.35313 -0.253329 -0.0730572 0.833652 1.15221 0.222162 1.05031 -0.832921 -0.42823 1
0.176505 -3.44082 -4.16146 0.762563 -1.45613 -1.14198 -1.29783 -0.333986 1.07245 -2.18765 -1.20034 0.690287 -0.209472 9
0.319261 1.41807 0.514998 -1.86655 -0.44056 1.56868 1.12922 -3.65147 -2.71029 0.185235 -1.59381 0.191678 -1.09375 2
5.05447 -5.81654 0.333735 -1.69 -0.22273 -0.913148 -2.10345 1.11451 0.608749 -0.489444 2.34655 1.94397 2.16061 4
-4.72955 2.29472 0.938369 -0.361054 1.72154 -0.104242 2.19383 0.621051 0.426998 0.724249 0.570429 0.496085 -1.47794 1
-2.98199 -2.23984 -2.88796 1.36407 -0.784002 0.119237 3.893 0.0424942 -0.010922 -2.57092 0.388456 1.06 0.14445 7
1.02643 2.00583 -0.735684 1.57745 -1.85304 -0.0152237 -2.73674 0.939842 -1.46746 -0.775566 -0.30509 -0.580998 1.09424 8
5.86687 1.61488 -3.6944 -2.25057 2.50253 3.19438 0.103689 -0.143594 -1.17294 1.02452 -0.288141 -0.215883 -0.5326 0
-1.63124 -2.3442 4.00223 1.09434 -2.37639 0.134069 -1.09255 1.04394 0.70723 3.46168 0.800598 0.847214 1.06406 4
2.97337 1.10531 -1.50352 -1.90816 4.22751 2.18249 0.798729 -1.38421 0.365012 0.300241 -0.0765347 0.303566 -0.522801 0
-0.728085 0.943842 0.80404 -0.697036 -2.29884 -0.758625 1.53978 0.995432 -2.64219 0.0483725 0.148313 1.49575 2.66965 8
-0.931347 -2.8437 1.22015 0.678151 2.88591 2.48532 0.889203 0.284006 -1.01551 1.84364 0.825441 -1.65918 -0.135517 7
-2.22125 2.09066 0.713961 1.49302 -3.01647 -0.647111 1.98355 0.953661 -0.45532 -0.85696 -1.4157 0.712578 0.884822 8
-3.60618 2.44773 2.83495 -0.629659 -1.6372 -0.814692 0.155404 -0.155756 1.92675 -0.0457093 1.18791 0.0514649 -0.0648068 6
-0.645675 0.727559 -0.708608 1.44816 -1.75471 1.43195 0.130496 0.305452 -0.609931 0.495557 -0.0779483 1.37932 -0.203363 8
-2.10194 3.26666 1.00041 -3.87409 -0.443637 0.37093 2.86019 -0.342463 0.240173 -0.650124 -0.021413 -0.612241 -0.259558 2
0.849246 2.61695 -3.04237 -0.0151417 0.565659 -2.82975 0.190886 -0.253283 1.65636 2.75289 1.34113 -0.843936 -0.428693 3
0.678982 0.72521 4.38035 -4.76366 -2.70804 2.45305 -1.73964 -1.92863 -1.22147 -0.594054 -0.117997 -0.152212 -0.960459 2
-3.04936 3.32835 2.34839 -0.830404 -1.34854 3.88708 -2.54761 -0.0549099 1.24033 -0.51769 -2.516 -0.469642 1.24679 1
0.874191 -0.119026 0.32345 2.6025 -2.0493 0.524538 -4.21363 2.02002 -0.850947 -1.03967 0.669637 0.114726 0.494062 8
-2.2119 1.96823 3.13539 -0.150033 0.765967 -1.20071 -0.444333 -0.495397 0.855377 -0.698374 0.8384 0.27399 -0.760679 6
1.45846 -3.79077 -0.23666 -3.97228 0.726641 1.80805 -2.68561 -1.44758 -0.164196 -1.73905 2.7003 -0.0845917 1.06993 4
0.84738 -4.13343 1.49761 4.25971 -2.56409 0.38321 1.68115 0.926026 -0.324021 1.99001 0.767022 0.578768 -1.1366 9
-1.15061 0.915476 -4.18269 -1.47966 -0.961232 0.853802 1.22562 -0.150264 1.49618 1.369 0.194239 -0.371614 0.0369333 8
-1.77531 -2.75261 -2.03308 -0.787094 -0.797963 0.337465 -2.19795 -1.93029 0.0962229 -1.29878 -0.178452 2.35284 -1.14086 4
-0.685235 0.753161 1.88733 3.52938 -2.20362 1.89943 -0.381168 1.9864 -1.85747 -0.542523 0.364245 0.388864 1.98082 8
-3.85037 2.72356 1.09345 -0.578831 0.174437 3.25409 -2.42108 0.175006 1.56285 -0.385022 -2.10991 -0.670907 1.23983 1
1.11911 2.57699 -5.07044 1.66948 -1.38407 0.296365 -2.26307 -0.915899 0.289263 2.19351 0.356115 -0.824414 -0.480782 3
-2.52198 -1.88839 0.559604 -1.91258 0.6658 0.874163 2.92034 0.107836 0.833206 -0.479262 -0.417076 -0.781662 0.332736 2
0.900158 2.97058 2.88123 -2.9953 -3.6957 3.53323 0.504416 -1.76966 -2.41187 -1.69131 -1.42512 1.05249 -0.102042 2
-0.220681 2.06663 -2.69504 1.13587 0.818645 -0.709807 -2.17022 -1.09688 -1.51171 0.554141 -0.470484 -1.3686 -0.0959579 3
3.6548 -1.87331 -1.64899 2.22982 1.69591 -1.08716 0.169183 -0.482911 -0.594803 -0.319848 -1.63938 -2.7189 -0.30809 0
-2.74671 0.586299 -0.13468 0.558899 -1.41732 0.405713 1.30853 1.11566 -1.10727 0.466268 -0.00460129 -0.0911236 1.08669 8
-0.499426 -2.43838 1.44976 2.06517 2.7426 0.2828 -0.051583 0.31812 -1.87916 1.72523 0.39893 -1.64786 -1.35393 7
-3.53981 2.2797 0.495114 -1.81321 0.886129 1.83489 -3.21677 0.0576472 0.38786 -1.13003 -1.86192 -0.0672885 1.23469 1
0.875341 0.289413 1.31624 -0.941422 -2.62177 2.78501 -0.0971455 0.800506 -0.652968 -1.02123 -1.75681 -1.08156 -2.22539 2
0.888864 -5.11357 -2.80985 1.55995 -2.74851 0.364876 -0.094781 -0.0801646 -0.151048 -1.39208 0.0634754 1.87147 -0.468544 9
7.90175 1.72025 3.43061 3.20605 3.89948 -0.910312 0.472545 0.191556 2.76621 -1.45742 -0.990626 1.18357 -1.03538 0
2.07414 4.09843 -4.21222 1.5463 -1.74918 0.123107 -1.73066 -1.5716 -0.123845 2.32899 -0.0435534 0.673089 -1.41544 3
1.35236 -0.173938 0.0615503 -3.88782 -1.45566 -2.62231 0.343368 2.61852 -1.48269 1.923 -1.87435 -1.33007 0.390633 6
-4.19452 2.10239 0.81687 0.771518 0.261146 -2.03839 3.45685 1.61873 -0.067439 -0.658388 2.00333 1.44538 0.153242 1
0.94184 4.31772 -0.172939 1.14072 0.372112 -2.512 1.47597 -3.66954 1.40147 1.77336 -0.365752 1.29911 0.311885 3
-1.07094 2.14474 2.07186 1.04751 -1.57932 1.27009 -2.02024 -1.36039 -2.3656 -0.572609 0.560357 1.96879 -0.169804 3
1.92829 3.45899 -6.09314 2.83265 -3.8182 1.22393 0.224719 -2.51371 0.496569 0.446465 1.41172 -0.267902 -1.25937 3
-0.214294 -2.99521 -2.81638 -1.20837 2.24348 0.244655 -0.569091 -3.45441 0.825703 -0.148012 -0.487925 -3.89814 1.71079 7
-1.61319 1.37508 -3.18041 -1.28295 0.344541 -0.625018 -0.805652 -0.733199 0.355878 -0.0178805 -0.124622 -0.243046 1.29221 8
1.62367 -5.0124 -2.64402 2.29519 -3.03145 -0.208338 -0.294425 0.0971139 -0.358001 -1.49623 -0.343696 1.05598 -0.267597 9
-4.66146 3.14413 0.76496 -0.359278 1.48263 0.974074 0.501118 1.18156 1.72056 0.392355 0.36187 -1.22185 -0.985435 1
-2.30222 -2.26895 1.24029 1.74155 0.865009 3.57866 2.15318 -0.541307 -0.686348 1.91164 -0.511034 -2.43987 -0.43182 7
-0.140127 -2.90277 -3.25327 -3.85468 -1.31757 1.18295 -0.443241 -0.965447 2.83679 -0.263138 1.7516 -1.02616 -0.302832 9
0.630581 0.0989199 3.1301 2.71581 -0.189434 1.37009 -1.95782 -2.67685 -0.249016 -1.15795 1.86657 0.989884 -0.329207 3
-4.36579 3.68318 1.53429 -0.320097 0.16573 -0.957452 2.4584 1.47515 1.55907 0.188331 1.39136 0.0908798 0.150364 1
2.29989 1.50979 4.5052 -2.51694 -2.11764 2.66185 -0.440203 -1.75045 -3.10866 -2.31649 1.11821 -1.31552 -0.359906 2
0.145859 -4.6515 3.30006 -2.90782 0.197332 2.5233 -2.28648 -0.206575 -0.233594 0.0930576 1.66915 1.52293 0.233653 4
0.885945 -5.16398 0.435973 -0.970272 -2.93932 1.90466 -3.95755 -0.170131 1.3824 -1.78161 -0.1383 3.06323 0.226857 4
0.25138 1.34951 -5.01195 1.82233 -0.648536 -2.49033 2.4014 -1.56111 0.406832 -0.864961 1.30082 -0.799849 0.721155 3
-1.55735 0.347972 0.269488 3.57713 -2.4269 1.06427 0.975768 3.23582 2.26525 -1.2737 -1.54617 0.385395 0.498884 8
1.6764 0.727935 -0.957608 -2.93687 1.90313 -0.0658933 0.478256 0.731924 3.26063 1.53154 -0.640998 1.10953 2.06623 6
2.71326 1.55925 3.27046 -3.48036 0.666402 1.94584 0.890002 -2.14419 -3.51221 -0.207156 1.89613 1.18142 1.72323 2
-1.50701 1.61647 1.78282 -1.37179 1.66653 -3.11912 0.344077 -0.901998 -0.559716 -1.05597 -0.0445033 -0.912288 0.564117 6
-0.96732 2.36882 -4.8005 1.22096 0.182987 -1.56833 -0.564918 -1.19197 0.0258144 0.267319 0.392562 -0.314216 -0.595525 3
-1.17658 2.16368 -3.06184 0.662531 0.451542 -0.882075 -1.2473 -1.82147 -0.520091 1.2341 -0.893801 -0.235867 -0.319288 3
-2.12722 -1.20278 1.27981 2.13144 2.57276 -0.206842 0.339897 1.09776 -0.00745777 1.60377 -0.501966 -0.0254312 1.05882 5
-2.02008 -2.70145 -2.14463 0.0461283 -1.29208 -0.10624 -0.76109 1.31633 -0.608846 -2.30085 -2.14046 1.0007 -1.16629 9
8.86139 0.21546 0.171641 0.582017 0.0969566 0.519422 1.21766 0.636549 0.249038 -0.0580349 -1.90778 -0.902818 -0.419186 0
-1.89785 -3.99983 -2.29741 0.478073 1.84307 -0.0816254 0.639322 -2.54104 -0.0150512 -2.37251 -1.95842 -0.991307 1.40896 7
0.771896 5.36106 -2.00042 -0.617453 -3.50332 2.41141 0.212775 0.46745 -0.101903 0.424021 -0.750174 1.04383 0.391441 2
-2.5458 -3.2894 -0.87522 1.52438 1.39893 1.97317 2.09349 -1.76795 -0.207589 0.49921 -1.57887 1.34375 0.610543 7
-4.21122 2.09382 0.438965 -0.26213 1.8129 -1.7736 2.30815 1.71837 -0.684835 0.320228 2.07132 0.851911 0.388133 1
-1.61494 2.74922 1.72477 1.41802 -1.37304 1.49759 -0.0356846 -0.115891 -1.73044 -0.346098 -0.0444629 1.95913 -0.34239 8
0.52237 -3.32299 -3.7821 -1.02466 -1.22388 0.682471 -1.7148 -1.21978 1.7457 -1.02383 -0.125083 -0.300768 0.0936248 9
0.253601 -0.718447 -0.151746 -3.65298 -1.34909 -2.88503 -0.834612 2.07347 -1.42598 0.996116 -1.02415 -0.623348 0.55897 6
-0.87143 0.0547262 -0.898578 2.05748 1.53814 -2.09472 -2.23402 0.154316 -0.760271 -0.907576 -0.959674 -1.00941 -0.118167 5
6.10067 1.93886 1.76603 2.3346 4.53632 -2.43907 -1.80711 1.14947 -0.491363 -1.02713 -0.0873885 0.35093 -0.796152 0
1.06835 -0.0874646 -2.53496 -4.47857 -0.588175 -1.02483 -1.22439 1.4661 -0.17613 2.04394 -0.250297 1.11545 -0.132962 6
0.0725169 0.359292 0.345862 -0.766443 -1.86987 -5.13935 -0.496579 -0.290845 -1.22255 0.310685 -0.816277 -0.166289 1.49166 6
0.894431 -2.30687 1.64872 1.54404 -0.24417 2.36041 4.77876 -2.53049 -0.105795 1.4464 1.07088 -3.01456 0.752794 7
3.93024 0.556789 3.18724 -0.699929 3.01083 -2.04905 0.73384 0.162864 -1.96908 -0.577178 -1.06261 0.149272 -0.607459 0
-2.92481 1.48395 2.5558 2.9511 1.9738 0.0919982 1.01373 0.637631 1.40006 0.132944 1.80737 -0.673687 0.327972 5
-0.0545435 -4.29132 -2.50035 0.908617 0.757803 -1.41617 -0.114188 -1.26101 1.01262 -1.49441 -1.55142 0.536196 0.791295 9
-4.6805 2.64798 0.264512 -0.823568 1.79159 0.882749 0.0944629 0.982745 1.48254 0.150962 -0.180726 -1.29695 -0.713981 1
-3.34612 -2.19779 -0.595156 -0.201304 2.1043 1.24834 1.40985 -1.46634 -1.64493 1.32872 0.00504806 -0.521032 -0.859032 7
0.403592 -3.13613 3.60555 -1.13049 0.496989 0.0873026 -0.667408 0.640043 -0.043019 2.32135 1.21435 -0.728384 -0.167491 4
3.30427 3.76631 0.30968 1.69067 -2.18301 1.6788 -1.32335 -3.35816 -3.03614 1.14251 0.670948 2.57223 0.784755 3
2.49173 2.42758 -4.6745 -1.36819 1.23126 -0.571268 0.987849 0.0214582 -0.0541925 3.9286 -1.39607 -0.230339 1.98049 5
0.475815 0.234514 -2.78402 -1.29491 -2.58626 1.50215 -0.142475 0.456177 2.33829 0.728194 1.88676 0.319401 0.621561 8
2.81362 -1.89133 1.87975 -2.63531 -0.0124895 -3.09281 1.59664 1.15031 -1.8283 2.07401 -1.44766 0.0961171 -0.523612 6
-0.604701 -3.54328 -0.701581 -4.3455 -1.59779 1.75221 -1.65616 -2.21865 2.99089 0.726191 1.55915 -0.184326 -1.62709 4
0.578354 -2.05923 1.44248 3.44098 1.01737 -0.387608 -0.604404 0.53982 1.48544 -0.280473 -1.13707 2.69188 1.0822 5
2.27801 -0.659881 0.824636 -6.57534 -0.322783 2.31241 2.31906 0.194117 1.17848 -0.151131 0.609884 2.97957 2.04865 6
-4.18881 1.04937 -0.449202 -0.611232 2.31291 -1.7222 1.36805 0.64663 -1.61498 -0.832687 1.34961 1.81462 0.0424382 1
1.31926 -2.74769 -0.572332 -4.30015 0.320973 2.66509 -2.40772 -2.53647 0.90948 0.0923728 1.61004 -1.85582 -0.519345 4
-2.10202 -1.95611 0.925903 0.07088 1.00779 3.3444 1.57475 -1.08942 -1.3313 1.83468 0.680811 -2.73743 -0.143561 7
7.50347 -0.226239 -1.36782 0.475102 4.95066 2.59081 -1.06935 3.2798 0.483552 -1.34693 0.659562 0.0715155 -0.228582 0
-3.52704 -1.01585 -0.338815 1.01597 0.805536 -0.860009 -0.177136 1.03203 -1.35185 1.1396 -0.61913 0.623556 -0.765852 9
-2.37294 -1.90046 0.304645 3.71622 -1.4224 -1.55413 1.42746 0.498777 0.877448 1.68775 -1.21115 0.890468 -1.65839 9
-4.36104 2.63171 -0.0486795 -1.48202 2.28156 0.496207 -0.910257 0.590628 0.985456 -0.107285 -0.376627 -1.17338 -0.103151 1
-2.53696 0.403791 0.69395 -0.975373 1.97581 1.61868 -2.50875 1.00622 -1.89247 -0.503445 -0.369111 -1.43087 1.16685 7
1.67321 -0.993619 0.262731 4.01669 1.22216 0.797252 -0.881308 -0.999277 -0.061548 -0.0869445 -1.06971 0.108838 -1.42729 9
-0.405616 -2.87915 2.15832 2.47271 2.16529 2.74077 2.17375 -2.09086 -0.806789 1.3989 1.16422 -1.90226 0.700101 7
-1.87126 -2.84481 -1.97329 0.076804 -2.12692 -0.901005 -0.815624 1.58995 -0.822322 -2.07344 -1.65065 0.610881 -0.792377 9
0.153357 1.46177 -1.11337 1.98311 -1.55661 0.073827 -2.19671 -1.14485 -2.36166 1.20229 1.17884 1.45705 -0.897927 3
0.186966 -3.48571 2.32112 4.69862 -1.68016 0.827056 1.33236 1.30386 -0.0868497 2.89056 0.813573 0.396309 -0.643061 9
-1.64813 -2.2015 3.12911 0.00906583 -0.0967297 0.0573203 -2.06163 1.51134 0.388767 3.50359 0.232122 1.60385 -0.350859 4
1.42147 2.00727 2.19507 2.02502 -2.05411 -0.818381 -0.919932 2.05456 -2.64293 -0.47687 2.3859 1.46215 1.5723 8
5.89188 1.40022 -2.05497 1.21643 1.99735 0.242151 -1.15961 1.22987 -1.05517 0.40975 -0.0719496 -1.11035 -1.81652 0
1.26391 4.42103 -2.08734 1.19958 -0.105733 -1.24047 -0.555826 -2.48801 -0.675638 -0.0868699 -1.95183 -0.707179 -0.349332 3
1.5799 1.89634 -1.07484 2.48726 1.36921 -2.48968 -1.45017 -1.02305 -1.08587 -0.431635 -1.06649 -2.24518 0.097742 5
-4.11711 0.478296 0.231138 0.880809 2.26736 1.57319 1.56693 0.933285 1.09598 0.5036 -0.631251 -1.09972 -1.22218 7
-1.27699 -0.817414 1.0321 2.25952 -1.56927 2.75199 0.424747 3.65898 -0.626423 1.34629 -0.833587 -0.324139 0.0353393 8
9.06369 0.568775 1.19341 3.79958 3.62705 -0.599462 1.17182 0.380024 3.62014 -1.68152 -0.414586 1.94706 -0.109213 0
3.56796 2.29837 -1.17951 1.86104 -4.72912 -1.59181 1.68243 -0.27356 2.53203 -0.672171 -1.2577 0.35878 -0.65136 8
-1.51142 -1.55538 -0.151853 -0.495902 -3.1132 -3.12904 0.0999643 -0.223815 0.447748 -1.88403 -1.19534 -0.388784 0.525924 4
-1.643 -3.68379 -1.14167 -1.47708 -0.444998 0.863533 -1.44734 0.437808 -0.071197 -0.778742 -1.38942 2.19264 -1.35905 4
-2.00048 1.95135 1.56286 0.281555 -0.284126 -1.46272 -1.37993 -1.85735 0.977062 0.0473199 0.639805 0.684833 -0.576306 6
3.13027 -0.731542 2.30399 -1.25457 5.42182 1.0109 -0.400261 1.21581 0.703419 -1.9479 -1.60562 1.2221 -0.0812675 0
-1.3229 -2.71676 -2.92093 0.0921508 -1.86617 -2.03623 -1.66941 0.169549 2.13334 -1.81399 -1.39992 -0.653015 -0.108133 9
-2.2042 -0.927406 1.67002 0.565976 0.992724 0.912993 -1.16006 -0.25573 0.209417 2.34393 -0.619325 -1.68566 0.668036 9
3.91095 -2.56852 0.41746 -5.76593 2.38649 1.96082 1.66341 -2.74045 0.407328 0.119746 1.61349 1.8013 1.458 6
-1.27563 0.543481 0.818643 3.07484 -2.52611 2.05994 -1.00175 2.53045 -1.34062 -0.844345 -0.661994 0.162834 2.26145 8
-4.39991 0.96441 -0.409911 -0.618542 2.09024 -1.58064 1.51208 0.870778 -0.67742 -1.25687 1.54208 1.22814 -0.0399965 1
1.04544 -4.46232 -3.67124 0.191083 1.49573 0.985572 0.228246 -2.81113 0.373496 -2.59531 -0.762228 -2.59448 1.67526 7
-2.4102 -2.40774 1.30584 1.63787 -1.53495 1.69042 0.129799 2.41026 -0.322717 2.14228 -0.320576 -0.0525234 -1.20783 9
-1.35749 -1.29023 2.51915 1.71454 3.01508 -0.492128 -0.00606329 1.04121 1.42785 1.91676 -0.445215 -0.948628 0.295137 5
-0.52931 -1.84 1.23021 -3.18951 0.34846 -2.49725 0.00573426 -0.38424 -2.31607 1.18244 -0.940682 -0.805091 0.0943889 6
5.56304 1.687 3.18942 -0.887688 -2.58311 -4.34265 0.213487 1.92726 2.34948 0.050316 -0.845072 -0.169867 -0.774043 6
1.8975 4.48273 -2.23785 1.00534 -1.27619 2.00948 -1.39835 -3.12319 -1.59639 0.1372 -0.911568 1.79673 -0.153953 3
5.93371 1.32039 1.94801 3.14692 3.35602 -0.935093 -2.69318 2.43641 1.17596 -0.713923 -0.116624 0.172215 -1.3845 0
4.67349 -0.233473 -0.478161 1.94668 3.83469 4.46623 0.39679 1.7367 1.1928 -1.56311 -2.23713 0.346294 -0.811843 0
-4.33887 3.00427 1.59623 0.842462 -1.28027 0.765628 2.88728 0.401208 1.53658 -0.462652 -0.387556 1.04899 -1.32968 1
6.53574 -1.12134 6.12117 1.72571 -0.37253 0.910064 1.38997 -2.22927 4.66228 0.058368 -0.698801 0.924771 0.400521 0
8.70615 1.29255 0.171755 -0.673583 1.83188 0.388531 1.1988 2.32121 -0.887629 0.544004 -2.64221 0.358957 -0.919837 0
3.78054 -2.77834 -0.667571 -1.44122 -3.30743 -1.58089 -0.797745 0.682548 1.57605 -2.66785 -1.75297 -0.171511 -2.3122 4
0.302954 -3.05332 2.0144 0.972188 -1.47227 0.0544248 0.477388 1.19524 -0.836674 2.42426 2.1829 -1.17675 -1.46567 4
-2.2076 2.16954 3.78475 -0.160179 -0.63401 2.13633 -0.979478 -0.0463043 2.32695 1.17111 0.0258046 2.66142 2.1863 5
-2.21864 0.90555 0.389212 1.60022 -0.269784 0.331924 0.384976 2.09026 -2.67602 0.258355 -0.335454 0.228038 0.407061 8
-1.17047 3.99255 0.277557 -1.57241 -0.593897 1.78552 -0.581049 -0.533567 -1.23579 -0.45206 -3.5385 0.423066 0.50092 2
4.65109 1.64585 -0.173234 -1.02165 4.53823 2.15232 1.21323 1.21614 -0.841365 -2.29191 0.0493265 0.903441 0.749145 0
-2.03698 2.39961 -0.20357 3.01232 0.217165 0.0647448 1.05401 -2.09685 -1.35405 0.493771 -0.389606 0.972786 -1.66298 3
-1.44887 -2.2074 0.98392 -0.800494 1.56459 -0.266342 -1.10177 0.906913 0.804405 -1.01255 -0.9078 1.4107 1.62026 5
-4.26909 3.97518 1.80398 -0.192184 0.218759 1.29836 1.23686 0.441134 2.13136 0.0471535 -0.791144 -0.303816 -0.497611 1
3.11274 -1.70347 0.288323 -6.12783 -3.0678 0.671141 3.093 1.25099 0.0616052 1.464 -1.24642 3.24937 1.27592 6
2.3287 -0.288741 0.431797 -4.39702 -2.15268 -2.0766 1.24056 1.10006 1.0595 1.87329 -2.31276 1.70678 2.51053 6
-4.63808 1.12511 -0.0667213 0.0778023 2.24707 -0.918976 1.89802 1.22995 -0.615514 0.444726 1.61194 0.980634 -0.651732 1
0.521054 2.24091 4.77804 -0.436986 -2.66155 1.16227 -0.769453 -3.64831 -0.552496 -1.1947 0.0697217 1.34931 0.364782 3
-2.7398 -2.67936 -0.257274 1.71347 1.00365 2.41226 2.76653 -0.587965 -0.755434 0.97376 -1.0445 -1.36751 -1.6458 7
0.85914 -2.86231 -0.602094 -4.48534 0.558301 1.89334 -0.69674 -1.33453 -0.244932 1.1819 -0.213254 -1.40191 -0.0721466 4
4.20597 -5.51483 3.03903 -0.696377 -1.20105 -0.649978 0.457844 2.99915 0.865558 1.46211 2.58966 2.65785 1.09819 4
-3.72886 -0.00324383 1.87833 1.43343 -0.188307 0.0528575 0.233351 1.4724 0.913182 1.4896 0.268859 -1.75364 -0.958839 9
-0.408374 -4.68279 0.860419 1.39705 -0.49268 -0.872569 -1.3289 0.897688 -0.100478 -1.41352 0.976387 1.21555 -1.17755 9
3.21538 0.927545 -2.82117 -2.40105 2.16351 1.80537 -0.697453 0.857184 -1.24414 1.71532 -2.01526 -0.461022 -1.02104 0
0.260644 -1.81572 -2.39985 -2.75666 -2.35108 0.71094 -1.44982 -1.50017 1.21148 -1.58516 1.14336 -1.39685 -2.67389 7
-1.56372 2.36971 -0.312968 2.08644 0.85658 -0.310553 0.489096 -1.02606 -0.37641 -0.626674 -0.541289 1.16534 -0.309158 3
-0.829773 2.1765 -2.25084 1.45401 0.970169 -3.19239 -0.289032 -2.01358 -0.589275 0.668267 -0.0708349 0.59149 -0.131414 3
4.90978 1.45017 -1.92525 3.59928 2.17336 -0.812216 -0.429939 0.134353 1.25118 0.359593 -0.75608 -2.18154 -0.0975748 5
2.31899 -0.272305 -2.64331 0.0549665 3.09734 1.00464 -0.415447 0.523281 2.27455 1.18079 0.869886 -1.64107 -1.06171 5
-1.88715 -3.65826 -0.237368 1.62983 1.50379 1.05926 2.36566 -1.06564 -1.93215 1.44544 -0.733739 -0.4241 0.120563 7
-3.47318 -0.358586 1.49401 1.20594 1.7622 1.70368 0.525446 0.0233454 0.000327425 1.34557 -1.016 -2.13646 -1.49575 7
0.986711 1.31445 -0.605847 0.73428 -0.464426 -1.32433 -2.56982 -0.725607 -1.26705 1.11624 -0.543755 0.147937 1.12119 8
8.22733 -0.509125 2.92946 -0.0011364 2.82384 -0.810525 3.3208 0.827206 3.69033 -1.71071 -1.37439 1.203 -0.0731713 0
-3.01277 1.81554 1.83045 -1.01913 -0.296032 3.61336 -3.57827 0.147119 0.150331 -0.39251 -1.15779 0.376734 2.94809 1
7.9303 1.93324 -0.945686 -0.50739 3.33546 1.69577 0.729865 1.15747 -1.48608 -1.0074 -0.498084 1.62809 -0.761812 0
1.04052 4.58573 -3.18304 0.728982 0.0420177 -0.680685 -1.10275 -2.99126 -0.578298 2.43838 -1.5171 0.977373 0.181009 3
-3.65209 -0.0157394 -0.945201 -1.186 2.68293 -1.63707 -0.176781 0.100478 -1.84065 -1.18681 0.508087 0.785181 0.96832 1
-0.482657 -3.80376 -3.11263 0.721494 -0.947543 1.58276 1.69641 -2.5429 -1.81142 -2.64139 0.0962568 -0.851417 -0.461175 7
0.161558 -0.785062 -0.60808 -6.024 2.16185 0.926316 -0.0348529 0.160003 -0.429063 -0.213082 0.315969 -0.0109111 0.618444 6
-1.88106 -1.41984 2.20113 0.746195 -1.82075 2.42164 2.39049 -0.186318 1.61483 -0.828026 -0.985952 -1.00565 -0.360521 7
4.3651 0.14127 1.11903 -0.128852 0.767628 -2.20343 -0.567424 1.01694 -1.85147 1.41117 -1.95079 -1.88346 1.08931 0
-1.25661 -1.77989 -1.91135 -1.36671 3.77271 -1.14283 -1.53508 -2.0482 -0.487659 -0.654104 -0.614205 -1.32544 2.07119 7
0.319295 0.344942 -0.946578 -0.641065 1.30164 -1.43591 -1.83632 -1.18759 -2.52199 0.928775 -2.03646 -1.62501 0.102418 0
-1.65987 2.25985 2.14813 2.77768 2.54152 0.0362644 -2.20324 -0.958873 0.532386 -0.527095 1.21556 0.344761 -0.76677 5
-1.4956 2.02746 -1.16308 0.418067 0.0225653 -1.46629 -0.667392 -1.60021 -0.738169 -1.37978 -0.68022 -0.0391554 1.25644 8
5.32614 1.25865 -0.257651 -1.42145 2.4397 0.156347 1.80556 2.00995 -1.05049 -0.22148 -3.18365 -0.118827 -1.54948 0
-1.45728 1.74486 -1.94991 -1.20132 -2.28393 1.10773 -0.605214 0.546284 -0.527845 0.67688 -0.664798 -0.307293 0.445829 8
-2.54958 -0.695282 0.271116 -3.14061 0.721174 -0.578344 0.467805 0.673662 0.582813 -0.591359 1.33478 -0.894231 2.32883 2
-2.96667 0.448629 -1.43288 -1.51345 2.33466 -1.54442 -0.938143 0.891252 -2.15936 -0.54959 0.471176 -0.00019731 1.33222 1
-3.43517 3.00029 1.02955 -1.34724 0.202233 2.62988 -3.02693 -0.180684 1.26038 -1.27197 -2.26823 -0.124392 1.46862 1
-0.615939 2.02673 3.00821 -2.4521 -1.47102 2.31364 -0.691063 -0.61676 -2.80754 -1.70233 -2.34809 -0.214967 0.498477 2
-4.44393 0.851745 0.689245 -0.0278543 -0.27299 1.44584 -1.05548 -1.18407 2.01978 1.37922 0.00446975 -0.230451 0.565279 4
-0.863763 -1.26361 1.48575 -2.85391 0.280895 2.10276 0.282435 -0.043044 -0.508104 -1.30291 0.457797 -1.56349 0.874976 2
0.519163 -1.15661 -0.970306 -5.79583 -0.0794518 0.0153215 0.426796 1.60049 0.564309 1.62818 0.134576 1.45917 0.222991 6
3.08226 0.712603 0.211822 -1.43304 -3.18203 3.28553 4.64801 -3.53109 -1.22707 -0.368425 -0.332623 -0.818529 -0.803499 2
-0.895156 -0.861561 -2.26843 -3.09161 0.769465 1.67474 0.358573 -1.15534 0.617398 -0.777859 1.42758 -2.75481 -1.86749 9
-1.54646 -0.404459 1.75991 0.42254 -2.25105 3.61618 0.704756 -0.551378 1.43542 1.62519 0.657079 -1.91703 1.27722 7
-3.3952 -1.63432 0.614059 1.2814 0.743907 0.127813 -0.439218 0.0638441 -0.132453 1.90552 -1.02861 0.0573112 -1.3785 9
3.83747 1.84375 -2.89214 -1.55697 5.16892 3.85416 -0.877633 1.81463 -0.494423 -0.2774 1.70166 1.37775 0.290975 0
0.530114 2.11301 -0.345222 1.42444 -0.925626 0.598015 -3.53803 -0.121471 -0.578184 2.83894 1.44005 1.52342 1.30936 3
-4.67892 1.82157 -0.103772 0.652405 1.38047 -1.62591 2.39007 1.41085 0.460839 -0.874759 2.10665 1.34985 -0.260331 1
-0.375419 0.944734 -3.26257 1.06038 0.463902 -0.0119741 -1.95457 1.55288 -2.34916 -0.966588 0.892188 -1.06367 -0.0774409 5
-4.43156 2.5565 -0.00390534 -1.16356 2.59743 0.497477 -0.855305 0.44715 1.185 -0.00141899 -0.106775 -1.23351 -0.260623 1
-1.82872 0.936679 -3.41269 -2.14594 -0.0235261 -1.22134 -0.271539 -0.446586 0.561565 0.846873 0.747285 0.82856 1.51203 8
1.16446 0.0912377 0.20868 -0.783315 5.57817 1.16483 0.361082 0.177992 0.874549 -1.71178 -1.53883 0.84307 0.666994 0
-2.02772 0.163163 1.05543 2.13083 1.0923 0.853881 0.206119 0.530453 1.56444 0.442599 0.707819 0.161393 1.15332 8
-0.656769 -2.20496 -2.70968 -1.10294 2.05367 -1.09319 -1.76827 -1.66577 1.00818 -0.159176 -0.882198 -1.54759 0.351705 9
10.654 0.595199 2.85383 1.63825 1.22576 -0.410887 0.797446 0.86614 1.67553 -0.600295 0.21919 0.361329 -0.49978 0
-2.22834 0.891409 -0.168461 -0.903023 -0.683207 -3.409 -0.130055 0.460997 -1.44363 -1.14579 1.02637 0.0467135 1.8454 6
-2.28646 0.238515 1.03247 -0.0135758 -1.29027 -0.951751 0.409503 -2.09627 0.729016 -2.72072 -0.292092 0.403522 -1.24819 4
-0.394638 -0.434756 -1.21498 0.656258 -2.08794 1.61256 -0.725687 1.73842 -2.1097 0.0711878 0.846136 -2.03171 0.844573 8
0.37894 -2.8239 0.126078 0.591744 4.37764 0.0125088 1.25855 -1.30332 0.306748 -0.821459 -0.194898 -0.246337 0.536796 9
-1.50846 1.81609 -1.6566 1.99235 -2.27287 -0.715734 0.450911 1.63928 0.458881 -3.16704 -0.934321 -1.2324 1.61534 8
1.93383 -0.161859 -2.52862 1.59684 -2.2246 2.27421 -1.14809 0.386407 -1.84433 -0.176681 0.847791 -1.13582 1.06882 3
-1.39957 -2.12761 1.05689 -0.10875 2.34623 2.32 1.29371 -1.1671 -0.280886 2.21862 0.51266 -2.16733 2.17692 7
1.96903 3.46606 -4.07534 0.415309 -1.82819 -2.19951 1.92496 -0.770784 3.5959 2.837 -0.00968511 1.4226 -1.25989 3
-0.331556 2.41864 2.31821 -3.91221 -3.62077 2.75816 1.10139 -2.13696 0.375384 -1.27457 -0.804339 -0.374943 -1.93971 2
0.298197 1.02741 -0.507737 2.32595 -0.136474 -2.84311 -1.72297 -0.273852 -3.37862 0.511382 -0.457536 0.581423 0.11516 5
-4.44221 1.00138 -0.389354 -0.832172 2.80608 -1.44395 1.01379 0.812061 -1.00954 -0.499251 1.29895 1.29646 0.125008 1
0.382082 0.405384 1.07456 -1.85753 0.042516 -4.42539 -0.824758 0.124895 -0.737961 1.78932 -1.02401 -0.987306 0.68273 6
-0.127339 -3.63328 -0.613942 0.695996 1.37229 -1.09876 -1.50082 -1.43976 -1.12948 -1.15438 -1.65919 -1.46463 -0.527814 7
0.0449107 -5.07907 -1.02404 0.350042 -4.23877 -0.350758 0.871226 0.717253 0.37536 -2.8574 -1.07629 -0.0284419 -1.12966 9
-2.04014 -0.60457 -1.76785 -1.49358 -0.431122 1.31272 4.84797 0.118995 0.652136 -0.575989 -0.0932908 -0.0800176 0.663255 2
-0.910693 -0.761462 -0.412653 -2.28959 0.843768 -1.82775 2.43753 0.122788 2.03086 -1.53763 1.32279 -0.87279 2.61025 2
-1.97152 -2.24356 0.779678 0.952555 1.30356 3.4141 1.45099 -0.582753 -1.45662 1.61369 0.852532 -2.33562 -0.535928 7
-3.83493 -0.886024 -1.38425 1.19225 0.869779 -0.759663 1.36757 0.818365 -0.221391 -0.042688 -1.24923 1.18627 0.0581861 9
-0.996125 -3.35637 -1.38286 -0.659961 -1.21937 -2.64273 -2.373 -0.243403 2.66147 0.122488 -1.00874 -0.720609 1.36168 9
-1.30645 -2.22078 1.38258 -2.49567 0.0526669 2.75671 -2.179 1.26408 -0.349675 -0.407915 -0.557898 0.170837 2.27185 4
-4.24228 1.38051 -0.566279 -1.56802 2.82419 -1.10914 -0.298162 0.983996 -1.54187 0.516654 1.16742 0.982345 0.714935 1
0.199295 -2.25966 -1.66996 -1.02611 1.62389 -0.401814 -1.86831 0.680605 1.743 -0.196475 -0.148681 1.51069 1.03683 5
4.59223 1.09701 -1.15923 -0.671371 -0.0286481 -1.89154 -0.00581658 0.994996 -1.04149 2.05127 -2.6894 -2.6361 -1.0278 0
-1.12095 2.63453 1.44127 2.80021 -2.61227 2.44579 1.39672 -1.84404 -1.03406 1.02518 -0.505802 0.278992 -1.41834 3
0.266116 2.69686 -0.692975 -1.67218 2.68808 -1.20263 0.0423034 -1.78005 -1.96274 0.758111 -1.13242 -0.34428 -0.0537131 5
-4.14558 1.38326 -0.0832885 -0.264216 1.31415 -1.99371 2.36637 1.61685 -1.06329 -0.211818 1.69067 1.66549 1.19001 1
-4.7808 3.08648 0.468226 -0.446204 1.10113 1.45519 -0.0394818 0.544865 2.36114 0.278006 -0.83501 -0.809468 -0.672696 1
-1.07833 -1.66889 -0.249936 -4.12911 0.0521785 0.748004 -1.73416 -2.01897 0.702179 -0.601449 1.01866 -1.87974 -2.01634 4
0.533535 2.73454 3.37446 -0.44118 -0.990502 -1.1645 1.53091 -2.49095 0.0981021 -1.71508 -3.67839 0.225212 1.09388 3
-2.05056 1.05678 -0.0926547 -0.921958 -0.0756811 0.532744 -2.85819 2.13466 2.71676 1.08598 -3.00571 -0.00792469 0.384244 4
-1.7714 1.37935 2.16579 -0.928116 0.165457 -2.56836 0.136649 -1.9247 0.959576 -0.503868 0.952755 -1.12495 -0.286832 6
6.65851 -0.561474 2.56922 2.64905 3.5532 1.34608 -1.85084 -0.285809 -1.72949 -0.333257 -0.627038 1.03459 0.263407 0
-0.841102 0.170005 -3.49623 1.03364 -0.857024 2.02128 -2.04744 0.200917 -2.65109 -0.854696 0.931263 -0.317559 0.439173 3
2.14501 2.82262 -2.22999 1.95638 -1.83808 0.323592 -2.28167 1.3271 -0.628178 -0.0223148 2.9757 -2.28054 0.504547 5
1.2696 2.23782 0.118537 3.95531 -0.425554 -1.85074 1.14275 1.2078 -1.37124 -2.18447 0.196864 -0.699011 -0.232709 5
-2.45226 -2.0117 -0.134117 0.834605 0.178484 2.99124 2.49015 -0.763484 -1.88974 2.04001 -0.108055 -1.09043 -1.63586 7
3.35094 0.198366 3.11687 0.0198252 -2.22669 2.90735 1.456 0.203106 -3.0512 -2.04883 1.33891 -2.38654 1.21617 2
-2.43501 -0.60969 -0.0311614 -0.437618 -2.67412 -0.692691 -0.0769747 1.24497 0.748121 -2.1606 -1.51477 0.681794 0.148864 4
-3.22852 -0.34 1.49401 1.72103 0.531572 1.08703 -0.315439 1.13759 0.818697 2.24255 -1.30703 -1.49062 0.0178482 9
-2.30084 1.2594 2.37273 -0.506311 2.70659 0.357652 -1.28287 -0.990184 1.85923 0.850214 0.217733 0.304772 0.916656 5
0.599369 2.1829 2.26782 -2.43832 -2.60375 4.29058 1.10007 -3.46786 -2.34871 0.817748 -0.106612 0.243134 -0.160273 2
1.93984 3.24596 -5.35554 1.9593 -2.84344 0.514916 -1.62519 -1.17037 0.595918 2.58527 0.942531 0.418557 -0.815094 3
0.279172 0.714222 -1.92527 1.64301 -2.83596 0.512629 -0.867673 0.474953 0.387964 -0.556173 -0.205568 -2.1345 0.350426 8
1.41421 4.23548 -0.57684 2.46465 -1.48027 0.0896874 -2.63863 -4.01392 -2.24721 0.568496 -0.404431 2.5965 0.769881 3
-3.80291 2.04475 1.24482 -1.31544 0.769431 3.08901 -2.39408 0.0877593 0.181254 0.064588 -2.10456 -0.301506 1.46434 1
-0.364702 1.14983 4.37011 3.55292 -0.336572 1.78926 -1.0119 0.942249 0.465133 0.0737257 2.88676 -0.109012 2.30575 8
-4.82716 2.49298 0.542738 -0.723222 1.84327 0.515172 0.842316 0.862099 0.790544 0.566941 0.072347 -0.0122166 -1.5032 1
0.141622 1.269 -2.94657 2.35124 -3.51866 0.553807 2.86632 0.731651 1.15779 -1.21782 -1.49726 -1.22327 0.495098 8
-2.50712 -0.229802 3.73044 0.153306 -2.97466 -0.631933 2.05662 -1.2647 2.79204 -0.486195 -0.812607 0.990836 3.87482 8
-0.165127 -4.80834 0.424028 -0.23425 1.81671 0.673906 -1.27236 0.436823 -2.09942 0.514596 0.725642 1.87035 0.720858 4
5.90903 0.942288 3.95219 3.22003 2.98963 -1.5595 -0.876423 -3.22856 2.14374 0.203061 -0.169013 0.379957 -0.714629 0
-2.05346 0.757736 3.75043 -0.897766 -0.463877 0.969026 0.108098 -0.929879 2.13337 0.993325 0.653423 -0.64822 2.14929 8
-0.810893 -1.84344 0.954894 2.43662 0.483077 3.63494 1.86618 -1.11273 -2.21497 1.05466 1.17037 -2.01288 -1.36697 7
-0.280073 2.35003 -3.43498 1.62621 -0.4808 -1.02912 -1.82955 -3.1965 -0.636805 0.605052 -0.214194 0.425502 -0.830086 3
-1.2614 -5.16319 0.186388 2.52845 0.726073 1.34748 2.21568 -1.02265 0.540481 1.36954 -1.21093 1.3296 -0.425707 7
-1.62461 -0.783798 2.73429 -0.754556 -0.39359 2.27684 -2.60143 -1.6708 1.20726 -1.95438 1.3774 0.247556 1.14596 2
-4.23632 2.31666 0.292673 -1.17778 2.18951 1.62327 -1.52568 0.354003 0.694328 0.255937 -1.34573 -1.15889 -0.425701 1
-2.28538 1.05636 2.23674 3.00514 -0.673269 1.34021 0.298391 2.14455 0.667783 1.06857 -0.757945 -1.08262 1.18981 8
-1.52273 1.18316 0.0572458 0.47684 1.48093 -2.08448 0.183498 0.0796885 -3.84251 0.17461 -0.308053 0.4467 -0.135091 5
1.84679 -1.284 4.7597 2.1168 -0.916893 0.74564 -0.276392 2.234 -0.446282 -0.00666257 0.835991 -0.563977 0.0752109 8
0.945052 1.84636 3.30356 -2.70541 -0.390861 -3.61318 -0.350078 0.503533 2.05335 -0.419029 -0.112221 -0.185267 0.667182 6
-0.345374 -3.92133 -0.860125 -0.411204 -0.0255647 0.617858 -1.92914 -0.294612 -2.09354 0.542377 0.162646 2.5957 -0.420534 4
4.48478 3.77685 1.65682 2.74315 -2.59213 -0.20052 -1.61788 -2.14802 0.377203 1.21842 1.09244 1.99798 0.522132 3
-1.39725 -2.56364 -1.03949 0.805488 0.0935766 -0.599163 0.406401 1.03248 -2.21732 -0.625367 0.262604 0.0232224 -0.279441 8
-0.892051 -2.5862 -2.91855 0.276658 1.42233 -1.01971 -0.557267 -1.73919 -0.133256 -0.509721 -0.108634 0.756933 1.18578 9
3.28322 2.85407 -3.33533 -0.614198 -0.184933 -1.73992 -1.50449 0.289418 -0.8606 2.59397 -0.971905 0.725997 -0.281531 5
0.737682 3.11016 1.63546 -3.74873 -2.62876 2.01331 3.23382 -1.18236 -1.64785 -1.6424 -1.79846 -0.00237367 -1.41545 2
-0.96435 -0.810737 1.18655 -1.40445 -1.1735 0.0566508 -0.910199 1.31657 0.788851 -1.64741 -0.641434 -1.54772 -2.12891 2
0.85346 -3.20116 -0.706891 -3.19844 -0.210225 -0.345026 -3.19658 -0.867658 -0.0753206 -0.111149 3.22982 1.53498 0.334304 4
0.950538 -0.0630294 -0.35433 5.01913 -1.10292 -2.10429 0.430122 1.54876 0.48629 -1.92773 -0.396169 -0.213749 0.324911 5
-0.0652504 -0.661713 2.29483 2.76553 1.35104 -1.47904 -0.19971 0.287021 1.24741 -0.485573 -0.987152 1.79648 0.622114 5
1.4385 -2.94965 -0.758904 2.53521 -3.91573 1.75452 0.79505 2.31376 2.21177 -0.671177 -0.0365773 -1.24848 -0.0117093 8
-3.21281 -1.83172 -0.549891 0.762068 0.592923 0.130302 0.654195 -1.16279 -1.13924 0.642836 -0.410898 0.912033 -0.863629 9
-4.03354 0.213728 -0.893156 -0.232437 1.79847 -2.14548 0.970864 0.438588 -1.25019 -1.9523 1.67747 1.624 0.809299 1
1.28029 0.710282 -5.84193 -1.29069 -0.113917 -1.07731 -0.932641 0.547973 1.75343 3.37058 2.47971 0.154463 -1.24158 5
4.49864 0.409999 -0.552292 -3.10022 -1.42889 -3.0268 0.332883 3.14958 0.141265 2.28294 -2.0099 0.688273 0.0446414 6
4.25577 -1.0179 4.05901 -3.42685 -0.909764 -2.78604 2.18128 2.28227 -0.379677 0.116259 -1.31481 -0.655152 -0.91821 6
-1.8892 1.31432 1.04104 1.21932 -0.225345 -0.964912 0.707265 -0.95486 -0.608112 -0.149842 -1.09971 -0.846322 -1.2047 0
-2.67716 2.69363 2.23748 0.549286 3.09251 0.552241 -0.957316 -0.516271 1.47106 0.629729 0.386825 -0.244542 0.744281 5
-2.466 3.58509 -0.479038 -0.925869 1.63375 -0.330977 1.23307 1.11002 -0.806562 -0.662807 -0.0511646 -0.660033 -0.96848 1
-2.97622 0.573574 2.41156 -0.421469 0.714587 0.122911 -0.141379 -1.70997 2.22601 -0.165486 0.655415 1.55901 0.803802 5
-0.151968 1.29876 1.14973 2.17653 -0.132182 -3.18743 -2.16895 -0.410401 0.566447 -1.91827 0.945159 0.156226 -0.922471 6
-2.67935 -1.92817 -0.301595 -0.199065 0.724549 -1.69665 -1.60525 0.860267 -1.53335 -1.06401 0.0987713 -0.753501 -1.58806 9
0.498169 -3.42197 -2.61239 1.02387 -4.75039 -1.48591 -0.687437 0.180003 2.38005 -1.58062 -1.2165 1.17382 -1.03577 4
0.418378 -3.29453 3.31633 0.680448 0.103343 0.996787 -1.04955 1.82155 0.522147 2.87592 1.33508 -0.680753 -0.233194 4
-3.34726 3.27932 0.879238 -0.557343 0.412791 2.72812 -3.13688 0.00926647 1.40777 -0.825367 -1.93632 -0.36572 1.44723 1
-1.26389 -2.64337 -0.110823 2.01131 -1.38348 0.349879 1.51952 1.58902 -1.25902 0.651864 0.992697 -0.067782 -1.44302 8
2.09334 0.807408 -2.90098 3.70149 -0.00795885 -1.87347 -0.779772 1.42504 -0.483565 -1.33061 0.363775 -2.1921 0.768525 5
1.36818 0.866376 4.13117 -1.14451 -3.80302 -5.00868 2.08229 -0.44209 0.822985 -0.257138 1.41965 -1.77033 -0.566259 6
4.50002 -0.317066 -1.15933 1.9369 -5.89434 0.979813 4.85379 -0.7032 3.68642 0.403701 2.56369 -0.631068 3.63751 8
-4.47774 2.37116 0.587437 -1.16821 1.11369 2.21458 -1.10078 0.202375 1.1641 0.0426491 -1.99338 -0.923815 -0.58449 1
1.48223 1.28342 -3.35852 2.70063 -0.344755 -1.0032 -2.90716 0.986049 -2.2697 -0.736631 0.0637035 -0.421031 -0.616473 5
0.510578 -2.85334 -2.52145 -3.56422 -0.976721 1.03514 0.11469 0.513543 3.64214 -0.362919 1.86005 -1.03122 -0.560155 9
-2.30354 -4.18604 0.705081 2.6635 -1.51156 -0.15124 1.87058 0.808491 0.277687 1.57721 -0.369555 0.87679 -1.04892 9
-0.762385 0.946403 -2.31247 -0.23722 -1.95406 4.24326 0.173448 1.38107 -2.03032 1.15732 0.798629 -2.11832 0.191912 2
-2.6604 -1.75483 -1.63372 2.57838 -1.10168 -2.8124 0.597839 -0.0636583 1.03506 -1.93297 -1.4994 0.81812 0.921005 9
-0.646873 -3.26747 -3.88824 -0.533496 1.02637 -0.471763 0.585157 -2.80308 1.42071 -2.03307 -0.517242 -3.47498 1.17511 7
-1.3794 1.91622 1.84533 2.00402 -0.593706 1.22127 -0.782913 1.81427 -1.11724 0.141219 1.06452 -0.977112 1.39091 8
0.175917 -4.51976 -1.65006 -0.723914 -0.391955 -0.0996671 -1.96611 -0.0806406 1.59592 -1.90999 0.352958 -1.19697 -0.530179 9
-3.09657 1.52199 1.96691 -1.03289 0.294055 -2.21345 0.619976 0.0587283 0.112132 -1.95361 1.33536 -0.327473 0.63058 6
2.34141 -0.140165 0.0176173 -3.41389 -2.63989 -3.28434 1.31411 0.365078 2.06635 2.28131 -2.3398 1.34086 2.60378 6
-2.69691 3.12993 -0.219476 -2.35273 1.74443 -0.120186 0.100324 -0.160019 -0.643147 0.133075 -2.0177 0.248447 0.454648 2
6.80245 2.94388 -2.06224 -0.604894 4.43049 2.64628 -0.27831 2.27759 -2.33953 -0.574907 0.225267 2.13105 0.250082 0
-4.03095 0.958437 -0.736515 -0.592006 1.5912 -2.09681 1.22866 1.00285 -1.48734 -1.52169 1.66163 1.85887 0.90728 1
-2.17337 -2.77334 1.74 -0.900557 0.443566 -1.2277 -2.13773 -1.08294 -1.39402 0.827235 1.5432 0.282313 0.534966 4
-0.756273 -2.18061 0.459056 0.135274 -1.20023 -1.98354 -2.28339 -1.06021 2.63367 -1.42158 -0.302222 0.766749 -2.27393 4
-2.09529 0.556655 -0.0844889 2.62215 -1.36903 0.752118 0.841905 2.23957 -0.0156737 -1.13975 -0.429867 -0.647786 1.81959 8
2.07822 -0.554646 0.82532 -4.37233 -1.97836 -2.6743 0.971076 2.84494 -0.91312 1.65944 -1.96575 0.335989 1.37298 6
1.08438 2.10513 -5.33674 1.37343 -2.29474 2.67435 -1.88532 -0.229 -0.122578 1.39396 1.81263 -0.475488 -0.0274833 3
-3.20409 -1.09406 -1.20045 0.652648 -0.106558 0.0444983 0.357288 0.876281 1.42837 -0.513247 -0.839424 3.85511 -1.94681 4
-0.686169 -3.01227 4.34385 0.107959 -0.0334068 -0.695521 -1.5106 1.06094 1.03074 3.12531 2.56444 -0.683772 0.473632 4
1.24205 -1.95796 1.8158 -5.63618 1.2302 1.56418 1.4125 -0.589975 0.363186 0.303796 0.55661 0.950658 1.13561 6
2.23492 0.424355 3.87783 3.63477 -4.08936 1.36075 -0.459613 3.30097 -1.55168 1.48611 0.902351 0.0181398 1.21257 8
-2.83076 -0.740772 0.641913 0.753723 0.217267 -0.170689 -0.0768802 1.76672 0.293234 1.75917 -1.12602 -0.944931 -2.44801 9
3.61591 3.67906 -2.67834 0.886131 -0.10326 0.224484 2.038 -2.64216 1.35705 1.11084 -1.14318 -1.68374 -1.0944 3
2.38255 1.32174 -4.74092 2.0266 -1.59341 -1.72758 0.566547 2.09158 1.40867 3.06052 0.615664 -1.84416 -0.804731 5
-0.465167 -5.03843 -0.583699 1.06916 -1.71667 -1.66853 -1.40261 -0.540595 1.2526 -1.41752 -1.14506 0.52104 -0.382944 9
4.55084 2.46798 3.59148 -4.76277 -0.591534 1.15213 0.0798107 0.27274 -1.48974 -2.14357 3.32684 1.24092 -1.82155 2
-2.34204 -2.116 -0.658553 -1.10589 0.938903 -1.82852 -1.76031 0.508817 -2.70608 -0.391701 -0.840152 0.219224 -0.0609497 4
-1.08338 1.21745 1.78191 3.65492 3.08329 -0.277572 -1.10731 0.0724763 -0.386748 -0.956828 0.517188 0.655278 0.0257425 5
0.0852618 -2.19094 0.408256 -3.76034 0.217822 0.484117 -2.98719 0.0944161 -0.720017 0.206647 0.723777 -1.35504 0.822923 4
3.28579 1.82944 3.55032 -3.44676 -2.14353 1.1951 1.87554 -2.96347 -2.23772 -0.495173 -0.240471 -0.724597 -0.80701 2
2.50921 -0.57236 -1.0627 1.65947 -0.898458 -1.31664 -1.46825 -0.755958 -0.403177 -0.0600775 -1.85167 -4.47678 -1.57913 0
-4.91022 2.83712 0.865038 -0.506701 1.20393 1.01454 0.854901 0.86648 1.82418 0.261921 -0.211317 -0.308774 -1.33632 1
0.386403 0.570513 -1.47427 3.72646 -0.0775895 -2.00082 -2.13414 2.35226 -2.94908 -1.69924 0.505474 0.146886 0.486368 5
-1.01208 -1.86313 3.13448 -0.594486 -1.90987 0.226066 -1.45771 0.531153 0.0969977 2.22095 -1.51354 -0.850872 -0.429361 4
-0.974659 -0.0355739 -0.194049 -3.04883 -0.0776436 -1.60812 0.691706 0.187445 1.41466 -1.52583 3.10492 -1.24343 0.99553 2
3.77263 0.405134 -1.63112 0.482485 3.91829 1.46587 -1.68494 3.37814 0.547645 -0.149161 1.13238 -0.400317 -0.174546 0
-4.78476 1.66638 0.437324 -0.949484 1.57429 1.60458 -0.0266931 0.508587 0.70609 0.787262 -1.25368 -0.334107 -1.45178 1
-3.14701 -2.75394 -1.31779 0.866071 1.00978 0.319194 2.82805 -1.09466 -1.65898 -0.164187 -0.0710514 0.718085 -0.571929 7
-3.75399 0.10051 -1.0597 -0.269237 1.30426 1.13468 0.931898 0.500451 -1.81038 0.585155 -0.450779 0.549874 -2.07237 7
0.91197 2.56205 3.32726 -2.4054 0.0544834 -2.13705 0.38668 -1.80673 2.64204 -0.919842 0.461303 -0.328149 -1.37317 6
1.81629 1.97851 -1.63622 3.3038 -0.218816 -1.86967 -1.69087 0.347739 1.31863 -1.37931 0.727517 -2.59091 -0.546315 8
3.97231 1.38008 -0.923019 -1.83669 -0.349013 -4.19979 0.647916 2.16245 0.639923 2.64408 -1.27131 -0.493556 -0.362127 6
-0.786932 0.516402 3.50651 -0.538078 0.770705 2.4678 0.0711882 -0.271818 -0.741632 -1.43589 1.21098 -1.38001 -0.24533 2
-0.852114 -1.37876 -2.03991 -1.18013 3.02787 0.154367 -2.82085 -2.81739 0.763068 0.301898 -0.305654 -0.820378 1.72742 7
6.1793 0.928252 -1.14791 -0.0914509 1.07542 0.457395 -1.06665 2.28802 -1.55986 1.60779 -2.2756 -1.26968 -0.815606 0
4.33273 0.703764 -4.00937 3.52913 0.679754 -0.0400131 -1.73249 0.773998 1.05568 0.785759 0.597791 -1.09914 0.506826 5
3.78394 -0.710919 0.544796 -0.310215 -0.677188 -1.72094 0.217145 -1.74435 -2.94754 1.6735 -2.03261 -0.719803 -0.952708 0
1.56128 -5.07177 -1.29942 3.99317 0.558064 -0.391416 3.87289 -3.16163 1.2723 0.385587 -0.275176 0.060528 2.25442 7
1.59387 0.921696 -0.680014 -2.52497 -4.09222 1.57336 -0.85349 0.830462 0.780038 -2.75468 0.328807 1.23195 -2.75832 2
1.78609 -1.68919 5.99371 1.17853 0.972568 1.45403 0.331476 -0.60943 2.87014 0.863165 0.710471 -1.36276 0.339607 9
2.51795 2.87026 -5.0695 2.47184 -3.75335 0.518323 -0.398972 -1.50215 0.823258 1.35185 0.51601 -0.269909 -1.01236 3
-3.94054 3.18709 0.480899 -1.46815 1.43809 1.42563 -2.05663 0.0676956 1.4601 -1.0167 -1.39244 -1.05365 0.589519 1
6.38207 -0.712242 4.33648 0.253889 3.47571 -1.07871 1.57962 -0.857177 4.24199 -0.741645 -1.40355 0.745762 -0.293698 0
-3.71373 -0.476101 0.387145 0.504823 0.614517 -0.233992 1.32673 0.844892 -0.507224 1.46409 0.585107 -1.10609 -0.293237 8
0.324825 1.0503 1.62979 -0.509532 -1.79317 1.34662 -1.61408 -0.768312 -0.853186 -1.74678 0.486124 0.16664 -2.30596 2
-1.44304 -2.59199 -0.792295 0.0479211 -1.49122 0.0659796 -0.639911 -1.16467 2.64659 -1.73982 -0.663484 1.84045 1.1954 7
-0.214777 -3.27752 2.101 1.19996 1.2218 1.49799 -0.719014 -0.158986 1.30472 2.90426 0.36022 0.0834221 -0.636122 9
1.1182 -1.31924 2.93407 4.12906 0.244804 -0.190287 1.40335 1.34207 1.4481 -0.699272 -0.626652 0.560804 1.03972 5
0.633265 2.38837 -0.465082 1.48361 -1.51761 -2.89776 -1.60616 1.66036 -0.754248 -0.943546 0.101785 -1.16871 -0.0833529 5
-4.66435 2.33496 0.511914 -0.509164 2.03404 -0.644599 1.98432 0.979012 0.163703 -0.0377243 1.03617 0.79849 -1.14063 1
-1.5265 -1.42533 -2.49351 -2.33392 0.630613 -0.0357146 -2.68313 -0.186852 -1.40611 0.379658 -0.492176 -0.811129 -0.0239522 9
2.14232 0.297152 3.97049 -3.67333 -2.31899 -4.36708 1.68457 0.768788 0.266322 0.786937 0.715705 -1.82438 -0.00920479 6
0.75787 -3.94919 -1.67519 0.767735 -2.57395 -0.343116 0.577595 -0.111166 3.27614 0.673824 -0.703703 4.194 -1.43813 4
1.59895 -2.59944 -0.335083 -1.70482 -1.50729 -0.336135 -3.7101 -1.03666 1.7834 0.164346 -1.47937 -1.53073 -2.87234 4
-0.97917 -3.08812 -2.53149 -0.15255 1.88058 -0.868089 -1.04842 -3.38295 1.15761 -0.382315 -1.71793 -0.947903 3.09232 7
2.11429 5.18252 -2.1028 -0.114982 1.99541 -1.89492 1.77866 -1.37031 1.05654 1.75398 -0.593196 0.421369 -0.082118 3
0.136154 -5.46497 -2.73909 1.69882 0.408446 0.968107 3.15079 -3.3841 -0.603197 -1.993 1.13897 -1.2948 1.58452 7
1.72315 -2.27611 -3.33852 0.926534 3.3006 0.29622 2.185 -1.51197 0.0667254 -0.181952 0.233394 -2.14405 1.84695 7
-2.42272 2.47544 1.61261 -1.79902 -0.596842 -2.37247 0.418981 -0.960464 0.622884 -0.614289 0.632466 -0.476852 1.52511 6
1.58308 0.278696 4.51726 -2.31752 -0.907792 -4.0001 0.523731 -0.496146 1.62799 -0.186567 0.232035 -2.00521 -1.40759 6
-0.733726 2.62444 -4.43611 2.06448 -2.27806 0.92422 -0.165602 -1.18541 -0.370728 -1.05789 1.09411 1.15475 -0.658396 3
2.27529 -3.41138 -2.23136 4.42226 -1.43449 -2.15371 3.68487 -1.75372 0.902109 0.889913 -0.238215 -0.6034 1.08295 9
-2.70767 1.62875 1.43775 1.46289 0.407049 -0.584562 -0.00814325 0.673593 0.66807 -0.164553 -0.0523584 0.418412 0.817262 8
-1.5904 -2.18095 -2.6844 -2.10962 -2.07165 1.29415 2.05124 -2.14883 1.13979 -2.87281 1.12202 -2.58548 0.0692121 7
-3.88481 0.889091 0.116206 1.69585 1.24231 -3.20326 1.9419 1.11768 1.36387 -0.0215176 1.27577 1.85226 -0.589744 1
-0.45218 0.699263 -0.888204 -4.24888 -1.90439 -1.01623 0.500042 1.00727 2.69174 -1.55789 2.90358 0.629101 0.58267 2
-2.29387 -2.17434 -0.1494 1.94814 -0.50864 -0.359482 0.500816 1.78882 -2.10342 1.47349 -1.01413 1.05032 -1.33785 9
0.895567 1.66025 -3.86599 -1.69729 0.982431 -1.63027 -1.34906 0.640267 -0.811199 3.56308 -1.28664 -0.222688 0.595132 5
1.81309 1.72409 -0.465894 -0.678467 2.24813 -3.6131 0.94207 -0.752502 -0.338233 1.71246 -2.2947 -0.452831 1.29581 3
-2.9976 -2.09312 0.920454 1.86793 0.929659 2.99421 2.37257 0.250977 -0.302694 1.73679 -1.17571 -1.42691 -0.742397 7
1.43376 -4.95406 -1.31393 -2.74002 -2.30233 0.768948 -0.385559 -0.0951049 3.91506 -0.239804 1.58784 -1.65641 0.00143875 9
-3.53467 0.100181 -1.05435 -0.935744 2.44611 -1.87141 -0.767516 0.431568 -1.74127 -1.27958 0.737282 0.489695 1.41497 1
1.61503 -0.332199 0.647176 1.03809 -2.05442 -3.03639 1.23861 -2.12546 -0.294713 0.235947 -1.39945 -2.12345 1.24846 0
-4.7768 1.80094 0.315657 -0.779899 2.15341 -0.0166542 0.90142 0.737216 0.159806 0.605926 0.425299 0.677685 -1.43502 1
-3.89722 0.61831 -0.870506 -0.177093 1.73053 -2.11536 1.87188 0.388191 -1.58101 -1.73963 1.16361 2.00188 0.392474 1
-3.17164 -1.83669 -0.360517 0.574915 -0.765713 0.59179 1.52532 0.232018 1.46082 -0.519607 0.996795 1.27076 -1.58326 7
0.916211 2.85571 -2.59959 0.306741 3.16852 -0.349035 0.913479 -0.317885 -0.591844 1.76204 -0.0538166 0.0507776 0.778646 3
-1.16398 -0.515251 2.21842 3.4051 0.870645 -0.769529 -0.0489196 -1.83963 1.07475 1.22933 0.0425185 0.3816 1.16947 5
-0.951785 2.34191 -2.66207 -0.509589 -0.370521 -1.62964 0.581729 0.67288 -0.219781 -0.796172 0.31831 -1.32162 1.62795 8
6.99648 0.488036 4.81965 1.40822 3.09023 -1.27362 -0.811945 -0.748616 -0.654956 0.208072 0.0812605 0.164648 -0.747433 0
-0.416413 -4.47482 -1.06454 2.36416 1.80326 0.383476 1.6417 -0.950607 -1.9352 -0.540952 -0.937089 -0.843414 -0.480271 7
-1.11339 1.59822 0.0478584 1.26696 0.366449 0.107742 -2.70606 -0.883944 -2.14001 0.414254 -0.13261 3.67798 0.175483 3
-1.28903 -0.458576 -3.44183 1.01675 0.82705 -1.51509 0.686261 1.46676 1.19193 -3.19069 0.0724066 -0.902855 0.228822 3
0.967066 1.74646 -3.72901 -0.87539 2.22527 0.399212 -1.2724 -0.352719 0.326749 2.82406 0.420613 1.19381 0.235048 5
-0.641387 -0.700811 0.884773 3.14586 1.94626 -1.63836 -1.7368 0.122118 -0.293543 -1.20697 -0.212346 -0.0449832 -0.172014 5
4.16084 2.53135 0.622606 3.27798 -5.03247 -0.441098 0.466901 -2.3586 1.15507 0.119913 -0.220088 2.18902 -1.48955 3
-3.2034 -2.07568 1.38569 1.36281 0.468475 0.341682 -0.328482 0.434536 1.02383 2.91807 -0.858963 0.452623 -0.332152 9
-1.04627 -1.21759 0.600151 -1.9005 -0.658415 2.82204 1.38349 -0.372751 0.928801 -1.60277 -1.46176 -2.80475 0.256864 2
0.0779078 -3.17856 -1.49595 -1.78537 -0.716579 -2.33232 -2.90454 -0.131669 -1.5978 -0.1358 -0.720445 -1.76678 0.351227 4
0.205641 -2.90137 0.371689 -4.0954 -0.946895 -1.96776 -0.0124887 -1.05625 -1.15172 1.32103 -0.215067 -0.234988 -0.192184 6
3.27697 0.175659 1.25774 1.70026 -2.01877 -0.670727 -3.10794 1.34986 1.0658 0.386264 -0.786809 -0.108783 0.453017 8
1.15971 -3.79643 -1.13969 2.03489 2.81792 0.454273 3.25944 -3.26525 -0.477112 -0.168572 1.21952 -0.929396 1.39548 7
-4.86874 2.00384 0.207335 -0.571152 2.20556 0.171877 0.961075 0.682125 0.610987 0.3879 0.228905 0.446996 -1.59043 1
1.64856 3.04466 -2.76328 -0.184003 1.2085 -3.26252 0.976447 -1.33057 1.66052 2.46085 -1.37478 -0.249236 0.611755 3
3.93488 0.964159 1.20562 1.10654 2.44231 -1.5468 -0.71882 -0.0603017 -0.483108 0.713656 -2.40375 -1.02101 -1.07422 0
-0.861638 1.83145 0.235036 1.84166 -1.52262 0.805311 -1.40489 2.895 -1.5309 0.205918 -0.807583 0.693627 1.86461 8
-2.94068 1.15678 -2.60465 -1.4269 -0.121141 0.582425 3.85733 1.51302 1.6676 -0.904136 1.85936 -0.00371145 1.68461 2
0.209877 -0.990607 1.95309 -1.11423 -2.22689 2.18716 -0.890986 0.25254 1.49342 -1.56141 -0.6169 -1.92621 -1.1908 2
-2.16629 0.00514668 2.72233 -1.75073 0.496574 -2.96769 0.322291 -0.13797 -1.48088 -1.29829 0.525094 -1.49321 0.152277 6
-0.981924 -2.19622 3.57878 0.422518 -0.524572 -0.0701072 -1.67639 0.251456 1.69751 3.90428 1.68576 0.353081 0.0253991 4
4.08932 -4.81413 -0.549403 -1.97835 -3.07618 1.05305 -3.87079 -0.548808 1.60744 -0.767741 0.326531 2.25908 0.395735 4
-0.754937 1.96235 0.200039 -0.0565418 -4.50406 0.915375 1.13592 -0.323573 -1.57148 -0.527496 -1.80059 1.20456 1.48898 8
-2.55543 -1.33641 -0.661611 -1.49392 -0.128632 -1.33961 -0.589455 0.325472 -0.189812 -1.63489 -0.144707 -0.792023 -0.45271 4
-0.531941 -0.234115 2.94964 0.312289 -0.0461137 -0.0240334 -1.5584 1.45025 -2.2094 0.449394 1.40483 -0.571852 2.50213 8
6.20513 -0.221118 1.92034 2.42605 -1.46551 -2.25662 -0.812799 -2.63762 0.125972 -0.301213 -1.49526 -2.28928 -1.01579 0
1.16051 1.35104 -1.90743 0.76597 -3.50031 2.63767 -1.43919 1.91965 -1.61381 -0.0937817 0.552235 0.484955 2.65738 8
-4.67246 3.45384 1.21336 -0.674546 1.0897 0.686157 1.04521 1.01839 1.77544 0.383677 0.284885 -0.792962 -0.644453 1
-0.54293 3.11128 1.39199 4.54545 -2.72758 1.62733 -1.03494 0.0421157 0.94673 -2.48963 0.859119 1.51426 0.864109 8
3.7777 2.14865 5.4892 1.98086 0.80191 0.368423 -1.68017 -4.16668 3.52234 0.0298596 1.25503 2.63283 0.786313 0
1.30485 0.840614 -4.95533 -0.848899 -0.303115 -1.50865 -1.44923 1.36807 -0.278508 3.20259 0.902909 -0.19092 -1.06696 5
-0.613256 2.28 4.08832 -0.383684 -0.864462 -2.82726 0.504607 -1.87163 1.25558 -2.3395 1.31272 -1.01461 -0.868351 6
-3.03801 -1.67 1.00977 1.10874 1.39023 -0.0910994 -0.206022 1.47866 -0.710715 1.76617 -0.0228398 -0.812097 -1.15606 9
-4.94247 2.86097 1.11501 -1.88389 1.00146 -0.00806178 1.01167 1.29398 1.28066 0.0402866 0.358383 -0.109217 -0.225844 1
9.18461 0.202635 -0.596842 -1.4556 1.12609 0.996642 3.90342 0.941599 -0.112325 -0.0854245 -1.36216 0.492921 -0.782384 0
1.66979 0.647601 -2.45896 -1.13129 2.22083 1.32726 -1.26916 2.75719 -1.90538 0.806113 -0.618532 -1.08087 -0.715281 0
-1.74219 -2.14846 -3.37282 1.45846 -1.94414 -1.20902 -0.317406 0.283906 0.229062 -1.79912 -2.19125 0.943431 0.113732 9
-2.27892 1.93353 -0.839043 1.31743 -0.656243 -0.746319 -1.09189 1.09346 -0.251352 -1.90372 -1.01776 -1.0106 1.32802 8
-4.52304 2.77659 0.544273 -0.800419 1.81951 -0.93819 1.56658 1.54369 0.195973 0.58685 1.57676 0.13637 0.0298399 1
0.403889 -3.71277 1.89105 1.64029 2.19837 3.6002 2.34554 -0.166529 -0.707586 1.95844 1.21695 -2.32363 0.525133 7
-3.87052 3.94546 0.791535 -0.950325 0.467869 1.75525 -1.86229 0.105754 2.20437 -1.063 -1.58918 -1.04951 0.485187 1
0.968943 -5.34241 -0.0991123 1.15092 -0.277647 0.824172 -0.953513 1.20232 -2.03346 1.06599 1.75248 3.05898 1.01788 4
0.347734 -0.119932 0.308603 1.68379 1.55876 -2.15418 -0.394923 -1.34823 0.899278 -0.850062 -1.56201 -0.0393936 1.93202 5
0.11017 -2.63331 -0.751054 -2.27425 -0.579657 2.24333 0.957336 -1.50415 0.170441 -2.57398 -0.785687 -1.80773 -1.43143 9
-4.65007 1.26093 -0.117269 -0.678529 2.76945 -0.0969245 0.749181 0.627885 -0.322247 0.322933 0.492738 0.479251 -1.56784 1
0.168468 3.38565 1.79173 -2.53366 -1.03174 1.82007 -1.27136 -1.51519 -0.986985 -0.630164 -2.31713 2.19639 0.321267 2
-0.786123 -1.14902 0.323572 -3.0901 -0.896429 -2.85938 -0.48159 0.958204 -1.9685 1.10855 -1.17221 -0.449109 0.724022 6
-0.376134 -4.09754 0.796077 1.10611 -1.098 -0.164429 -2.47154 0.624929 -0.244055 1.67061 -0.465305 4.96052 0.0873419 4
-1.69708 3.89676 -0.0918456 -0.890102 -1.16425 2.43491 0.797605 0.0444256 -1.6009 -0.271308 -2.74409 0.389257 -0.119638 2
-4.30141 1.54491 0.0779665 1.13229 0.167659 -2.12172 3.37054 1.30875 0.181303 -1.48672 1.82611 1.91602 -0.0250184 1
-3.51954 -0.856164 -1.48066 -0.203725 1.56577 0.175465 -0.103308 -0.417427 0.378085 -0.0131015 -0.957164 2.10502 0.058052 4
-2.96097 2.16881 -1.6252 0.0445837 -1.09313 0.135687 0.0963427 0.816128 0.620379 -1.68684 -0.839901 -1.11628 0.198578 8
3.85704 1.84634 0.597334 0.916338 3.16162 -2.28134 -0.950337 2.55875 -1.13844 0.249411 -1.31636 -1.11538 -0.176048 0
2.41482 0.868773 -1.28865 2.29219 -0.674127 0.758904 0.281876 -2.00078 1.49581 1.74425 0.326931 0.514072 1.15524 3
-1.75956 1.62873 -3.95481 -0.13257 -1.64741 0.483839 1.65021 0.79894 1.69412 -0.145673 0.805503 -0.219413 0.01039 8
1.64121 3.22742 0.432862 3.84306 -3.83601 -0.932395 0.656024 -2.39871 0.810014 0.332 -0.83274 0.289325 -0.2533 3
-0.0456764 -4.16306 0.753382 -0.0178719 0.297734 -1.60808 -3.5165 -0.238769 -1.31183 0.469678 0.50684 2.00349 0.16673 4
-4.22207 3.88616 0.505552 -0.629489 1.20659 0.465585 -0.184976 0.783939 1.98972 -0.138119 0.0587184 -1.34413 -0.0460045 1
0.505651 -4.8985 -1.16045 -3.63378 -1.41629 1.07674 1.01304 -0.840097 2.54406 0.905098 1.8372 -0.801956 -0.888956 9
-0.794889 -3.26632 2.57299 3.57839 -2.2969 -0.227189 0.462041 2.01382 -0.0261179 2.60481 1.33162 0.412296 -1.2472 9
1.74405 2.41871 -4.83268 -0.901107 -0.0508909 -2.10404 1.89286 -1.35871 0.42765 2.93016 1.7144 -1.23067 2.08342 3
0.127264 2.86668 0.4693 0.425941 -4.025 -1.20997 0.438125 0.547888 -2.35696 -0.802571 -0.0619847 0.414409 2.48062 8
-2.38423 1.08352 0.205809 0.807319 1.77913 1.46848 -0.355196 -2.11472 -1.12717 0.706246 0.283641 0.565998 -0.650411 3
-0.689011 1.7177 3.5871 3.50542 -1.81913 2.33262 -1.09818 -0.25783 -1.62399 -0.549974 1.31397 1.66954 -0.332901 3
0.258958 -3.21978 -1.76844 -1.97566 -2.65936 -0.37052 -2.02057 -0.507671 1.87146 -1.80621 -1.88607 -0.373891 -1.85377 4
5.87753 0.0685097 -2.57593 -0.623022 0.37054 0.476762 0.126381 2.12699 0.7456 1.45607 -1.8074 -3.13763 -1.72369 0
-2.82945 0.189248 -0.194359 1.35545 1.12731 -2.60209 3.26628 1.84905 0.199172 -1.21071 -0.535067 0.797871 0.128986 1
3.93986 2.44535 -1.57109 -0.04347 4.74025 2.31294 -0.525034 0.445151 -0.959565 -1.95067 0.210605 0.73064 -0.287371 0
-1.88062 1.87478 0.0896773 -0.267398 -0.903867 -3.84943 -0.22821 -1.20539 0.796231 -2.0279 1.52238 -0.202171 0.543792 6
4.2753 -1.73971 1.35113 -2.02126 1.18121 0.999825 -2.38944 1.60964 0.880578 -0.863493 1.44491 -2.4034 -0.518084 9
-1.76521 0.918391 2.49166 1.15598 2.85371 0.269979 -1.32481 -0.13662 1.84299 2.10079 -0.526405 -0.911744 0.638931 5
-2.55125 -2.6032 0.412389 2.01798 -0.818514 -0.578687 0.159015 1.43601 -1.44579 0.0912094 -0.498985 0.304272 -1.49439 9
-1.17205 1.85035 1.49089 0.56601 -0.797198 0.0937124 -1.0771 0.711108 -2.71382 -0.906484 0.718477 1.46844 2.74926 8
-2.13694 5.45089 -2.21078 -1.4911 -0.26693 0.680245 1.304 0.382175 0.985919 0.571999 0.331198 0.184687 -0.359555 2
-0.128824 2.12782 -0.845336 -1.04113 0.929254 -0.202013 -0.115114 -2.16671 -0.1645 0.0684967 -0.693483 0.652395 0.655482 3
-0.823392 -2.82947 2.11487 -0.0635979 1.55903 -1.74054 -2.51889 -0.614675 -0.974067 1.90221 2.58678 1.87556 -0.107309 4
5.62219 -1.38941 3.86416 -3.89562 -0.360041 -3.54192 2.73402 1.00862 -1.24225 -0.584831 -1.0184 0.294804 -1.05783 6
-1.12759 -1.7847 -2.19642 -0.339348 1.85618 -0.376531 -2.39961 1.51584 -0.209449 -1.99025 0.118925 -0.527818 -0.550463 5
-3.95866 3.01909 0.658274 -1.4117 0.735258 2.15474 -2.32413 0.305873 1.16949 -0.872846 -1.95518 -0.976388 0.385484 1
-2.23989 1.74024 -2.9414 2.21223 -0.344203 -0.809027 0.633676 -0.966759 -0.801392 -1.35394 0.0933576 1.40851 -0.975612 3
1.4182 -0.425907 4.59545 0.192859 -0.851626 0.758637 0.524826 2.12283 -1.02355 -1.03419 1.66421 0.300943 0.611034 8
2.04317 1.29219 -4.59013 0.665939 -4.6069 2.1433 0.259647 0.742496 1.8951 0.175303 1.66324 -1.17061 2.55937 8
1.2894 -1.69361 3.56242 0.205278 0.579855 -1.36492 -1.46179 -1.60369 2.66888 0.736597 -0.652313 1.13789 -0.0221102 5
0.822737 -0.0165152 1.85674 -3.07214 -1.80128 -4.67743 1.02067 1.14206 -0.880986 0.852166 0.00610793 -1.61598 1.05064 6
2.68073 -3.95516 -0.23419 -3.38722 1.92281 0.301534 -3.0973 -0.0504883 0.0636402 -1.45568 2.00508 0.113966 1.80635 4
2.63654 -4.09107 -3.15869 -0.758289 -4.12347 1.11469 -3.14482 -0.971373 1.58421 -0.235675 -0.647225 1.55259 -0.303418 4
6.34202 -0.0139587 -2.12338 1.59621 -3.57645 -0.0868798 1.19194 1.80299 6.43505 1.07596 -0.358613 -0.9811 1.34006 5
-4.66368 2.164 0.645644 -1.15171 1.68796 1.56835 -0.332837 0.539051 0.665308 0.886238 -1.28223 -0.397601 -1.00027 1
-0.678685 0.245138 -1.10634 1.10466 -2.53717 2.30635 0.191848 2.03669 -2.00436 1.19419 0.0250763 0.858113 1.25229 8
-1.18958 -4.6696 -1.71148 1.14337 -1.38916 -1.19407 -1.09563 0.530667 -0.216779 -1.93689 -1.49692 0.457247 -0.484955 9
-3.94771 4.0737 2.18918 1.23222 -1.51209 1.88771 1.23225 0.681381 2.61503 -0.119902 -0.0515437 -0.866942 -0.584559 1
-1.40443 0.945751 0.766138 3.52402 -2.0273 1.48136 0.743871 1.9941 -0.901171 -1.50643 -1.25881 -0.632915 1.50869 8
-0.728512 1.22133 -1.07669 2.92752 -0.208608 -1.37451 2.6406 -0.153572 -0.36385 -1.46952 -1.83176 -0.482136 -1.12021 1
2.9508 2.63258 1.25602 0.27443 -2.57126 3.56032 0.784871 -0.109346 1.64473 -2.44981 0.0182851 1.225 1.39633 2
-2.91357 1.8519 1.57791 0.384749 -1.46315 1.84423 0.900357 1.17041 1.81903 -0.779545 0.0262152 -3.12291 -0.725851 7
-0.209642 -4.7855 -0.225891 -0.204129 -0.777704 -1.49248 -2.0666 1.03243 -1.87454 -0.109204 0.413967 1.14296 0.705887 4
0.642941 -4.92484 -2.68551 0.253121 1.32517 -0.84452 0.793798 -4.22393 0.329008 -1.43772 -0.862167 -1.03842 3.08422 7
4.59723 1.29686 4.79153 0.547728 0.0257119 -0.0203919 1.43561 -0.899073 -0.589108 -3.69257 2.19904 -1.99339 0.671278 2
1.22899 -0.327837 0.10691 4.12504 -0.646904 -1.23879 -0.673107 3.05912 -0.917371 -1.09017 -0.076117 -0.554694 -0.259365 5
1.02903 0.307841 0.428354 -2.39652 -3.64211 -4.41653 0.323969 1.29462 -0.528919 1.4396 -0.77355 -0.401779 1.96821 6
-1.28509 1.01578 0.860779 -0.901751 0.535981 -3.03613 -1.61665 -0.174214 -0.0487221 -1.80848 0.516406 -1.78187 0.219286 6
0.901372 1.65842 1.00665 4.16975 -4.55934 1.26002 0.280046 2.68616 0.0822221 -1.76987 -0.69283 0.16397 2.34663 8
0.430381 -3.73314 2.61828 1.96508 -0.593407 0.373415 -0.529892 2.12636 -0.958481 1.68309 1.64034 0.326845 -1.66566 9
1.9998 4.09875 0.410648 3.30079 -1.18679 -0.574428 -0.553859 -3.78986 -0.682866 -1.20135 -1.07728 1.10104 -1.3063 3
0.0876936 3.83347 0.247999 -1.08569 -0.80512 2.08955 -1.23024 0.275278 -2.34682 -0.630554 -1.37434 0.122024 0.326768 2
4.54768 1.24686 1.65926 3.67718 2.34077 -1.59233 -2.75089 -0.901323 1.22587 -0.0713827 1.20517 -0.98437 -0.885517 0
-1.9879 -2.74495 -2.58079 1.02518 -0.213171 0.167541 -0.308102 0.154079 1.51482 -2.36338 -1.34365 2.59635 -0.598558 9
-1.15828 -4.61191 -0.150627 2.87191 0.401084 0.117205 0.716407 -1.27294 -1.06645 0.102842 -0.841229 0.374736 0.182283 7
-1.56906 0.466284 2.5056 1.61234 1.91123 -1.13688 -0.262003 -2.39854 1.77155 0.147206 0.242158 1.36108 0.429481 5
2.46284 -3.74464 -0.18883 0.492672 1.18924 2.03751 0.909584 -0.848619 -0.779994 -2.70672 0.973239 -0.0784919 0.675856 9
-4.63151 2.90538 1.79939 0.504388 -0.158404 0.00425594 1.69496 0.308442 2.60924 -0.38339 0.0880698 1.06126 -0.368245 1
-1.2841 -3.52661 -1.19359 0.336317 3.02133 0.125395 0.276284 -3.01676 -1.22907 -0.824402 0.188948 -0.681664 2.02186 7
1.6392 -1.69005 2.17281 -5.11055 0.0178649 -2.04494 1.17751 1.36587 -1.57055 -0.175958 -1.21392 -0.708541 -0.639944 6
-0.683431 -3.74244 2.40941 1.8097 -0.448441 -1.09928 0.582657 1.09788 -0.961001 1.32069 1.34613 -1.27084 -2.58846 9
-0.670363 -3.99895 -1.48626 -0.906056 -0.816135 0.611496 0.362506 -0.0151729 -2.01255 -1.75871 -0.0871285 -0.0854603 -1.56556 9
-4.74274 2.58711 1.34793 0.249689 0.811184 -0.220084 2.34558 1.22858 1.16697 -0.478133 1.15343 0.729303 -1.44791 1
-1.45077 1.05516 -2.13365 -0.20059 1.35248 -1.10035 -0.0677791 -1.53699 -1.39748 -0.96556 -1.36998 -1.43543 -0.0895653 9
-0.916768 -1.26408 -0.100237 -4.04117 2.64269 1.3779 0.201012 0.452509 -1.24047 -0.411093 0.597093 0.00893044 1.23919 6
7.83382 1.59443 1.74438 2.15938 3.16713 -0.786037 -0.953246 1.58337 -0.276862 0.146092 -0.957816 -0.867928 -0.857628 0
-1.179 3.2894 -2.4294 -0.418069 0.782163 -1.89789 -0.757856 -1.99514 0.149715 0.735505 -0.466263 0.476042 -0.83112 3
-3.25817 3.22809 1.34066 -0.662923 -0.31183 3.28776 -3.16623 -0.0255858 1.42515 -0.684981 -2.3523 -0.246414 1.86362 1
2.39962 -4.00751 -1.48144 -4.63498 -0.686702 2.80804 -2.50248 -1.5998 2.06296 0.768702 1.93607 -0.976606 -1.14889 4
6.17454 1.38801 -0.0375107 0.655431 2.57333 -0.178025 -0.75779 1.60569 -2.28611 0.108926 -2.16942 -0.602369 -1.06 0
-2.68276 -1.48524 -3.037 0.181515 0.100557 -0.241037 -0.732974 -1.83656 0.749187 -1.0385 -1.39975 2.24207 0.0846384 4
-1.56674 -0.870086 0.824275 -1.30581 3.44944 -0.960235 -0.909096 -0.0467417 0.0776396 0.251923 -1.48441 0.980115 1.22449 5
-4.31718 3.88454 1.49878 -0.00736913 -0.471236 2.22656 -0.383741 0.507115 2.93752 -0.246409 -0.963807 -1.13113 -0.172116 1
-1.63641 1.78609 0.012826 3.26656 -3.36029 0.462858 1.83934 0.530755 0.536546 -2.81527 -0.848068 -0.603371 0.933777 8
4.72202 2.42626 -1.80609 -0.0558785 4.83223 1.6665 -0.244577 2.06381 -1.614 -2.46707 0.570103 1.22366 0.637745 0
-1.03628 1.84835 1.27154 -3.06417 -2.84075 2.64552 0.986587 -0.627565 0.282395 -1.94852 -0.689706 0.247284 -1.48542 2
0.525416 -3.655 2.12021 1.95809 3.33002 1.47163 2.00411 -2.89897 0.27592 2.06697 1.0211 -1.02412 1.72004 7
-4.35294 1.0971 -0.450029 -0.784643 2.84233 -1.35377 1.04963 0.508853 -1.36989 -0.392874 0.895153 1.69079 -0.320603 1
-0.283085 4.47986 -1.56027 -2.24883 -0.745805 1.64113 0.477873 -0.604963 -0.67094 -0.625156 -2.33235 0.972227 0.525379 2
4.47859 -0.829597 3.03862 -4.59256 -1.24784 -2.38529 2.26642 3.72246 -0.0111792 -0.442767 -1.34335 -0.156022 -0.609924 6
0.906352 -4.93971 2.76227 -1.98521 1.37521 -1.31013 -1.08667 0.874336 -0.91898 0.459051 1.52965 1.33055 -0.384607 4
6.25909 1.39588 -0.975537 0.150993 2.56794 -0.0404033 0.496828 3.16806 -0.711709 1.09616 -1.85446 -1.02073 -1.66573 0
-2.69924 -1.57081 1.9066 2.6957 0.0576051 2.31659 2.59978 0.750184 1.80909 1.65363 -2.33107 -1.69304 -0.614596 7
5.0627 -0.971847 0.942001 2.13768 -0.408017 -0.0313232 -0.162775 -0.0489831 -3.28934 0.310382 -0.642751 -0.929046 -0.834257 0
-4.90303 2.18332 0.284279 -0.7912 2.00648 -0.0782719 1.2273 1.05818 0.58834 0.240206 0.658646 0.403218 -1.26313 1
3.87876 -5.87223 1.6157 -2.03084 -1.94734 1.26653 -2.02377 0.501186 1.64699 0.385818 1.11013 4.29185 1.26614 4
5.05459 0.149773 -2.97797 -1.86552 -0.31405 -0.67485 1.74883 1.53777 0.602493 1.76244 -2.44175 -2.06875 -1.40422 0
3.23606 0.50863 2.33134 -2.04632 -0.918613 -3.23231 0.54717 0.992591 1.08078 0.423405 -2.84806 0.43191 1.47092 6
-2.06071 -2.30273 -0.358768 -0.00836835 0.332663 0.0428004 2.57371 -1.71519 0.961637 -1.76806 -1.93692 0.322044 0.719806 7
0.0356019 0.167307 -1.61428 0.803309 0.277139 0.736012 -2.52576 -0.0768097 -0.345548 0.593982 0.0810892 1.53519 1.52986 8
-2.1187 1.08667 2.18311 0.454687 2.47097 -1.30585 0.13721 -1.51209 1.01549 0.86741 -1.4445 1.28037 1.55162 5
-0.386249 -4.40233 0.971618 1.83103 1.52822 3.5889 2.41811 -0.774846 -0.829636 2.43128 0.371133 -0.43141 0.157891 7
-2.30002 0.218402 2.30416 -0.384102 2.17271 -0.665956 -0.654473 0.0327342 0.182937 0.733062 -0.631203 0.57 0.762947 5
1.03431 -1.71695 1.80492 0.713587 -0.206422 3.69045 3.63265 -2.28489 -1.11091 0.777229 2.295 -2.68917 0.0310303 7
2.94359 -2.9015 1.49081 2.56217 -4.63716 0.723621 3.06584 2.71054 0.856632 0.851588 0.292539 -0.450245 0.735555 8
-1.87054 -2.75323 0.0566451 -2.03483 1.08713 -1.30734 -0.530998 -0.157303 0.799129 0.275958 -0.784234 -1.51576 0.9218 2
5.35976 2.14583 -2.26132 -1.04231 4.36161 3.25449 -0.104544 0.941055 -0.266597 0.0615499 0.284277 1.27992 -1.14473 0
-1.09276 -2.48699 1.09672 -1.72462 -1.16551 3.26887 -1.16455 0.306863 0.950457 1.846 0.132496 1.24762 -1.42146 4
4.84223 -2.2816 1.59927 -4.46142 0.505536 -2.54537 0.617679 2.02043 -0.375151 -1.64315 -0.583935 -0.795998 -0.627076 6
-1.18344 -0.0151487 4.52584 -1.72611 -3.99941 -3.37414 0.944414 -1.23967 1.31121 0.120688 2.33254 -1.1236 0.245394 6
-0.0136759 -0.883621 -3.69809 -1.41454 -1.21136 -0.309252 -0.789457 0.603005 3.41046 0.0141165 1.1435 1.6817 -0.619231 8
-1.9633 1.72796 -2.76445 -1.01293 1.86182 0.424838 -1.31199 -0.125317 -0.868653 1.22472 -0.604535 0.186057 -0.802755 3
-2.53393 0.814811 -1.65041 -0.849649 0.414974 0.397936 0.0296149 -0.60584 -1.74068 -0.287681 -0.658984 0.871715 -0.516621 3
5.00686 -0.199264 0.403734 -0.322147 -0.0706701 -2.24628 0.0876458 -1.05148 -1.74896 0.810992 -2.84027 -2.10265 -1.03321 0
-2.26014 -2.39475 -3.01058 0.689052 0.505595 -1.59742 0.837488 -0.0305339 -0.0952193 -1.66246 -1.06084 1.43992 2.06949 9
-4.58375 2.71315 0.195896 -0.826928 2.11291 -0.25515 1.01803 1.31184 0.630413 0.441847 0.875773 -0.347936 -0.509506 1
0.286086 -3.00721 -1.70133 -3.90407 0.27264 1.25219 1.29608 -2.48087 1.92529 0.677204 2.01206 -2.03256 -0.350448 9
1.05416 -0.764928 -3.0537 1.15349 0.794188 1.13579 -2.84061 2.72713 -0.505419 -1.51857 1.55476 -0.51116 -1.62714 5
2.92645 4.4097 -3.37759 2.2579 -3.5461 -1.6985 2.74285 -2.65337 1.24176 0.362104 0.731116 0.108029 -0.79817 3
1.12221 -1.41017 -0.929407 1.25636 1.63955 -1.5916 -1.19428 1.6209 0.881401 -0.639582 -0.632983 -0.960138 -0.379142 5
3.14712 0.90565 -1.49404 5.16916 -0.906755 -2.47417 -3.28486 0.0875902 1.2147 0.289858 0.560206 -0.687775 0.0289041 5
-0.678873 2.20265 -4.02067 1.19477 0.0952972 -2.02515 -1.47883 -1.51926 0.74913 1.2659 0.198876 0.163496 -0.981279 3
3.70768 0.994019 2.43222 3.46176 3.30835 -1.29697 -1.08355 1.53174 0.863421 -1.55827 1.71255 1.59521 -0.804889 0
3.11183 -1.10314 2.10179 -3.30955 -4.04921 -4.02286 1.608 1.13168 0.820505 2.16425 -0.919245 0.735814 2.44189 6
-2.55897 -2.13275 0.18654 0.428413 0.893906 3.09768 1.84821 0.0898789 -0.991465 1.24426 -0.603246 -2.76252 -0.649217 7
2.85259 0.972454 4.63077 -2.14904 0.0577245 0.645344 -1.73825 -1.27844 -2.18637 -2.4012 2.72139 0.532133 -0.187748 2
-3.35394 2.12815 0.672996 -0.932103 0.855926 2.83451 -3.36753 -0.093923 0.150509 -0.370307 -2.15112 -0.371421 1.76948 1
-4.88183 2.47651 1.39855 -0.650958 0.671472 -0.306277 2.40697 0.6458 0.888364 -0.106868 0.347563 1.11168 -1.02997 1
-2.68353 1.92881 -0.0220392 -3.5151 -0.0826959 0.23668 0.924389 0.558627 0.652804 -2.02842 0.670815 -0.0857561 0.346181 2
-3.82617 0.460427 -0.656595 1.60854 0.359431 -1.83536 3.73921 0.533302 -0.980112 -1.02479 1.25555 1.98705 -0.148274 1
1.60551 3.62789 -5.59225 1.17934 -0.981932 -0.295006 0.870574 -0.784949 1.71141 2.401 1.93603 -0.0726772 -0.14864 3
-1.16039 1.40521 -0.955719 2.51939 -2.18604 -0.619254 0.60625 0.742309 0.142015 -1.04019 -1.43575 -2.22466 0.318605 8
0.531456 0.67892 3.19401 -2.85005 -2.24288 1.727 0.950479 -3.10602 -2.10856 0.251685 -0.891272 -0.79828 -1.95204 2
-0.567041 2.05572 1.0627 -0.254902 -2.96731 -0.91149 0.640101 0.00951493 -2.81337 -1.29095 -0.426576 0.294469 0.854217 8
-3.48004 2.77537 1.97571 -0.992421 -0.471133 3.71254 -2.63402 0.184931 0.891164 -0.419419 -2.14755 -0.158789 1.77245 1
-1.96079 1.58215 2.38939 2.24099 -0.673342 2.12764 0.637901 1.18336 -1.71743 0.994543 0.896863 -1.17922 0.333705 8
0.540125 -4.00026 2.30305 -1.78545 1.04658 1.8366 -0.790618 -0.744148 -1.34614 0.865057 0.835019 1.0707 0.441954 4
2.72638 -2.63029 1.24325 -2.39012 1.21691 -1.48925 -1.19317 0.66133 -1.62636 -1.33136 0.423961 -1.13597 1.71846 4
0.845472 -3.055 -2.02177 -2.10035 -2.32775 1.10321 0.60564 -0.745783 4.04084 -2.12073 0.407067 3.54709 -2.11464 4
-1.13201 -0.485674 0.0801087 0.878772 2.36271 -1.43379 -1.91333 1.31985 -0.111546 -0.996326 0.334784 -2.93143 -0.0986527 5
9.05106 1.26386 1.35652 1.48328 3.1698 2.17862 2.66642 0.907231 0.83011 -2.14947 -2.01085 1.10258 -0.57378 0
0.281569 0.256115 1.39482 -1.33738 2.5836 1.44687 -0.120277 -0.83777 -1.3934 -1.51651 1.36082 -0.802305 -0.621224 2
-1.90893 -2.23083 -0.541239 2.96397 -0.864179 -0.262876 0.834768 0.739408 -1.94089 1.3359 -1.30772 0.994619 -0.916439 9
1.89902 0.746291 3.33471 -3.30455 -0.476751 2.41732 -1.61642 -1.76399 -3.03989 -0.552914 1.95788 0.102746 0.740474 2
0.870231 -5.10803 -1.16872 -2.18802 -0.117878 0.852377 -2.56588 -0.750497 -0.960974 -1.01575 2.19775 1.12553 1.23499 4
-2.68392 1.00741 0.566794 -1.45106 1.14452 -2.50782 -0.573868 -1.70284 -0.360917 0.0273529 0.58739 -0.299772 1.05589 6
3.21772 -1.10948 4.36966 -2.37593 -1.61458 -4.20148 1.813 0.628915 -0.239601 0.493591 -0.8957 -1.62976 -1.57409 6
3.5767 0.240417 -1.43346 -1.23955 3.96024 2.20766 2.77352 1.54906 -0.0749426 -1.89277 -1.08468 -0.235162 0.968344 0
-0.835847 -2.94703 0.882245 0.640133 3.58368 0.362208 0.567077 -0.259706 -1.07523 2.49585 0.212711 0.0562952 1.07646 7
-4.90029 2.69604 0.599085 0.446211 1.11489 0.75501 1.71781 1.08369 1.61174 0.390381 0.411245 0.146944 -1.68063 1
3.99584 2.44538 1.9455 -0.693144 -2.166 2.87091 1.69031 -3.8559 -4.08025 0.063257 1.09117 -0.380682 -0.0687467 2
-2.82657 0.909045 1.44637 0.11114 3.27205 -0.687936 -0.653456 -1.70581 0.642001 -0.200346 -0.108914 1.14782 1.13 5
7.50997 -0.714034 4.1797 3.3779 0.977734 -0.0911066 0.860149 -3.04778 4.0414 0.130216 -1.23103 1.95683 0.523866 0
2.66843 0.2769 0.491977 1.85361 -0.738336 -1.92056 -1.44041 -1.94943 -3.371 0.45643 -1.83005 -1.11031 -0.500323 0
3.72963 1.70323 0.87705 7.41518 -1.70796 -1.81076 -1.28952 -0.498117 1.31697 -1.14149 0.57865 1.31175 0.402279 5
1.00845 0.855747 2.24938 -1.48728 -3.0549 -5.17558 2.24798 1.56668 -0.789427 -1.53878 1.09948 -1.39802 0.559828 6
-1.89857 0.997104 3.13089 -1.422 -0.717411 -2.89996 0.528137 -2.0716 1.38842 -1.30501 1.43704 -0.980376 -0.863835 6
-0.957966 -4.03991 -1.72415 -1.23236 0.839924 0.458021 -0.418558 -1.30895 -0.909137 -2.53715 -0.135017 -1.468 -0.249621 9
1.65887 -0.275201 -2.81861 0.880017 0.454664 0.878691 1.65159 -1.65662 0.539873 0.973483 -0.903645 -2.25473 0.425365 3
0.648459 0.419501 -1.14834 -5.01917 -0.491168 1.01096 1.56784 2.36365 0.39683 1.87835 -1.16247 2.19285 1.05116 6
0.325181 4.73421 -3.6718 0.50463 -0.875226 0.133882 -0.0948734 -2.72263 1.27657 0.525588 0.814913 0.490648 -1.63056 3
-0.836195 -0.216519 1.38459 2.91803 -1.1153 1.07897 -1.19563 2.56282 -1.10316 -0.347041 -0.134344 0.188078 1.53544 8
-2.38153 2.02467 -4.76595 0.732893 -0.115413 -0.845012 0.199608 -0.682258 0.529843 -1.43244 1.35889 0.195538 -0.485887 3
-1.17475 2.72639 -3.85641 0.63276 1.19348 -0.95081 0.360323 -0.894795 1.1027 0.489549 2.62315 -1.67436 -1.12175 3
0.727889 -3.75117 -1.49965 -2.68274 -0.968086 0.0489508 0.212049 0.789032 1.68793 -2.49701 -0.0146472 -3.03104 -1.44855 9
-4.86976 2.14839 0.843878 0.0491136 0.333382 -0.312355 2.81979 0.707284 0.693055 -0.590114 0.559882 1.70667 -1.35799 1
-0.194152 -2.70434 -2.60227 -1.88876 3.17101 0.472769 -0.42448 -2.29783 0.929152 0.466311 -0.0710751 -3.77178 1.09419 7
-3.24677 0.0346886 1.5298 1.3757 0.955059 -0.49206 -1.45828 1.49908 1.43287 2.47983 -0.0885153 0.262807 -0.92102 9
2.75209 -1.10074 0.921336 2.68305 -3.42463 2.59545 -0.464844 2.96967 -1.46552 -0.526982 2.86134 0.769446 1.88733 8
3.87758 2.25567 -4.56596 -0.659342 4.50134 4.13269 0.608914 1.94038 0.582043 -1.39262 2.48758 0.733453 -0.311547 0
3.5624 -0.150191 1.0517 2.4962 -0.591881 -2.35296 -0.275749 -1.81887 -1.65299 -0.250366 -2.33749 -1.923 -2.04007 0
-3.40229 1.46049 1.61731 -0.903306 0.20165 3.45105 -2.88901 0.471097 -0.294887 0.696077 -1.59272 -0.405878 2.20227 1
1.6617 -2.19905 -0.39685 -7.28394 -0.374338 1.6473 2.21769 0.63967 0.603425 1.04738 1.64771 2.01687 -0.099121 6
-2.05839 2.01504 -2.6888 -0.270931 0.101941 0.157093 0.510658 -1.41955 -2.0415 -0.821385 -1.4641 1.35571 -1.27626 3
-0.291259 2.5742 -3.99743 1.27433 -1.21543 0.281436 -2.48802 -0.78079 0.495172 1.20991 1.55905 0.226012 -1.12007 3
3.47603 1.95587 1.69506 -0.562114 1.98383 -2.56317 -0.792495 0.144841 -1.48361 0.907043 -1.91599 -1.16288 -0.27042 0
-1.29761 -3.0181 1.51006 4.74846 -3.26917 -1.01058 1.89437 0.768866 1.57477 1.93711 0.224497 0.968631 -1.26009 9
3.9225 0.996447 4.13626 2.58596 -0.475293 -2.15304 0.0653698 -4.02904 0.840962 0.342593 0.452346 -1.15537 -1.44276 0
-4.57276 2.35639 0.687454 -0.111202 1.74714 -1.39635 2.22612 1.6092 0.2295 0.317027 1.99834 0.608049 0.0182993 1
0.805207 -5.98487 2.39521 1.74233 -1.35184 1.72537 2.28587 1.67826 1.6932 1.50226 0.658934 0.6561 -0.761967 9
0.604323 4.42488 -3.41137 -0.547261 0.382942 0.208725 -0.580704 -1.68499 0.929773 0.793106 1.76756 -0.252253 -0.784899 3
0.882822 -3.36266 -3.24925 -1.4024 -0.334083 0.521166 -2.07591 -0.637136 1.07355 -0.925001 -0.283439 -1.85827 -0.889508 4
-2.44152 1.13131 2.86591 0.337259 0.702165 2.97992 -1.66454 -1.3307 0.113978 0.532134 1.67541 -1.00928 1.00979 9
-2.37462 3.9648 2.13932 0.104812 -1.33499 3.42966 -3.52448 -0.519997 2.27584 -0.9926 -1.93968 0.0327918 1.54959 1
5.12007 0.031375 -1.96147 2.6352 -2.60427 -2.93919 2.04006 -1.29692 2.11156 0.478373 -1.85735 -2.28085 0.662864 0
2.30865 0.139334 0.442764 -0.705801 0.92996 -0.0363999 -1.8712 2.63492 -2.97034 -1.96886 -0.634554 0.0832431 0.629434 6
-1.49097 -3.27506 1.95938 1.5949 1.89684 2.48506 0.947508 -0.0117443 -0.846409 2.32313 -0.797833 -1.67156 0.211607 7
-1.68041 -0.175822 1.98577 -0.826901 3.0274 -0.986781 -1.15804 -0.926682 0.345234 0.543908 -0.74057 0.983264 1.21672 5
-3.30619 -1.47401 0.463083 -1.52881 -0.0138638 -0.060962 -1.83077 -1.23275 0.0843881 0.944065 -0.332814 2.15583 -1.45528 4
-2.91678 1.24717 1.02215 -2.24029 1.13457 0.879105 -2.36088 -0.0248902 1.21606 -0.0173531 0.00403206 0.665302 2.70205 5
0.986505 -1.78599 -3.50764 -1.98158 -0.881867 0.07598 0.727877 0.789019 -0.137033 1.43223 3.62833 0.527936 -0.57229 8
0.792677 -2.36114 -1.55934 -3.92797 1.58811 1.47992 -3.23714 -0.87409 0.805201 1.83731 3.06866 0.370257 0.0533889 4
9.41147 1.55554 0.411279 0.469583 0.46515 -0.42157 0.231222 2.69906 0.110496 0.56371 -0.7451 -1.21255 -0.162488 0
-2.1191 2.84227 0.000246163 0.457881 -1.31555 -2.35762 1.53809 0.309878 0.947026 -2.13056 0.658331 -0.357554 0.931769 8
-3.88721 2.94845 1.94909 -0.378825 -1.08959 3.60816 -1.04701 0.212227 1.4719 0.225255 -2.31747 -0.603458 -0.0396369 1
0.473758 -3.49276 -1.50723 -2.99321 -1.49104 1.43316 -3.25092 -2.24056 0.583236 -0.755929 0.507126 -0.0361932 -1.08533 4
1.5356 1.11043 2.93061 -3.91054 -3.6949 2.68964 -1.98367 -1.28319 0.430563 -1.81108 -0.437925 1.16561 -2.70907 2
2.52711 5.19643 -2.18499 0.581469 -0.624706 -0.0388763 0.662538 -3.77827 -0.438319 1.2335 -1.69843 0.642337 -1.23781 3
-4.79458 2.16385 0.576371 0.0583309 0.707066 2.07928 0.250918 0.46932 1.63766 0.78502 -1.12407 -0.280013 -1.66293 1
-1.33472 2.04466 0.608574 -0.86903 0.246151 2.04987 1.25064 -1.89208 -2.95058 1.39182 -1.92476 0.128534 -1.55221 2
3.64256 1.02434 -0.313274 -3.27794 0.701636 0.691886 0.0642207 3.66237 -0.151379 -1.76363 -0.166225 0.524209 0.0896696 6
-0.0247542 0.826755 0.786013 -1.77413 -1.07398 1.91168 -0.364608 0.0407361 -2.75112 0.739722 -0.433779 1.70105 -1.23616 2
3.83155 0.195636 4.44955 1.27935 -1.14017 -2.29297 0.369911 -3.1748 0.3701 0.274288 -0.591394 -2.18043 -0.365914 0
0.290366 -1.56143 -1.24923 -2.64654 -2.2909 2.99803 1.69416 -2.72086 0.202496 -1.75718 0.128105 0.407729 0.0481353 9
2.49398 -4.01614 -1.24452 -3.25525 -2.20867 2.93296 -3.50495 -1.38363 1.67241 -1.78595 1.63097 1.17779 2.13229 4
-0.386989 2.79808 2.22191 -3.98449 -1.79615 2.26044 1.93222 -2.28502 -0.750441 -0.376233 -1.44961 -0.159428 -2.18096 2
1.27129 0.74636 3.32103 2.221 -2.0884 0.568263 -1.00539 -1.97642 0.687651 -0.0884441 0.509838 1.73917 0.0518189 3
-1.76058 -1.31092 3.56759 -0.421312 -1.25313 0.455818 -1.80236 -0.540617 0.322992 2.3352 -0.00301875 0.225515 -0.260009 4
-1.55032 -0.0781556 1.75482 -1.91762 -0.465769 -3.56168 -0.0911298 -0.540509 -1.30143 0.782973 0.194609 -1.06636 0.617117 6
-3.58283 0.159298 -1.5482 -0.55657 2.59008 -1.64086 -0.8477 -0.241881 -1.76772 -0.467579 0.850835 1.10466 0.616941 3
-2.50349 0.514013 0.0422643 1.56033 0.792097 -1.90372 -1.67569 0.478818 -1.40021 -0.899804 1.38211 -0.110483 -0.263385 5
-0.323327 -1.83803 -1.60564 -2.89181 0.348099 -1.9345 -1.68213 0.312432 -1.74506 -0.14415 0.084474 -1.8713 -0.0869598 4
0.509715 4.54117 1.45677 -2.97912 -2.57414 1.40564 -1.00248 -0.584852 -0.0389657 -1.79789 -1.82174 2.35493 0.292693 2
-1.49978 1.50692 2.53463 3.11747 -1.33232 0.715495 0.454359 2.35271 -1.18246 0.346258 -0.108532 -0.232936 1.2187 8
1.20839 -1.40997 4.28804 4.12724 -3.30243 2.89016 0.701184 2.49474 0.263326 2.18923 0.56945 -1.98154 0.373439 8
-2.56139 -3.47447 -0.979175 1.65415 -1.96937 -1.32975 1.56083 2.04817 -0.243029 -1.34038 -0.896139 1.59026 -0.64788 9
-0.398577 1.50501 -1.95577 1.57334 1.12319 -3.48676 0.0528845 -0.114451 -2.23302 -0.73545 0.152855 -1.1299 0.369179 3
1.47876 -3.25223 -2.93929 0.846322 -1.94351 0.687542 -0.518417 2.09893 3.45288 0.635955 1.33682 -3.18898 0.219188 5
-1.99794 -3.79336 -2.63808 0.877227 -1.11641 -0.484598 1.99733 -0.981 0.847785 -3.14438 -0.0410963 0.482824 1.04319 7
0.0676677 -2.69082 -1.54945 -3.53154 1.29761 0.933685 -2.96782 -0.647022 0.0837554 1.48645 0.91739 -0.291158 -0.626015 4
-4.57262 3.10205 1.69451 -0.316971 -0.177476 2.12605 0.788641 0.491502 1.64537 0.365337 -1.50202 0.21813 -1.01137 1
-0.652938 -0.47978 1.36914 2.966 -1.697 -0.268768 -1.97608 0.471309 0.525163 -2.34568 1.56176 -0.445915 1.03835 8
-0.879275 -3.23746 1.07685 2.08622 1.79481 3.43765 2.23709 -0.668469 -1.69672 1.7402 1.9184 -1.6101 0.0288519 7
-3.74948 0.288012 -0.873936 -0.798612 2.26476 -1.89054 0.49567 0.718019 -1.50907 -1.47998 1.14427 0.760383 1.21097 1
-0.414994 -0.34796 2.87987 3.54381 -0.936819 0.90065 -0.179544 1.64183 -1.89553 0.985532 2.14045 -0.931417 1.26227 8
-1.90968 -0.835984 0.684549 -0.172272 1.84586 -0.525285 -0.887384 -0.522367 -0.0190026 0.149172 -0.314407 0.803773 2.02008 8
-0.702497 0.278523 3.0396 0.862861 1.37779 -1.81161 -0.66277 -1.81621 1.09476 0.260946 -0.139542 1.01205 -0.315833 5
1.89107 4.38611 -3.89385 1.58076 -1.88145 0.0546334 -0.465516 -3.00464 -0.607688 1.75497 -1.33391 1.12813 -0.429863 3
2.36006 0.781592 2.99917 4.89149 -1.52943 0.725092 -0.151825 -3.53552 0.221045 0.290927 -0.529571 0.158443 -0.825233 3
-1.85604 -3.12532 0.482678 -0.57978 -0.115043 1.70807 -1.65805 0.532849 -0.288145 2.12651 -0.475419 2.19912 -1.4489 4
4.49012 -0.156652 2.15462 -3.54597 -4.77773 -4.24798 2.35306 2.39749 1.17484 1.35186 -1.07601 0.658756 1.38461 6
0.314812 0.245152 2.59922 -1.36205 -1.57185 -4.92356 2.01477 0.343079 -0.648078 -0.389656 1.71884 -1.52341 -0.448517 6
2.44018 4.20799 -2.00033 1.70337 -0.372345 0.995176 -1.75032 -0.264416 0.68932 3.4211 2.67094 1.66684 0.747584 3
2.88675 4.54632 0.0735403 1.95046 -0.329864 0.155764 -2.05164 -1.72729 -3.09671 1.49076 1.14826 1.86467 1.8402 3
9.14919 1.46462 -1.06419 0.958284 2.92439 0.127762 2.75686 1.74724 0.807211 -0.345568 -1.06432 0.449028 -0.331094 0
-2.60392 0.449986 0.0259973 -4.11603 -1.8236 -0.016828 2.64812 -0.465076 0.609698 -0.237375 2.90334 0.846088 0.0925869 2
0.867272 2.62158 -0.575452 2.16537 2.45289 -0.339315 -2.21139 0.27888 -1.02149 0.460223 -0.811363 -0.950836 -0.379997 5
-4.43721 3.28976 1.21462 -0.765901 1.12725 1.33976 -0.0997651 0.643483 1.91188 0.273991 -0.795597 -0.474042 -0.43311 1
0.282267 -0.429555 3.00109 1.8216 -2.64633 5.67647 1.67807 0.198048 -0.0532652 -0.0952253 0.913154 -2.16425 1.58106 7
-2.14949 -0.0265102 1.77916 -2.17742 0.405745 -3.21849 0.350029 -0.460142 -1.85578 -0.424229 0.570666 -0.837114 1.08654 6
1.28016 -4.19238 -1.0821 -2.08159 -2.02384 -2.01539 -3.16096 0.0572743 -0.765954 0.433344 0.683764 -0.350416 0.968734 4
3.12451 -1.31637 -1.34529 5.00017 -1.55937 -2.20484 -1.53929 1.6741 0.405698 0.341452 0.612568 0.442258 -0.850741 5
-0.169731 -2.93383 0.618404 -1.99184 -1.17922 -1.81556 -0.168202 -1.5768 -2.3772 0.536479 -2.15328 0.0600414 0.485467 4
1.22736 1.61326 -4.00357 -1.11163 1.70332 0.29752 -1.19797 0.522839 -0.442944 2.84527 -0.445313 -1.03713 0.324139 5
-1.4394 -2.16874 1.55796 -1.96564 -0.674377 0.609256 -1.69472 -0.133974 0.95254 0.29737 -0.762931 2.69182 -3.36756 4
-0.447334 1.52839 -3.01535 -0.371147 -0.706866 -0.718597 -0.611496 1.1511 1.04123 -1.07466 0.546935 -0.711087 0.94273 8
-0.975099 -1.11577 0.830169 -2.1456 0.670177 -3.22805 -0.239793 -1.03821 -2.53641 0.639893 -0.790068 -0.54979 0.705193 6
1.08198 -4.68556 -0.0928386 0.0372025 -0.301694 0.199778 -0.847465 -0.0489916 0.580836 -2.08752 0.100765 -1.44919 0.2404 9
1.44041 2.16217 -1.34591 4.56121 -2.59698 -0.306022 -1.19522 -2.22463 -0.174033 0.414406 -0.601653 1.46038 -1.15589 3
-0.395572 1.36578 -2.93969 0.655592 -3.18661 2.02535 -1.3722 1.05804 -0.807352 -0.70658 -0.999697 0.0416798 0.992133 8
-4.19857 1.20536 -0.414225 -0.41372 2.0786 -1.85742 1.8337 1.2663 -1.19547 -0.652405 1.91358 1.64416 0.71744 1
-1.62908 -3.80922 -1.16277 3.78431 -1.11073 1.90076 5.1152 -1.77979 0.423578 -0.391858 -0.0487015 -0.0381733 0.118247 7
-0.82697 3.16361 -2.20162 -1.69822 0.719862 -0.778803 0.738967 -0.621612 0.767094 0.0376248 0.443665 -0.419784 -0.725418 2
1.19538 -3.93645 -0.653068 -2.75361 0.269647 -1.27057 -2.51087 0.259741 -0.449039 -0.259349 1.04603 1.99241 -0.123574 4
0.180681 0.892788 -0.178336 -1.81792 -1.35779 -4.71247 -0.243372 -0.155161 -0.623904 1.65144 -1.31263 -0.43726 2.28799 6
3.49267 2.32084 -2.53514 -0.11168 -1.60036 -2.78715 2.49694 1.17372 -0.638316 1.27462 -1.60226 -0.917774 0.65743 5
-1.22176 3.03469 -3.00216 0.340941 0.813176 -2.73857 1.10223 -2.19028 -0.597149 -0.0758222 0.0799806 0.278325 0.670599 3
0.611811 -0.354432 4.04013 -1.99161 -0.592087 -3.25017 0.35728 -0.624743 0.188847 0.614597 0.162056 -1.87826 -1.03049 6
-3.82679 2.40274 -1.15337 -1.21271 1.17461 0.382665 1.72375 1.19073 -0.852747 0.990227 0.533185 0.286136 -1.2527 2
2.15489 -1.34851 0.881025 1.24999 -1.95829 -2.51617 1.19359 -1.65931 -2.90357 1.00728 -2.52871 -0.533427 -1.54445 0
-2.87178 -1.3933 1.28405 0.0152816 -0.855383 0.299267 -0.765643 1.87753 -0.619754 1.12967 -1.825 0.44802 -1.69113 4
-2.35263 0.407632 0.638886 -2.92656 -2.12087 0.472059 0.751656 -0.969471 -1.02185 0.274248 -0.757523 0.668737 -1.70459 2
1.82958 1.30749 -2.73447 0.128453 2.52746 -0.215673 -1.216 1.63793 -0.839791 0.949749 -1.16938 -0.378889 0.0852804 5
-4.92429 2.27598 0.209633 -0.61823 1.96705 0.135531 0.884379 1.09055 1.11674 0.0759145 0.661099 0.182801 -1.01951 1
-4.61041 2.98125 1.56706 0.0941612 0.102615 0.390442 2.78305 1.08842 1.37802 0.144932 0.37609 -0.11667 -1.29989 1
-0.374434 0.0768496 -0.201128 -2.35961 2.92969 1.60051 -0.539692 -0.604589 -0.366429 -0.62232 -1.61387 1.39765 0.547713 6
-1.52555 -1.6789 -2.77306 -1.36004 -0.240941 -1.09936 -1.64595 -1.40715 2.12586 -1.21675 1.25165 1.54705 -1.28867 4
-1.40099 -3.15897 2.46384 0.781622 0.568731 1.02562 -0.796076 1.6472 -0.331601 1.1745 0.326916 -0.194006 -2.18163 9
-3.22234 0.572241 -1.51359 -0.283684 0.978726 -2.17832 1.09975 1.26943 -2.04576 -2.06749 1.57731 1.09679 0.951869 1
7.06873 1.12312 -1.34274 -0.495332 0.862243 0.702047 -1.2539 1.58801 -2.09467 1.37391 -1.76368 -1.49295 -0.134989 0
3.85499 4.03105 -2.66167 -2.12939 4.2205 2.78089 0.0941527 0.290502 -1.8975 0.0612632 1.34141 2.10136 0.251255 0
4.10223 4.65577 0.318283 2.36661 0.893682 -1.71875 0.0857498 -1.76307 -2.27313 0.68266 -0.944437 -0.0109963 1.04823 5
-2.43618 1.82946 2.11859 2.97066 2.27917 0.295536 -0.36148 -0.0159047 0.348066 0.100918 0.581982 -0.627749 -1.18065 5
-0.874849 0.0651917 1.29137 1.3896 -1.2629 1.63969 -1.65581 3.10252 -2.2143 -0.0445698 -0.350759 -0.94024 2.1056 8
0.483605 -3.06315 -2.95348 -1.74516 -3.32178 0.747103 -0.951345 1.27655 2.06761 -1.93118 -0.615355 -2.17744 -2.01572 9
2.61872 1.61161 1.37976 2.21061 -1.16109 -2.49769 -2.12671 -0.396599 -1.08683 -0.222818 -0.650645 -1.04486 -0.26694 6
0.0251285 -0.335685 3.23579 -0.956766 1.46779 -0.537021 -1.001 0.447424 1.85399 -0.677305 1.97069 -1.45279 -0.0173794 2
1.20552 -3.69374 -0.155473 -0.705037 1.0469 -2.19969 -3.92423 -0.497822 -0.159636 1.03871 1.03143 0.0895652 1.59086 4
-0.681942 -3.35311 2.0372 2.8212 -0.0197831 4.45178 3.43969 -0.642546 -0.697807 1.85468 0.705609 -1.33545 1.03066 7
-1.98312 -0.311619 -2.26233 -1.22128 0.696285 -1.94188 -0.898323 0.00938836 -0.586287 -0.698427 0.932188 -0.36749 1.86609 1
-0.583217 1.20759 2.55371 0.19185 -1.53794 1.52548 0.561764 0.69472 -2.29284 -0.863618 -1.97322 -2.44074 -0.453175 2
-3.41115 0.216877 1.79412 -1.26086 0.82902 0.524146 -0.733227 -1.19462 1.03145 -0.137501 0.396273 1.3069 0.90001 5
-1.52963 -1.22942 -0.760174 0.476542 -0.410055 -2.49156 -2.71642 -0.947445 1.92888 -0.621638 -0.641038 -1.00573 0.68223 5
0.497968 0.36795 2.8557 2.0476 -2.39814 1.90338 -1.07592 -0.458063 -1.57195 1.27852 0.872635 0.146164 -0.511782 2
-0.284407 1.75955 -3.00066 -1.45347 1.37921 -0.240105 -2.01355 0.187696 -1.08386 1.58095 1.42604 -0.586591 -0.398214 5
-1.89276 1.10031 1.43649 2.51832 -1.30128 -1.0402 1.37347 -1.05149 0.188979 -0.357778 -0.184036 -0.655792 -1.2169 0
0.956718 -4.46725 -2.4142 -0.426952 -1.12751 0.00585428 -1.1737 -1.24216 0.776647 0.974834 0.595101 4.89106 0.446057 4
-1.51417 1.19887 2.85353 1.67827 -0.70978 1.24504 0.427203 2.05735 -2.62621 1.34165 1.44785 -0.840482 2.05809 8
-4.07824 1.81044 0.33702 -0.687488 -0.494521 1.60355 1.22522 0.640692 -0.402001 0.32448 -0.17733 -0.643731 -2.1508 7
-1.32678 -2.4603 3.13158 1.76086 1.05583 2.6501 0.407419 0.447374 2.03722 2.85994 -0.931173 -1.42284 1.75777 7
-1.68722 -1.04754 -1.09913 -2.69388 -1.97246 -0.537721 2.25632 -1.8369 -0.266166 -1.9563 0.96939 -0.544341 0.748348 7
-2.47592 -0.357138 -0.754317 -3.18994 -0.294461 0.0181887 -0.625138 0.616202 0.613941 -1.6847 0.92041 1.05016 -0.719949 2
0.510746 -0.295356 0.646016 -0.600823 -1.46303 1.09652 0.556185 -2.10844 -0.688045 1.40404 1.7714 0.914376 -2.84136 2
-3.22132 -2.76684 -0.662044 0.801971 2.0612 0.796003 1.88294 -1.40206 -0.935232 0.89005 -0.92705 0.20911 -0.264711 7
-2.72014 -0.188546 0.570975 -3.37742 0.992861 -0.731773 -0.517043 1.00416 0.987335 -0.67865 0.726188 -0.262203 2.34197 2
2.02891 2.52302 -5.46007 1.40821 -1.32172 -0.678247 0.742757 0.343687 3.55709 2.45891 3.45985 -0.24269 -1.1573 3
-0.227159 -3.10929 -3.08242 -2.23823 -1.33348 1.53129 -1.44722 -1.24007 0.353205 -2.04067 0.995678 -0.79155 -0.53963 9
-2.07132 -3.1603 -2.89449 0.559567 1.0629 0.657814 1.01271 -2.1033 -1.70188 -2.28762 -0.925141 -0.530927 0.0191173 7
1.15967 -1.03826 -2.58555 -0.633494 -2.48722 -0.420351 1.51838 0.979927 -0.123987 -0.249753 2.63316 -0.801328 3.573 8
2.00264 2.09423 -1.49027 1.45145 -3.30009 -1.67078 -2.97858 2.03237 -1.01507 -0.380219 1.30689 -3.0028 0.978922 5
-2.69839 -2.6222 0.210426 1.76664 -2.11182 -1.94698 0.739575 2.33098 0.556056 -0.438504 -0.872049 1.19579 -1.4233 9
6.2547 -0.719172 4.19919 3.53222 1.38218 -1.9824 -1.94203 0.0382019 0.316028 -0.712587 1.46064 0.00726353 -0.563475 0
-1.45899 -2.40714 -2.86701 -1.7142 -0.818884 0.657296 -2.00748 -1.36756 2.49173 -2.36675 -0.402762 0.628584 -1.95971 4
1.08969 -5.85326 2.64225 2.13222 -0.837703 1.91023 2.08819 1.06903 1.95592 1.17348 1.12021 1.1157 -1.4844 9
-1.20241 -2.73767 2.10376 1.21537 1.06041 -1.11171 -1.15626 0.847777 -0.596724 3.16992 2.13217 1.33138 0.236419 4
-4.77555 3.25419 1.88654 -0.595256 -0.80283 0.863498 1.42981 0.458692 2.81684 -0.0191322 -0.311316 -0.181887 -0.421488 1
10.3594 0.814838 1.69746 0.758854 1.50837 2.24142 4.59681 -0.149002 1.19281 -1.10972 -0.131674 0.560231 0.418684 0
0.535742 5.69858 0.7816 -1.59217 -1.5519 0.529865 0.344429 -1.97256 0.405839 -0.919179 -1.69715 1.77747 -0.710289 2
-1.5068 -1.64125 -3.1151 0.643832 -0.6864 -2.86548 -0.670968 0.991932 1.22263 -1.17902 -0.753028 0.498578 0.996456 9
0.582195 2.09349 1.65764 -1.6323 -1.53021 -1.6849 1.55574 1.44514 2.47394 -4.4609 0.594527 -0.38325 -0.350493 2
1.86895 0.242532 5.49934 -1.07571 0.551666 0.940472 -0.545705 0.482664 -1.06021 -3.97512 2.44343 -0.788237 -0.703487 2
-3.69182 3.6374 2.14159 -1.17659 -0.474042 2.94361 -1.21787 0.218526 2.04613 -0.66492 -2.18062 -0.677011 0.602815 1
6.50659 1.58165 2.66166 3.56913 3.49718 -1.53338 -2.24785 -1.96443 2.65163 -0.278301 0.249847 0.511108 -0.809344 0
-1.7724 1.41336 2.96911 1.14173 0.59169 1.56595 -1.9803 0.853085 1.03816 0.694814 2.41594 -1.45062 1.18061 8
5.02377 1.37072 5.15556 -0.427947 -1.55864 2.28405 1.24214 -2.36631 -2.0075 -3.11602 2.14058 -1.42425 -0.101352 2
-2.20337 -2.81757 1.52939 2.47365 -0.168648 -0.540981 -0.386271 -0.661332 0.42798 3.03086 0.487402 0.231521 -0.881858 9
-3.12792 -0.967587 0.88226 0.430518 -0.143481 0.114072 -0.797397 1.25458 -1.36425 2.08825 -0.640979 0.0300637 -0.774093 4
3.10044 1.88874 0.685098 3.95654 -2.63976 3.09754 -0.525547 -1.07303 -3.6865 -2.01641 1.36175 2.33321 0.552016 3
-2.13521 -3.23958 -0.762763 1.12291 2.00074 1.29155 0.938181 -0.707337 -2.45262 -0.298018 -0.337941 -0.28706 -0.710832 7
0.805796 -3.52034 3.22301 -1.40254 0.702965 -0.0191668 -1.8719 2.11597 1.05205 2.89582 1.02479 -0.258525 0.312289 4
2.85446 1.32333 -5.41732 0.0513401 -5.23271 1.5454 1.78008 -0.754684 2.23863 1.69604 2.14078 -0.858498 -2.13973 3
1.39873 -2.10961 -3.96554 -0.349923 3.07062 -1.39168 0.0984577 -1.03599 2.45859 -0.210436 -0.965037 -0.832237 4.53854 7
-0.524432 1.4598 3.14624 1.36086 0.499162 0.606651 -2.72858 1.13774 0.877765 0.943446 0.938885 -1.0854 0.927899 8
0.704412 0.152713 -2.79517 -0.605497 -1.34328 1.55504 2.24528 -1.90868 -1.72747 -0.10022 0.982503 -3.12784 0.0967259 2
-1.45774 -4.26855 0.834157 1.31936 -3.201 0.49095 0.868802 2.1991 -0.985802 -0.00334689 -0.428106 0.804341 -2.00769 9
-0.177705 -4.37261 -1.62578 1.71355 -0.628246 -0.715621 -1.47541 -1.36037 1.23697 -1.41736 -1.6739 1.09463 0.0277441 9
0.689959 -0.588429 1.62915 -3.40186 -2.79728 -3.78249 0.55822 1.2572 -1.32429 0.892108 -0.717209 -1.19966 1.54272 6
5.3757 -0.378815 0.370956 -0.630726 5.41718 2.34463 2.88318 1.51037 2.95312 -2.04688 -1.39417 0.58866 1.50905 0
-2.65071 0.0398345 0.433183 0.945623 -0.407313 -0.744827 2.12097 0.720313 -1.29122 -0.700325 0.439574 -1.29806 -0.870575 8
-0.190771 -1.07945 3.18347 1.7387 0.034488 -1.99835 0.643589 0.670929 1.28199 3.36886 2.14647 -0.043426 -0.674957 4
3.63179 1.35099 -0.0586975 3.09057 -2.30123 -0.639883 -2.81038 0.71114 -0.187132 0.280973 0.81233 -2.33082 1.15878 8
0.642901 0.572806 2.63913 -2.72148 -1.96001 1.88652 -1.75965 -2.33868 -1.09801 0.182698 -0.0716372 1.46733 -1.57303 2
1.4144 4.60741 -2.17884 2.84804 -1.51367 -0.643947 -1.34794 -3.32409 -0.973888 0.147977 -0.865711 1.36836 0.279475 3
-2.48117 -1.72381 1.5019 -0.829839 0.580663 -0.701196 -2.13396 -0.367093 -0.323466 1.90215 0.479383 0.309755 -0.755243 4
-1.02934 -2.54535 2.06025 1.62537 1.70665 4.28381 1.36151 -0.233944 -0.0433572 1.61339 0.411491 -2.46152 1.70145 7
-4.35787 0.894579 -0.318546 -1.24438 3.08005 -1.0083 0.241839 0.642719 -1.21108 -0.537676 0.920929 0.738608 -0.438712 1
-0.35051 1.22523 3.95469 -1.93927 -0.352691 -2.2334 -0.136616 -2.3831 2.31343 -0.806661 0.584794 -0.979714 -1.32199 6
0.209519 -3.22507 -1.50333 -1.86024 -0.233273 1.81274 0.627826 -1.48359 -0.682305 -2.45869 -1.12509 -1.27947 0.102091 9
0.908478 -4.79412 0.532779 0.234266 -1.52314 0.766554 -1.23721 0.226597 -0.528686 0.342104 -0.80998 3.45062 -0.533031 4
-1.17289 -0.964795 1.43767 0.196567 -1.22867 1.44745 -1.95001 2.02184 0.87798 1.47624 -1.8826 -0.70663 1.44977 4
0.527751 -2.47909 -0.487838 -4.87623 -0.497144 -0.0682439 0.917129 1.15192 -0.524194 1.7875 -0.774338 1.69825 0.14372 6
4.28508 0.0755036 1.95508 2.63873 2.55033 -1.32813 -1.9883 -0.653926 -1.24107 -0.173845 -1.03821 -1.19706 -1.2249 0
1.20735 2.73634 5.61825 2.0417 -1.35614 1.40612 -1.2271 1.25589 -0.501234 0.63091 3.65243 -0.199672 1.39172 8
0.773061 2.47731 -3.1464 1.37482 -1.62985 0.452157 -2.07011 -0.00814869 0.611772 -0.270801 -0.249806 -0.909 -0.678234 8
-4.78599 2.81498 0.566078 -0.135744 1.749 0.915387 0.177441 0.826635 1.96754 0.550236 0.222897 -0.476801 -0.787201 1
0.301948 -2.50404 2.19095 3.75389 -2.1264 -0.0586379 0.915912 1.09253 2.33105 0.180332 0.435986 0.847514 0.910291 8
-4.60763 2.82448 0.903033 -0.417716 2.137 -0.315401 1.04415 1.03952 1.01058 0.559836 1.2638 -0.289447 -0.877227 1
-1.16442 -1.91568 3.04629 0.144304 -0.975701 0.10563 -2.97171 1.89608 0.584416 2.43667 0.76306 -0.828827 2.52884 4
2.60844 -3.48075 0.565734 0.906176 0.24726 -2.87225 0.790489 1.75877 -0.402338 0.632538 2.5071 1.83584 -0.00310167 4
-0.192188 0.844819 1.96925 -1.82741 -0.0936458 1.76293 0.050215 -2.11436 -4.00531 0.876216 -0.073593 0.666711 -0.305825 2
9.84354 0.633226 -2.59104 0.401885 2.63622 3.9407 2.57208 1.13445 1.84788 -0.250603 0.937132 -0.67847 -0.504079 0
-0.67257 -5.33687 -1.39383 2.70428 0.259355 1.51722 3.53561 -3.0683 -0.343425 -0.953972 0.536481 0.463977 2.24992 7
-4.53003 2.50983 0.683848 -0.861411 2.43113 -0.644577 0.837659 1.10857 0.817181 0.555446 1.33025 -0.48041 -0.136917 1
0.266087 0.816362 -5.07175 -0.915506 0.21448 -2.15381 -0.536161 -0.995827 -1.52918 0.696396 0.321084 -0.185786 0.797157 5
-2.3015 -2.34626 -0.210998 1.40762 -0.402413 1.78767 3.63175 -1.54743 -1.59754 0.955211 -0.145888 -0.80412 -1.13021 7
0.321372 -2.47835 -1.10229 4.77097 0.292763 -0.0702202 0.243964 1.35606 1.0817 -1.50898 0.54632 0.25651 1.14198 5
-0.89365 -0.467731 1.97029 1.02507 -0.116657 2.52552 -0.794361 2.82548 -1.56132 1.25646 1.08301 -2.14512 0.878321 8
-0.697364 2.51098 0.87425 1.71711 -0.327453 -1.21941 -0.494112 -1.56504 -0.368678 -1.24748 -0.21201 2.35691 0.660108 8
5.04113 0.867132 4.23439 2.58888 3.75369 -1.37904 -1.5878 -1.35949 0.586813 -0.221577 0.340171 -0.571741 -1.11396 0
-0.528238 4.90286 -0.821544 -3.99173 -1.10336 -0.171369 2.24024 -0.27495 1.41312 -1.69833 1.91647 1.37183 -0.281731 2
5.27104 0.955666 -3.60877 -2.24524 2.53957 3.45592 0.464514 2.5928 -0.173709 1.17726 0.582523 -0.339478 -0.836837 0
3.44638 2.73784 0.894336 1.94691 2.97049 -1.68843 -2.63329 0.332613 1.58348 -1.04896 2.10212 -0.80778 -0.397697 0
3.47383 -5.21176 -0.0577471 -2.16255 -0.610162 2.26318 0.937103 -0.205726 -0.850776 0.0398551 2.39746 3.09012 0.843094 4
-4.43665 1.24956 -0.283098 -0.839576 2.98711 -1.06948 0.91486 0.837389 -0.953191 -0.213407 1.17675 0.834676 -0.586278 1
-3.16404 1.91026 -3.00531 -1.49371 -0.769835 2.38519 0.709312 1.36812 -0.552874 0.578457 0.758822 -0.989744 -1.13674 2
-0.172492 0.610674 -0.0746121 -2.16021 -0.27919 -3.83086 0.411779 0.729599 -1.62096 -0.0719271 0.813651 -1.54084 0.876723 6
-0.633811 0.825194 5.06732 1.47989 0.458466 -0.0413041 -0.160061 -0.6322 2.69397 -0.977952 0.223565 1.32333 0.616774 5
-2.8234 2.88149 0.111874 -1.72698 1.82032 -0.929033 1.46905 0.035105 -1.82294 -0.125444 -0.848444 1.1025 -0.456613 1
